[
  [
    [
      [
        0.014511320863151241,
        0.07941950854765567,
        0.21409708596525967,
        0.11401083603963326,
        0.05244802018422542
      ],
      [
        0.2078823039733825,
        0.05053562329604709,
        0.21846549934300924,
        0.23471733307381118,
        -0.027169496675901787
      ],
      [
        0.14025246904629105,
        0.1709631817393262,
        -0.1344013617774231,
        0.02686826509153157,
        0.09990005190452636
      ],
      [
        0.16697991308482313,
        -0.14289080649107416,
        0.2190458808813372,
        -0.04649691654356059,
        0.21527450785572874
      ],
      [
        -0.06503595582947876,
        0.11008776963295605,
        0.24360919788593793,
        0.19835800014821522,
        -0.13119575674662667
      ]
    ],
    [
      [
        -0.014590864836761948,
        -0.17992028657275158,
        -0.06869621157247745,
        0.22196772815946697,
        0.19542977871116862
      ],
      [
        0.09815436152077404,
        0.11225883614378773,
        -0.05159447731494525,
        0.2669815970520383,
        0.10063758742953313
      ],
      [
        -0.12292182775030092,
        -0.24257767505244296,
        0.22116237608771894,
        -0.2690928903480479,
        -0.01789870714474801
      ],
      [
        -0.2184065346039101,
        -0.025643959018290988,
        -0.03624364409135123,
        -0.004514726613056392,
        -0.17214903124537842
      ],
      [
        -0.21251239890011284,
        -0.0057202293091471205,
        0.18914622070631992,
        -0.12587203563043123,
        -0.0017570791666585402
      ]
    ],
    [
      [
        -0.2713937400777685,
        -0.137857189390012,
        -0.09345506586849213,
        -0.26118690597695243,
        0.14264669880632536
      ],
      [
        -0.06550596664719413,
        0.06585893557554563,
        0.14017304202062833,
        -0.11828556585193901,
        0.2924132358825452
      ],
      [
        -0.01531273217882955,
        0.18743447733066926,
        -0.1130383650240044,
        -0.1892367353550226,
        0.18159704299518722
      ],
      [
        0.2714858137676396,
        0.22428585015332636,
        -0.11413096361771975,
        0.05473057245035428,
        -0.11640897480710864
      ],
      [
        -0.02508105790619141,
        0.11118055989040315,
        0.16269763521319228,
        -0.1840758690492826,
        0.32520166989858906
      ]
    ],
    [
      [
        -0.026609338055757367,
        0.05198047570329835,
        -0.19772446132261845,
        -0.15206280302421496,
        0.11457508207418801
      ],
      [
        -0.22279401328493656,
        -0.0628274919338245,
        -0.07640198154527583,
        -0.1959563727278464,
        -0.04281733817691539
      ],
      [
        -0.13172744017990123,
        -0.04848134671207428,
        -0.20258781272190401,
        -0.09332495749717291,
        0.07622133979961884
      ],
      [
        -0.27523086063983454,
        0.11806680742368429,
        -0.28453952629089047,
        -0.14226050931261922,
        -0.009097269337957818
      ],
      [
        -0.19944316484163263,
        0.06071870304552096,
        -0.29935615272019966,
        0.15632830867324174,
        0.041327792484681776
      ]
    ],
    [
      [
        -0.17613569603733445,
        -0.025259386795578802,
        0.06403907446086629,
        -0.2231644744104654,
        0.06243624714297873
      ],
      [
        0.17177388457404902,
        -0.051222793477070254,
        -0.01890833729405178,
        0.23186612904566578,
        0.05223259568515375
      ],
      [
        -0.027945108453395893,
        0.10644032680408096,
        -0.15380122691057996,
        -0.16329192501598336,
        0.044142716401882096
      ],
      [
        0.01459323451345578,
        0.011569855082955766,
        0.08842908794542313,
        0.08477927537263681,
        0.1428714338839676
      ],
      [
        -0.1994215927778247,
        0.0020019103768787526,
        0.1599836834194089,
        0.21877001820263406,
        -0.14707010153405567
      ]
    ],
    [
      [
        0.13671670829584207,
        -0.14532122520736954,
        -0.04896939197560635,
        0.08682841821666802,
        -0.16676444424597994
      ],
      [
        0.15985765431327656,
        -0.16184450169943101,
        -0.054237493590709326,
        -0.03159349241665905,
        0.09900782336906737
      ],
      [
        -0.10786245799381831,
        0.057387766838086544,
        -0.26620201693273154,
        0.12598080986914167,
        0.04759942863115331
      ],
      [
        -0.12070939514107888,
        -0.2724235967582243,
        -0.052844249555783894,
        -0.0714300070801475,
        0.20373661639033838
      ],
      [
        0.0604159231228973,
        -0.17381613548918828,
        0.08664510766985287,
        0.0759771249492609,
        0.0634955701960918
      ]
    ],
    [
      [
        -0.2503408449725077,
        -0.28889882344532847,
        0.21794163881512915,
        0.2070947239416886,
        -0.017447293477234425
      ],
      [
        -0.1830582140355103,
        -0.049727952856454004,
        -0.22890982226033854,
        0.10180778082327124,
        -0.05439566710928131
      ],
      [
        -0.1706894800941038,
        0.14512085036979314,
        -0.053105209445018266,
        -0.25316066752881056,
        -0.1433356682115561
      ],
      [
        -0.09573784114940835,
        0.22594431299637574,
        -0.1257717265903384,
        -0.09157669330759415,
        0.10743496676165402
      ],
      [
        -0.13230901897221542,
        0.25172755217274656,
        -0.09118887619474315,
        -0.04028572395757637,
        -0.2312793683602224
      ]
    ],
    [
      [
        -0.20050613529172306,
        0.021417419074513923,
        0.1877485037632837,
        -0.012841374771198353,
        -0.04368163419526512
      ],
      [
        0.17336577750863771,
        0.1375755133453433,
        -0.21738022908077675,
        -0.028073406438520375,
        -0.14423068488330615
      ],
      [
        0.19013029449248806,
        -0.016894500288898974,
        0.0009949106771706528,
        -0.13976214546100368,
        -0.15348026582900112
      ],
      [
        0.17959355209407107,
        0.13615754306181177,
        -0.12035896938602628,
        0.1532388027781047,
        0.10276434765379396
      ],
      [
        0.05079111456235073,
        0.16085486452433298,
        0.16615729426041034,
        0.1585858303418759,
        0.2040617236813181
      ]
    ]
  ],
  [
    [
      [
        0.08125388597840823,
        -0.03402825524157855,
        0.22989736421666468,
        0.0010517934677860875,
        0.17171826846521251
      ],
      [
        -0.007318399334078858,
        0.11203402391313035,
        0.06217557847900806,
        -0.0077681767388594666,
        -0.0635537205065795
      ],
      [
        -0.14394426533859553,
        -0.17231429612731478,
        -0.1573264621401042,
        0.021035074004313647,
        0.23679410998866396
      ],
      [
        -0.11276830971441244,
        0.21771527388507161,
        0.008204716879512167,
        -0.18049172494661983,
        0.12547880119895105
      ],
      [
        0.0532097632090069,
        -0.015336285500833893,
        -0.1530210298531182,
        -0.11383498548851441,
        -0.2040440040541419
      ]
    ],
    [
      [
        0.09116604853221978,
        0.04892272397359962,
        -0.119880167215214,
        0.07778411522854788,
        0.14877541026645738
      ],
      [
        -0.20815060043722983,
        -0.27523983590407514,
        -0.1143075456680756,
        -0.1892870211090969,
        -0.30251903422553966
      ],
      [
        -0.1632832489038848,
        -0.14564133200429594,
        0.14037878338685902,
        -0.11510124538267334,
        -0.04071144302144555
      ],
      [
        -0.031186219342751037,
        0.0014005129166036346,
        0.18359893807700262,
        -0.011528273821004912,
        -0.027663139751068943
      ],
      [
        0.020718006919095977,
        -0.1924247024618343,
        0.051753584269039046,
        0.13202645476705702,
        -0.17083872914381037
      ]
    ],
    [
      [
        0.060295359315206014,
        0.03410174245318086,
        -0.21886880463758493,
        -0.1974788752539764,
        -0.15310823275357915
      ],
      [
        0.11496355933877003,
        0.21613465590228984,
        -0.19128682073085432,
        -0.16851853117717866,
        0.1412865423366126
      ],
      [
        -0.12911567692935047,
        0.07914415319535242,
        0.007203053222931052,
        0.11832899309929151,
        -0.055169044900838744
      ],
      [
        0.14145712839176183,
        0.06458792926059025,
        0.014827738352545514,
        0.1292380904656535,
        -0.03997325398277523
      ],
      [
        -0.11498415537462568,
        -0.08154001512712157,
        0.17892307461304688,
        -0.0012566504555173903,
        0.09340898449664534
      ]
    ],
    [
      [
        -0.21643743419237077,
        -0.18662261812403558,
        0.4276050210524354,
        0.07576383512127426,
        -0.14908771266924584
      ],
      [
        -0.1097895690631825,
        -0.0910529808511313,
        -0.014055306245132874,
        0.33357563329334033,
        0.031860247118739374
      ],
      [
        -0.146401835402257,
        -0.2238283497384563,
        -0.11170955277681655,
        0.1349237812335529,
        0.21679158297975706
      ],
      [
        0.39770537708871717,
        0.08356903567968764,
        0.17952919904954576,
        -0.28510935441671476,
        0.05875385680011647
      ],
      [
        0.036270526344242895,
        0.0476419897759377,
        0.07973166338828547,
        0.03246157735051754,
        -0.18735208479443033
      ]
    ],
    [
      [
        0.06644697112772815,
        -0.1405076344738606,
        0.020609753949922868,
        0.031991301371686494,
        0.09153528287307258
      ],
      [
        0.22268973115853163,
        -0.20734094290315344,
        -0.018374475353171264,
        0.17306594182929386,
        0.1496545525949951
      ],
      [
        -0.03024103892459901,
        0.2218742606414507,
        -0.15615379472151003,
        -0.1541992049743106,
        0.15328074753391682
      ],
      [
        0.19893367407138862,
        0.16444822407795884,
        0.2237400355445803,
        -0.05893395384499542,
        0.11584757269924031
      ],
      [
        -0.17764715468552902,
        -0.1438649658170442,
        -0.04258367515368637,
        -0.1372669160940147,
        0.1601778641708312
      ]
    ],
    [
      [
        0.15709537660123712,
        -0.11334067941408062,
        -0.034937323877601276,
        -0.29571219523332853,
        0.07771541313906906
      ],
      [
        0.12049442887486977,
        0.13420255916510576,
        0.1983317365078216,
        -0.14848585499600386,
        -0.28743793858447225
      ],
      [
        -0.06242434491841554,
        0.19096756280211521,
        -0.017446623283014457,
        -0.11511373087002313,
        0.01473197746878288
      ],
      [
        0.21969417224015123,
        0.06589819926288548,
        -0.12678664205374268,
        -0.038998526479062066,
        -0.20348657743924078
      ],
      [
        0.05018817285122473,
        0.23237403871211781,
        -0.186621427164786,
        0.03836457372081111,
        0.10485774898095769
      ]
    ],
    [
      [
        0.17899049931808902,
        0.03965287151663502,
        0.18659523453433513,
        -0.2556993492393372,
        0.0963741323137381
      ],
      [
        0.1871986381979072,
        -0.023037242130258366,
        -0.08543260749955049,
        0.11821888192333514,
        -0.1498562914334677
      ],
      [
        -0.07297061197443971,
        -0.09105819003114529,
        0.0019529637019575412,
        -0.05998923159530489,
        -0.3212754121405012
      ],
      [
        0.08558391993762048,
        -0.15066184475619246,
        -0.08726931148970633,
        -0.273449163496517,
        -0.18025615695668407
      ],
      [
        0.1482641961338093,
        0.009218584078911723,
        0.17030840551502058,
        -0.016395126843638762,
        -0.2778755341565938
      ]
    ],
    [
      [
        -0.22212320677136196,
        -0.027040509345604667,
        0.1078536423714159,
        0.27513273040508396,
        -0.19786906455820852
      ],
      [
        -0.0981675327059704,
        -0.1671347587045923,
        -0.10840484915196189,
        -0.21341247754452405,
        0.09035795656577451
      ],
      [
        0.1682730833541366,
        0.03171475211812363,
        -0.29044631118028597,
        0.07776690590742928,
        -0.3035076653412727
      ],
      [
        -0.03306112648905927,
        0.07476436078072801,
        -0.06116544128942088,
        -0.2905184929904142,
        -0.1901992570594932
      ],
      [
        -0.03627065361873048,
        0.18170497810591818,
        -0.21078999012401392,
        -0.25062465318197696,
        0.19233487150244696
      ]
    ]
  ],
  [
    [
      [
        -0.23996654984384697,
        0.19206520784432027,
        0.1685831159619687,
        0.12589270915787823,
        -0.01632898786577623
      ],
      [
        -0.012597170507586648,
        -0.21959985792215622,
        -0.05902335676953857,
        0.20519962252492208,
        -0.18810762345859808
      ],
      [
        0.054046777158463254,
        0.03565842457260051,
        0.046207208882036464,
        0.1332818491834439,
        0.034095743744200664
      ],
      [
        -0.1190871740507628,
        0.06922784466289374,
        0.08042844011601331,
        0.1141843960627672,
        0.22148754010437843
      ],
      [
        0.2287090911941613,
        0.12268398112639824,
        -0.1985651560240076,
        -0.06189003920214939,
        0.22396962647500815
      ]
    ],
    [
      [
        0.0074582707582070695,
        -0.017377580822839828,
        -0.1869550306722838,
        -0.29123725468101114,
        -0.10258852308811237
      ],
      [
        0.17059672136359877,
        0.12834820272720857,
        -0.28049995806328937,
        0.05718823549460856,
        0.1621303554227201
      ],
      [
        0.25731450742542666,
        -0.30677110905325233,
        0.019204691350686965,
        0.12803899459342052,
        -0.018685665771538677
      ],
      [
        0.12422078118283965,
        -0.25855082166840193,
        -0.06487014075142361,
        0.2254236055586742,
        -0.032343279295127585
      ],
      [
        0.03489855189695463,
        -0.03911628487923846,
        -0.08596175819542119,
        0.17698522134976918,
        0.2077002393150934
      ]
    ],
    [
      [
        0.059436241375339954,
        0.013324071647828202,
        -0.2648586876936516,
        -0.1573707143034818,
        0.1970839233769233
      ],
      [
        -0.09298732199300952,
        -0.021912574832165847,
        -0.10938216152483729,
        -0.2738457141022332,
        -0.10812667186842483
      ],
      [
        0.016462808233200874,
        0.15533331148249463,
        -0.20174006082835502,
        0.19838217018305965,
        -0.13731447983887304
      ],
      [
        -0.18846614768016612,
        -0.05142903660598396,
        -0.17109229087410224,
        -0.02332992699451741,
        -0.0975184365266105
      ],
      [
        0.2270911019757686,
        -0.26107692724292664,
        0.100186540523827,
        0.04635734795153826,
        -0.2875767084271847
      ]
    ],
    [
      [
        -0.038155152892681905,
        -0.12302454550255135,
        0.195289462501522,
        0.18436841005912233,
        0.08830545276873074
      ],
      [
        -0.029586619681517053,
        0.24408773520124288,
        0.1248769270484191,
        -0.14513256797454366,
        0.01016971554961625
      ],
      [
        -0.127412542863829,
        0.0765464729750008,
        0.2657081269403654,
        -0.0018835704047384537,
        0.11825219230436809
      ],
      [
        -0.2102607473016431,
        -0.0210622988060076,
        -0.14344167669261745,
        0.3074699860822743,
        0.25095360561182484
      ],
      [
        -0.1364158878495157,
        0.19363930392224407,
        0.08749934540160338,
        0.08349595743957089,
        0.16759338570581345
      ]
    ],
    [
      [
        0.0053081535832932856,
        -0.11794952243298933,
        -0.11827993935802836,
        -0.026821037931435858,
        -0.032285700914156466
      ],
      [
        -0.11064199996029908,
        -0.012792933508185528,
        -0.1801415619106882,
        0.24347577248583793,
        0.1525995748934715
      ],
      [
        0.029009479653232775,
        0.2077616346282946,
        0.0361852873829441,
        -0.12957319729116976,
        0.12494009362347379
      ],
      [
        -0.1451767306025521,
        0.17877050607353057,
        -0.04569179034167727,
        -0.08150240971723038,
        -0.08965441762078136
      ],
      [
        -0.03218205490860523,
        -0.06786521842856955,
        -0.11082074042754124,
        0.05997214562724674,
        0.04538457187117024
      ]
    ],
    [
      [
        0.06347977471373173,
        -0.06717120456538335,
        0.1870648058536777,
        0.18047465409699748,
        -0.14219666511628923
      ],
      [
        -0.00028449280064919,
        0.049822938603184756,
        0.11211222709122473,
        0.17140211968748376,
        0.18983011733648536
      ],
      [
        -0.05396526287847748,
        0.06824732380041001,
        0.08792759508197139,
        -0.058680382073907314,
        -0.1924224120723652
      ],
      [
        -0.15167033574993966,
        -0.25136637945033097,
        -0.045088137508058436,
        -0.21376700169097138,
        0.21372239728102618
      ],
      [
        0.21495460468746466,
        -0.14589360159370732,
        0.08638735824194094,
        -0.0779590993008401,
        -0.24168966958209298
      ]
    ],
    [
      [
        0.1330308830390645,
        -0.252832936882123,
        -0.060032566939013675,
        -0.03675295532774644,
        -0.029947911806797515
      ],
      [
        0.11812300400417512,
        0.09358511956035592,
        -0.009758617939667218,
        -0.09151974619212766,
        0.16638589730876682
      ],
      [
        -0.10636910063918388,
        0.17282765992832103,
        0.10226176196208017,
        -0.0809824925558319,
        0.1612328643233066
      ],
      [
        -0.2988345918470987,
        -0.2354953361970503,
        -0.00803500180815541,
        0.11950937455767413,
        -0.2045400848032262
      ],
      [
        -0.010795642763333453,
        0.11570054693337993,
        -0.15972594589004263,
        -0.024656580053632998,
        0.06049537206044928
      ]
    ],
    [
      [
        0.09870959462158227,
        0.13626186620432285,
        -0.22388316300032104,
        -0.21533636015182306,
        0.03972574094449219
      ],
      [
        0.06296844907365902,
        -0.21048549363101654,
        -0.16974616066622364,
        -0.012330775388653117,
        -0.03160929737351181
      ],
      [
        -0.022582272574507307,
        0.12769524552898,
        -0.07079828120167117,
        -0.14095993864842848,
        0.09699983567460693
      ],
      [
        0.12850933064628886,
        -0.14624798939923117,
        0.1177912188684408,
        0.08809775108588459,
        0.06431839722301247
      ],
      [
        -0.05360082733497808,
        -0.12430751374185614,
        0.2117002681772309,
        0.10567166354928752,
        0.08166279994583926
      ]
    ]
  ],
  [
    [
      [
        0.13300065680897025,
        0.044170396328364406,
        0.1855427621598916,
        -0.019805596987848614,
        0.2009357695947652
      ],
      [
        -0.17385797481830476,
        0.10526175039188378,
        -0.08797182803850481,
        -0.04875776051432927,
        0.18489172847265317
      ],
      [
        0.22362886584343064,
        -0.055776241266081064,
        -0.21375947755703412,
        -0.05953778020096717,
        0.0026544502594486033
      ],
      [
        0.18142897249518408,
        -0.11585639785919366,
        -0.08950668737978092,
        0.19750042388881803,
        0.013216869694894577
      ],
      [
        0.13667698616965634,
        -0.13098604851980497,
        -0.14153835039423046,
        -0.04197144873131705,
        0.2011660032774745
      ]
    ],
    [
      [
        -0.2612106241800612,
        0.016513888008577775,
        0.23733210994836929,
        0.21429784870107793,
        -0.24419220262062497
      ],
      [
        -0.03157585234682862,
        0.2803611804400194,
        0.17203234158535052,
        -0.07716267100325784,
        0.04229793546307834
      ],
      [
        0.14064990283248413,
        -0.11863467136505425,
        -0.09496911989257027,
        0.10021085055834937,
        -0.1734928051506207
      ],
      [
        0.09680860005844755,
        -0.19974265453336223,
        -0.24911983001691526,
        -0.12273635369236843,
        0.1917957351207236
      ],
      [
        -0.3125639947848716,
        -0.08280613659551553,
        0.07214452065047731,
        -0.0072887931861065625,
        0.23046299274196053
      ]
    ],
    [
      [
        -0.08495170522181976,
        0.1486954358330442,
        -0.2540162313079775,
        -0.0035775101251023554,
        0.17951068466646902
      ],
      [
        -0.005331788783545308,
        0.0730373666654918,
        0.10427595227856301,
        0.009433455271503514,
        0.10214555348712036
      ],
      [
        0.08730742771429019,
        0.0806451908966143,
        0.013071815711820044,
        -0.11881570289945619,
        0.22334149583138474
      ],
      [
        -0.16537566608322854,
        0.1024071675883596,
        0.014007720575721498,
        -0.08928028449369896,
        -0.051715171889875726
      ],
      [
        -0.18343887911214501,
        -0.19918044293758805,
        0.10408850484963675,
        0.09470175568837094,
        -0.22238051569425496
      ]
    ],
    [
      [
        -0.07713570174082332,
        0.12311035707373569,
        -0.22306385969229164,
        -0.23264256885277426,
        0.017239393181628128
      ],
      [
        0.10765258237440749,
        -0.19116983105893784,
        -0.24611656193414608,
        0.17012935205367427,
        0.14470235016249158
      ],
      [
        0.10886487832433456,
        0.14654764884322352,
        -0.12851403963969366,
        0.1254140685183602,
        0.030895390497429384
      ],
      [
        -0.012974777797505402,
        -0.184506349383913,
        -0.06620113395947527,
        0.10316101134040935,
        -0.13202270231812493
      ],
      [
        0.07322770252672454,
        0.13642554299792167,
        0.1394386586711351,
        -0.07277024592727886,
        0.1698127857257019
      ]
    ],
    [
      [
        0.12155692643564493,
        0.20984699480014762,
        0.07595962001281155,
        -0.11638144946910121,
        0.028653351511484435
      ],
      [
        -0.04966155042360191,
        0.18967984829738993,
        -0.21261071942311718,
        -0.23870865306212882,
        -0.24863717659354126
      ],
      [
        -0.13441129345731131,
        -0.2232717002610883,
        0.12363706550709166,
        -0.042187216416788215,
        -0.201610100981859
      ],
      [
        -0.08879993092458988,
        -0.22312516573439126,
        0.13941153105800994,
        0.02690615552222908,
        -0.07355698347117876
      ],
      [
        -0.006626552589612485,
        0.2121001472104507,
        -0.1689027409222845,
        0.14221345213144207,
        0.11120117641819582
      ]
    ],
    [
      [
        0.12815639898457704,
        -0.15774902040854175,
        -0.1151098790192468,
        0.03246381206234321,
        0.19050129186509898
      ],
      [
        0.1830826868177828,
        -0.1717367038489945,
        -0.10619005223600816,
        -0.06789292546550134,
        0.15957066432564038
      ],
      [
        -0.005346218249832478,
        -0.1350302823272787,
        0.01752788010094862,
        0.23603704785792803,
        -0.12658409960421535
      ],
      [
        0.22699376324378007,
        -0.07114414830047909,
        0.20586276811450505,
        -0.20977897431267417,
        -0.021664073941800775
      ],
      [
        -0.10625942858599827,
        -0.05349486054856099,
        -0.16034536289790874,
        -0.1681146698288024,
        0.14980913306107044
      ]
    ],
    [
      [
        0.04438646586608303,
        -0.19372595139735452,
        -0.052109398120250505,
        -0.11049507981454658,
        -0.054914894083534754
      ],
      [
        -0.25150859664125336,
        -0.25613366081175815,
        -0.23924530110781325,
        0.16875347634931268,
        -0.20168324475902707
      ],
      [
        -0.007734630948143232,
        -0.08925131671894225,
        -0.18872243345643622,
        -0.23807283703842974,
        -0.14024957601742677
      ],
      [
        -0.25617886147761715,
        -0.0915059592440677,
        0.046354960323487585,
        -0.08423113954455028,
        0.15916361102988244
      ],
      [
        0.013668454172435463,
        -0.251896703327653,
        0.067053221721348,
        -0.06173426732272508,
        -0.13294594714138785
      ]
    ],
    [
      [
        -0.2352454609466536,
        0.11083675287371987,
        0.2399028441637619,
        -0.11276300641895876,
        -0.2026145892931169
      ],
      [
        0.18757770629447804,
        -0.039838296966318576,
        -0.08252134977640063,
        -0.2618637836640018,
        0.03463898867482528
      ],
      [
        0.07190644022578929,
        0.14136844871671897,
        -0.27628011349212406,
        -0.22560028487471345,
        -0.1429844482116115
      ],
      [
        -0.02390365962760634,
        -0.167685139038183,
        -0.07438882603049696,
        -0.05111676478230059,
        0.22828652277964898
      ],
      [
        0.15347449462575882,
        0.20363478889670947,
        -0.021272454555280543,
        0.1652812666489894,
        -0.10464595895763759
      ]
    ]
  ],
  [
    [
      [
        -0.07843433125977939,
        0.1643232333330851,
        -0.03276531058170825,
        0.22937887665403756,
        0.08033742439362761
      ],
      [
        -0.2100930850817609,
        -0.20291015362742718,
        0.20770893716570865,
        0.038425287163804965,
        0.0696191298043968
      ],
      [
        -0.19708305891633365,
        0.2106175571505901,
        -0.1313204508857775,
        0.14800980440218658,
        -0.16675712591978534
      ],
      [
        -0.11272291308347769,
        0.21429537433785914,
        -0.22627193767603426,
        -0.06834089642593615,
        0.09706629181851953
      ],
      [
        -0.18790167904600538,
        -0.23695804077224092,
        -0.15959361203001415,
        -0.04373921625342237,
        0.031198533666161904
      ]
    ],
    [
      [
        -0.062231898729778384,
        0.05631835959958219,
        -0.20656479460737526,
        -0.20265770480586667,
        0.25991605669513623
      ],
      [
        0.01578920302185955,
        -0.11797754972443536,
        -0.1622620651823941,
        0.08453633387514195,
        -0.05982076985004
      ],
      [
        -0.10063760659845575,
        0.19990329936089754,
        -0.16610427006334666,
        -0.013997491266501608,
        -0.20914305233631536
      ],
      [
        -0.11059826795561126,
        -0.0355447248963659,
        0.19899942950190996,
        -0.014891945284199123,
        0.20725784574498612
      ],
      [
        -0.10334412018576229,
        -0.20800203388766833,
        -0.07117387672877915,
        -0.05507270032057663,
        0.1592830256430392
      ]
    ],
    [
      [
        0.15405993165975929,
        0.04746796059669494,
        0.10559333516516063,
        -0.09302142316630731,
        0.12369860797981116
      ],
      [
        0.20015545836507062,
        0.08736493953953482,
        0.07692809152051491,
        -0.07129701001675301,
        0.03214140994046406
      ],
      [
        0.03199796117270681,
        -0.18993832472178823,
        0.11772007338840423,
        -0.05883036462775984,
        0.04521921749489964
      ],
      [
        -0.08037023770554687,
        -0.13591279317387508,
        -0.18443972915983028,
        0.09732225673479736,
        0.11104295495695365
      ],
      [
        -0.06945331200525373,
        -0.12242280608707666,
        -0.14010765111591583,
        -0.3137728826758664,
        -0.031111596533346702
      ]
    ],
    [
      [
        0.08705097639281573,
        -0.008133354915661481,
        -0.32727037407548965,
        -0.16703258930966647,
        -0.15833707963690716
      ],
      [
        0.31959280031903287,
        0.1754050568950209,
        0.23739044500903025,
        0.06795637438600347,
        -0.2582804630606129
      ],
      [
        -0.02499922563081608,
        0.31437513139049106,
        0.4101632538705077,
        0.19910572331178691,
        -0.007192800229568338
      ],
      [
        -0.1448008714824719,
        -0.26924192302767763,
        0.4162525673393932,
        0.40204143151692534,
        -0.03202881010727945
      ],
      [
        0.03274109372125126,
        -0.26738469932575676,
        -0.053234608097137495,
        0.3952497565329276,
        0.5511907159355991
      ]
    ],
    [
      [
        -0.02540290252230613,
        -0.08179321564141831,
        0.030835666366356117,
        -0.012418141762858456,
        -0.22802764963195202
      ],
      [
        0.043929044326326744,
        -0.22665001601165669,
        0.23476520929518802,
        -0.05291879581438752,
        -0.14599976145173826
      ],
      [
        0.23281755464489803,
        0.10402328576883406,
        -0.015068423975454898,
        0.16159240147876164,
        0.04955222546069806
      ],
      [
        0.06850817355991475,
        0.09306538318347239,
        -0.08127253572297534,
        -0.015032097645644345,
        0.028466105309278938
      ],
      [
        0.10227899949305944,
        0.048473563248802434,
        -0.17363403598114213,
        0.16580127619092708,
        -0.18600952345833546
      ]
    ],
    [
      [
        -0.0423688772376016,
        -0.2213079914457548,
        0.13248648880638908,
        0.1598062055671823,
        -0.19869779932898501
      ],
      [
        -0.23270149549111738,
        -0.07918673532277115,
        -0.21726788935678915,
        0.20270710426694655,
        0.19389238708401052
      ],
      [
        -0.02670823953897532,
        0.09625261601916277,
        -0.04620584238718709,
        -0.16887193193704197,
        -0.058492733541233397
      ],
      [
        0.19358760469419203,
        0.16347148301417092,
        0.011779587344252766,
        0.1475561050823921,
        -0.14752173580102554
      ],
      [
        0.09818486291877593,
        -0.1785763258747652,
        -0.15330762304393186,
        -0.23967127535659577,
        -0.12184672275879259
      ]
    ],
    [
      [
        0.098796752430216,
        0.05565520213651768,
        -0.006112319733522647,
        -0.11998721201015879,
        -0.15282633253303224
      ],
      [
        0.02869432210335355,
        -0.2599365549319554,
        -0.30424025067813665,
        -0.31319885478368154,
        0.13753208407406659
      ],
      [
        0.08494087482151047,
        0.2375090605699856,
        0.1556056341954158,
        -0.2234600728231527,
        0.038989904047478464
      ],
      [
        -0.12188990312451567,
        0.04165181084733938,
        0.3189255477342714,
        -0.12926190790560144,
        -0.17663973333600097
      ],
      [
        0.04811341627631935,
        -0.25017588430245297,
        0.1540474892323098,
        0.21643263860701092,
        0.15370159048387075
      ]
    ],
    [
      [
        -0.08968709066955559,
        -0.2065951228835776,
        0.0036111429861661404,
        0.10636102928150201,
        0.19912571846428884
      ],
      [
        0.10024763792963905,
        0.13400000028169387,
        0.12110175599874134,
        -0.22477383823183233,
        -0.0770260302425921
      ],
      [
        -0.30595810312093363,
        0.19699253081100362,
        -0.08556801099260129,
        -0.015628984117490672,
        -0.20894532851583922
      ],
      [
        -0.005056171242816826,
        -0.01127503208346109,
        -0.025090806908708234,
        -0.11958970554243661,
        0.08785796732014446
      ],
      [
        -0.11942695912438461,
        0.06685407711660496,
        -0.13038989507730836,
        0.019138201706020447,
        0.2764609336168765
      ]
    ]
  ],
  [
    [
      [
        -0.18228415834407602,
        -0.14944993423172753,
        0.1950270222316445,
        -0.07861009447467918,
        0.24255753642034406
      ],
      [
        -0.1841072340006876,
        0.21733766437346894,
        0.2479825383925198,
        0.015956675528738685,
        -0.01239047056363712
      ],
      [
        0.06751402053545522,
        0.0769330712949589,
        0.19725189245144323,
        0.006270337989186724,
        -0.17518412304281658
      ],
      [
        0.22955098787223896,
        0.14493975275022924,
        0.0844037938157141,
        -0.08253087288456122,
        -0.007790460731118327
      ],
      [
        0.07133224410556925,
        0.17592563365060412,
        0.1003495243299576,
        -0.006657690984184957,
        0.10243923502931637
      ]
    ],
    [
      [
        -0.2147664228969795,
        -0.24626269511937446,
        0.15114578046189003,
        0.003255676086671277,
        -0.10109667417125823
      ],
      [
        -0.2226111833531328,
        0.17934407699677707,
        -0.113158038412554,
        0.03718086296955782,
        0.09576904136077602
      ],
      [
        0.13856533538178153,
        -0.0826311542246558,
        0.0672887081749866,
        0.019887849035279237,
        0.13389629357258678
      ],
      [
        0.13045742796750798,
        0.2552893033966628,
        -0.03517496982145294,
        -0.10410439104193397,
        -0.2839660669329958
      ],
      [
        -0.2551548460295568,
        -0.2069905329532404,
        0.2964075514763564,
        -0.23809094952906873,
        -0.1591608498326079
      ]
    ],
    [
      [
        -0.23181697450675107,
        -0.22162109359527357,
        -0.03268543612271683,
        -0.02010192945901426,
        -0.10071621886498568
      ],
      [
        0.19864114031014968,
        -0.016403729179031035,
        -0.20049008039669988,
        -0.03905215645617811,
        0.05864982644212075
      ],
      [
        -0.15244540683798777,
        0.17914388706548126,
        -0.016068183005660243,
        0.06787368455531533,
        0.12277773424973748
      ],
      [
        0.17861117668408033,
        0.13283481944077385,
        -0.1574694974277687,
        -0.09114657077101268,
        0.09264153199328225
      ],
      [
        -0.007882358637871113,
        0.0745296420931627,
        0.04178817889745862,
        -0.05724738408467178,
        0.16013664440640696
      ]
    ],
    [
      [
        -0.15359823763739788,
        0.29326981616972214,
        0.3460644323445047,
        0.20213690449705737,
        -0.038541355423441906
      ],
      [
        -0.19385011524401866,
        0.02020080316367604,
        0.20175227980641575,
        -0.20540267623438407,
        0.10480527812033454
      ],
      [
        -0.1333491744037925,
        0.11398774221418785,
        0.1312603428050027,
        0.20986662843002288,
        0.14375794133613312
      ],
      [
        -0.19151105384961745,
        -0.17500918568168258,
        0.1882159866669609,
        -0.0012690758265162313,
        -0.25578609928791085
      ],
      [
        -0.11163171044148529,
        -0.10936908710059247,
        -0.06548467574535176,
        -0.1939402918357104,
        -0.01357366001980558
      ]
    ],
    [
      [
        -0.19022521275183005,
        -0.11680908489023195,
        0.23771861388352827,
        -0.023298190260352875,
        -0.19117457612842306
      ],
      [
        0.23090577691752082,
        0.11977769766997448,
        -0.1023262831818996,
        0.2329185025332406,
        -0.12256783263541406
      ],
      [
        0.07479803981201909,
        0.10353918740319214,
        0.16870764300192956,
        -0.031015970094015962,
        0.13734216143986636
      ],
      [
        -0.20403808377149055,
        -0.24114488690083552,
        0.16850093344244788,
        -0.055788812517114324,
        -0.1748047117621944
      ],
      [
        0.1451743365860684,
        -0.09480706732456588,
        -0.04039547475853046,
        -0.22342409837543953,
        0.2455839222654444
      ]
    ],
    [
      [
        -0.19735222358457366,
        0.15474584865063484,
        -0.12098603144092583,
        -0.1091541710069713,
        0.07670000206921487
      ],
      [
        0.1069288813395157,
        0.21852903432812815,
        0.21557590717426578,
        -0.24267306616839732,
        0.017883195324143706
      ],
      [
        0.09553164019038086,
        -0.1641999684668438,
        0.09151583117681454,
        -0.1355992592399741,
        0.05695686784025603
      ],
      [
        0.08053500911075884,
        0.10607833688223113,
        0.15029245412247927,
        -0.020909911394869023,
        -0.0356267731585109
      ],
      [
        -0.2149923139121851,
        -0.23847343563018475,
        -0.03646533753754104,
        0.01818332796990556,
        -0.263760795160646
      ]
    ],
    [
      [
        0.05989515347321623,
        0.012584939795350745,
        0.07650068549731187,
        0.1423095586390607,
        -0.17858746511715506
      ],
      [
        0.19010824797917628,
        0.1981576254987543,
        0.16938309300042145,
        -0.23566570607896065,
        -0.08017596663162353
      ],
      [
        0.07342629761129046,
        -0.14773785776932916,
        -0.12987092671898426,
        0.13729541175652274,
        -0.09933780726676461
      ],
      [
        0.1952335923604903,
        0.12044518133810898,
        -0.1658482487767124,
        0.04913882367754321,
        -0.08147032687405914
      ],
      [
        -0.13635243249130913,
        0.04924851670598866,
        0.21076853696650868,
        -0.20129489391271613,
        -0.16948540053226197
      ]
    ],
    [
      [
        0.1434166995627513,
        -0.23656660434341018,
        0.0853637825327826,
        -0.09803956051931727,
        -0.0921601196049494
      ],
      [
        -0.1202165345502197,
        0.16282107847261137,
        -0.2642441976342942,
        0.16477896444316564,
        -0.15453752763073741
      ],
      [
        0.12268102107523028,
        0.17277749365152636,
        -0.2164763142620333,
        -0.0852209740465273,
        0.05062446078360942
      ],
      [
        0.2006725760140091,
        0.015334250378386859,
        -0.0643914859267272,
        0.12421890388586743,
        0.1730274851628164
      ],
      [
        -0.009261713053980361,
        0.178653341224585,
        -0.005708049725180326,
        -0.15787724296067215,
        -0.2008886621942585
      ]
    ]
  ],
  [
    [
      [
        0.10386385372178078,
        -0.14165330504618445,
        -0.15523113747197206,
        -0.09884576662606961,
        0.12230901791010378
      ],
      [
        -0.02440873523944631,
        0.18175395959156992,
        -0.1821887849840633,
        -0.21055768783582005,
        -0.1884463161102339
      ],
      [
        0.22924704496698026,
        -0.1664965818672128,
        0.2537094797919373,
        0.08825268632885784,
        0.14291005256152703
      ],
      [
        0.06553048502565374,
        -0.18022682698801026,
        -0.19906031117859196,
        -0.23837924905362406,
        -0.11245956271200559
      ],
      [
        0.01032741491052047,
        -0.15628568971956602,
        -0.1876080890066816,
        0.027631293695703916,
        0.12366578008455525
      ]
    ],
    [
      [
        -0.23526645371773325,
        0.10185269596227199,
        -0.09197359642731504,
        -0.12759283022673346,
        0.0841549213965479
      ],
      [
        -0.06604255480683237,
        -0.02759317261510324,
        -0.16663778391554676,
        0.3472780909168161,
        0.13704890631909594
      ],
      [
        -0.17354543407671807,
        0.02784166643960572,
        0.3902658281521249,
        0.4292174981804994,
        -0.12324073159892805
      ],
      [
        0.15856053577377996,
        0.28844645028656773,
        0.3087972965366226,
        -0.10340455749535843,
        -0.17170552508560383
      ],
      [
        0.06883962163758768,
        0.16047500490343236,
        -0.116856322416737,
        -0.07523479826477988,
        0.24126526635159257
      ]
    ],
    [
      [
        -0.10614848136161327,
        -0.0073899717539221595,
        -0.01977268058470254,
        0.04220384448374964,
        -0.2165351303223455
      ],
      [
        -0.09885576093978653,
        -0.11128225728521406,
        -0.13846362530819775,
        0.05637650324979201,
        -0.09248930628440899
      ],
      [
        -0.1596999120033582,
        0.03983421081961007,
        -0.14438300678902172,
        0.1472867184122689,
        0.04421469076297455
      ],
      [
        0.21013044843385983,
        -0.25004427848104493,
        -0.10366680365007906,
        0.20927312717551494,
        -0.00030244940204901625
      ],
      [
        -0.1534975723698354,
        -0.046158756870397895,
        -0.028452836546510468,
        -0.022722336673429884,
        -0.032692624331597996
      ]
    ],
    [
      [
        0.03565631990118494,
        0.010894855549824948,
        0.06878512090900468,
        -0.019590462508340265,
        0.058920786664539156
      ],
      [
        0.00382833772312327,
        -0.06802937213533371,
        -0.06625131301432752,
        -0.05739235303146925,
        0.02734318805622126
      ],
      [
        0.02910604311382744,
        -0.17361638788219605,
        -0.021943932759976102,
        -0.11919005231376129,
        -0.047948907562131694
      ],
      [
        -0.06582292514938289,
        -0.13352629843263705,
        0.09034727879445517,
        0.058456814847539854,
        -0.2714898175977663
      ],
      [
        -0.05645897867350547,
        0.050145526135519834,
        -0.21490504383571715,
        -0.05495591973550136,
        -0.23865566763920043
      ]
    ],
    [
      [
        0.17078575455212316,
        0.18164101563561819,
        -0.1785406695988241,
        -0.0371715525713942,
        0.1990326556055657
      ],
      [
        -0.22432250604363663,
        0.10849430943899194,
        0.003743598111412073,
        -0.10418371633711147,
        -0.11566214972849376
      ],
      [
        -0.13077772942814578,
        -0.19085004211173348,
        0.09342512921026355,
        -0.15454567956441406,
        0.21760316497257995
      ],
      [
        0.09827559852803802,
        -0.1418973477260565,
        -0.24849117144995048,
        0.0613998553251359,
        -0.08485467477792596
      ],
      [
        0.13483291665782357,
        0.24759880731896716,
        -0.07222793600825932,
        -0.0031973874982492443,
        -0.0282155904143256
      ]
    ],
    [
      [
        -0.06794957350494397,
        0.09605678067202994,
        -0.06943135992908514,
        -0.1540783701432812,
        0.04842913323495241
      ],
      [
        -0.04737310158709287,
        -0.09600355139710785,
        0.16686548722514072,
        0.07629622102144555,
        0.023025791948501094
      ],
      [
        -0.17131406527743473,
        -0.14389724788679056,
        -0.1657288472122594,
        0.19754538670921773,
        0.2616583274806762
      ],
      [
        -0.21771771995228337,
        0.013660635811725977,
        0.11211524934037109,
        0.08611590270676432,
        0.009475996255000977
      ],
      [
        0.2566041094757709,
        -0.1241030159618787,
        -0.026634087236359214,
        0.022604174443578057,
        0.06416823273517776
      ]
    ],
    [
      [
        -0.07020962407851568,
        -0.0045300472629180195,
        -0.15758126337578018,
        0.05251333627014065,
        -0.12559894776614663
      ],
      [
        -0.32608886511543844,
        -0.02068706928221917,
        0.2238046766867158,
        0.2251963962616343,
        -0.17492084828634238
      ],
      [
        -0.09282241154885199,
        0.1183086410915201,
        0.24291291700700865,
        -0.07356088173195086,
        -0.17110093895166553
      ],
      [
        0.1790410414252794,
        0.3297161648233317,
        0.10978931347284064,
        -0.056705237496821624,
        0.22892956764937245
      ],
      [
        -0.04690170866507856,
        -0.07327406070082923,
        -0.10757559793057452,
        0.019291233689506526,
        0.21332094989899636
      ]
    ],
    [
      [
        -0.010983239883758671,
        -0.2355330201541027,
        -0.10819127955757342,
        -0.0451691448663607,
        -0.21682921954023765
      ],
      [
        -0.1466582264706329,
        -0.07662782418726292,
        0.29282490173113357,
        -0.14609085449278478,
        -0.034438772782142656
      ],
      [
        0.0013325378980750513,
        0.0008746838779483475,
        0.03699182007171315,
        0.13876116894542634,
        -0.17203501102947077
      ],
      [
        -0.17421197046524492,
        0.24452707126207132,
        0.01651384331261998,
        -0.26527572762757634,
        0.033166056673083866
      ],
      [
        -0.17943272890003256,
        0.1318688224377916,
        0.1315722550636738,
        -0.07665115191538821,
        0.20997681471504084
      ]
    ]
  ],
  [
    [
      [
        -0.10430647006142552,
        -0.2415678746082573,
        0.18991932101632172,
        -0.16950940181154156,
        -0.12601379447490466
      ],
      [
        -0.028215243825628324,
        -0.17616618361567934,
        0.2176008251454474,
        -0.22865576849930838,
        -0.11010643983599258
      ],
      [
        0.10764822475080896,
        0.020684213538032816,
        0.11020997221686192,
        0.018387301091539857,
        -0.06982705418084996
      ],
      [
        0.10403014178165257,
        -0.2215841403754287,
        -0.19162347583033187,
        -0.15603537480187044,
        0.14321099321328512
      ],
      [
        -0.026456359935615344,
        0.01152126213244491,
        0.20776673505885174,
        0.08616647256948047,
        -0.24054457962578263
      ]
    ],
    [
      [
        -0.03956437883228386,
        0.10449224546833498,
        0.07577116284976457,
        -0.1131577994788355,
        0.04360901326761298
      ],
      [
        -0.03505903454162397,
        0.15044815503946257,
        -0.15207405676684432,
        -0.15749896825028564,
        0.2024560549062699
      ],
      [
        -0.08088008622513593,
        -0.22670316447366162,
        0.010930830468009231,
        -0.046524938422253456,
        0.2702945972506005
      ],
      [
        -0.28808334759992066,
        0.18387035848547637,
        0.12344465981613667,
        -0.005932741414530412,
        0.1901609163542519
      ],
      [
        -0.17820235622541172,
        -0.24995461531110885,
        0.2075156359890365,
        0.22585133682873532,
        0.26594882031581935
      ]
    ],
    [
      [
        0.02060227401410175,
        0.20318878633723167,
        -0.1832712098771303,
        -0.0914602910612156,
        0.19123360653396615
      ],
      [
        -0.19868383875036655,
        0.1544287830690106,
        0.18317992136680117,
        0.2005743405829546,
        -0.04445471650060344
      ],
      [
        -0.06924785432356804,
        -0.26317666910504783,
        0.22678012488854066,
        -0.12892459318269323,
        -0.07221255071970996
      ],
      [
        0.0015883979357958719,
        0.19869794037435345,
        0.08268836065246266,
        -0.08309916686835404,
        -0.2650466547158694
      ],
      [
        -0.25581886257195896,
        -0.026439626210443257,
        -0.0027109617750274264,
        0.18939150707073119,
        -0.012903301397578676
      ]
    ],
    [
      [
        -0.028479153058385248,
        -0.13233853514369817,
        -0.11394332978342685,
        0.16766427009384735,
        -0.04775950144072073
      ],
      [
        -0.08868828838365905,
        -0.144070647525257,
        -0.16395988076301343,
        0.014869964768236717,
        -0.023788532647487624
      ],
      [
        -0.1746561844562077,
        -0.08959328443587737,
        -0.03246908531352761,
        0.0017327970265319044,
        0.0947813210953294
      ],
      [
        -0.013922784810791474,
        -0.06380634215834118,
        -0.025973745161958918,
        0.11386971705466899,
        0.05250239119383415
      ],
      [
        0.028303110468461963,
        0.018379373228511537,
        0.02545545519715828,
        -0.09199402526306721,
        -0.022349871825947384
      ]
    ],
    [
      [
        0.14766027899557319,
        -0.06122897035242069,
        0.22136430088563525,
        -0.07030915815396371,
        -0.025180386979205657
      ],
      [
        -0.1382925805751754,
        0.08699462914933602,
        0.1656275236173489,
        0.17506553719833318,
        0.0683993316731263
      ],
      [
        -0.18441053870882057,
        0.16980533730959402,
        -0.0317120967663601,
        -0.13611181615024978,
        0.0760678720426596
      ],
      [
        -0.019796393812876716,
        0.050875125300500174,
        0.12155471015815704,
        0.21340583526776455,
        -0.23020787568288817
      ],
      [
        0.0014000108820883567,
        -0.11608954656710604,
        0.2257652296703457,
        -0.1790409337515033,
        0.007850531321343971
      ]
    ],
    [
      [
        -0.19727988095820864,
        0.22139370057835128,
        0.10145586381365003,
        0.17604261618153622,
        0.0016410554937409847
      ],
      [
        -0.10838389947456586,
        -0.08432310183024286,
        0.1595961345377817,
        -0.20910411882404914,
        -0.13086879102383353
      ],
      [
        0.1428713570843074,
        -0.06996124821445328,
        -0.2442119268188477,
        0.23203406241410818,
        0.22370072875854666
      ],
      [
        -0.1854387313386993,
        -0.008072373140766989,
        -0.2093539171864847,
        -0.0650176237146317,
        -0.12125636575581708
      ],
      [
        0.1825194616365255,
        -0.07873253393412583,
        -0.05118420595513944,
        -0.08925258920561038,
        -0.03424541935865036
      ]
    ],
    [
      [
        -0.2510729910887382,
        -0.3246969721112202,
        -0.19168781711647023,
        0.06867181226193103,
        0.2441343438647637
      ],
      [
        -0.0640048863222991,
        0.16532908272380537,
        -0.12317141564824288,
        -0.23610220756098912,
        0.12385152976312234
      ],
      [
        -0.21796995327800753,
        -0.30618855011079665,
        0.18764569524570476,
        -0.18828967506949826,
        0.08859316850742531
      ],
      [
        0.16342375574997262,
        0.2268342101596945,
        -0.03581411284390626,
        -0.17582772665853458,
        -0.17137362254313934
      ],
      [
        -0.30022870153251874,
        -0.18374302273410717,
        0.2515340885602935,
        0.28237652061437113,
        -0.25439883649420403
      ]
    ],
    [
      [
        0.17576845717476214,
        0.08734619616524568,
        -0.03323073540811374,
        0.012861177823560806,
        -0.11228278224943727
      ],
      [
        -0.0839400354361226,
        0.048792492183090744,
        -0.08016862614029417,
        0.09973396082313724,
        -0.07548431354061907
      ],
      [
        0.028970553231378333,
        -0.24076398506698038,
        -0.06271734656083115,
        -0.18126083786624725,
        -0.021641409297463454
      ],
      [
        -0.28011914956657374,
        -0.10215047192278932,
        0.22874945059000432,
        0.05139901700546081,
        0.18048079767272882
      ],
      [
        -0.1049122236198204,
        0.038688115556528756,
        0.11282191354317118,
        0.09437330524368552,
        0.08358460681531857
      ]
    ]
  ],
  [
    [
      [
        0.14450236191016066,
        0.10556068587888212,
        -0.1493689678216995,
        -0.08741208981878953,
        0.15671442236986566
      ],
      [
        -0.11710428952989893,
        0.235356706524761,
        0.20725914959864486,
        0.20923600314982485,
        0.07082172098169105
      ],
      [
        -0.15298429519244616,
        0.06071656747515635,
        -0.17640095668460898,
        0.23278676751228936,
        -0.026743771387155234
      ],
      [
        -0.020987631852211724,
        0.07042438695146215,
        0.18531786084685964,
        0.19054034329162564,
        -0.16614439620974314
      ],
      [
        -0.23962612308376519,
        0.09630269752044834,
        0.14506831398361467,
        -0.23727106121079244,
        -0.1571448563986146
      ]
    ],
    [
      [
        0.08919780201563225,
        0.13041449283151477,
        -0.18738153019581835,
        -0.11791648653032143,
        0.16461806038859939
      ],
      [
        -0.1183030894840073,
        -0.17256710044212967,
        0.05159759012363705,
        0.19608221756782887,
        0.1566036297634022
      ],
      [
        0.20426669309443346,
        -0.12215307221277412,
        0.1149213910181943,
        -0.27324883546460166,
        -0.10323923943880167
      ],
      [
        -0.1421782332666632,
        -0.2532568522129399,
        -0.145691636389406,
        -0.041836084215588376,
        -0.14507694827286863
      ],
      [
        0.11715927834898718,
        -0.0005999440406457037,
        0.1900746044329987,
        0.06554226581362876,
        -0.20232161895194686
      ]
    ],
    [
      [
        -0.018066191128137902,
        -0.06753721253979783,
        -0.09846535692555615,
        0.2118175472547758,
        -0.25166034099803897
      ],
      [
        -0.20925680030092378,
        -0.022346989107280536,
        -0.16474557946745527,
        -0.11330368742439233,
        -0.1449871604439797
      ],
      [
        0.029324701463364557,
        -0.17100525788959614,
        0.046486307772061676,
        -0.07683692243085641,
        0.1919347146453932
      ],
      [
        -0.04515757468925715,
        -0.0380889824293303,
        0.1816148357596249,
        0.14106951078953964,
        -0.07212797308346733
      ],
      [
        -0.08794422771170345,
        -0.15648798485766982,
        -0.032975606972659416,
        0.16469195262597838,
        -0.11544560605843773
      ]
    ],
    [
      [
        0.010292523077937238,
        0.06969876459225596,
        0.12178234731365109,
        0.038409310831115234,
        -0.20423131892332774
      ],
      [
        -0.2116453052771657,
        0.25918475606891855,
        -0.04497190766542964,
        -0.18926746287351678,
        -0.05431185615955866
      ],
      [
        -0.10423109011140487,
        0.254041157578584,
        0.17750146873031325,
        -0.10897284234994863,
        0.009366615360217025
      ],
      [
        0.041594811269166004,
        -0.09701982961301327,
        -0.13483582497897822,
        0.07497892841911455,
        0.020834650947535775
      ],
      [
        -0.10350518768164096,
        -0.14880677185606547,
        -0.07004907198253198,
        -0.22912867622808272,
        -0.017130213594714103
      ]
    ],
    [
      [
        0.1840926299385752,
        -0.03896689820596659,
        -0.014796546492862777,
        -0.1092639153983152,
        0.2280131467565124
      ],
      [
        -0.02631969548409083,
        -0.23308004794233408,
        0.18531620085799472,
        0.0805351373079667,
        0.23055216193705103
      ],
      [
        0.18096643068353885,
        0.156358253587618,
        0.04958656044629722,
        -0.05154705566089153,
        -0.066120516760745
      ],
      [
        0.01472461783202795,
        -0.16988294080722813,
        -0.12487371171220463,
        -0.0013769110826537744,
        -0.21448957240793018
      ],
      [
        0.07211225776538066,
        -0.07645763434705083,
        -0.027545759011137098,
        0.020574018554111433,
        0.09155154020601193
      ]
    ],
    [
      [
        -0.14032950798516916,
        -0.18031340330615772,
        0.022920791254567256,
        0.0912201836615528,
        -0.24723006007683007
      ],
      [
        0.15695307027034777,
        -0.19901795254555685,
        -0.0033703358040898987,
        -0.11520167733262368,
        -0.21473448202006562
      ],
      [
        0.11429519501850668,
        0.1170609030583317,
        -0.23783508627231034,
        -0.16580028866277036,
        -0.23533939075110116
      ],
      [
        -0.09793496941603212,
        -0.07094897065283236,
        0.018469233707543026,
        0.1480098149895126,
        0.015608019848410202
      ],
      [
        -0.006397650474379401,
        -0.15501575310898322,
        -0.11585827036655204,
        0.2333370195118498,
        0.186141708974774
      ]
    ],
    [
      [
        -0.018417029311533877,
        0.22617240061383242,
        0.0503326555739018,
        -0.04094851030791685,
        0.2228573303860862
      ],
      [
        -0.2029803342958167,
        0.12918309419508964,
        -0.21945642737359392,
        0.14296009194094333,
        0.14413731551538075
      ],
      [
        -0.18384732690770608,
        0.021900037964157983,
        0.09944219741583017,
        0.1989963141445391,
        -0.12331296181247961
      ],
      [
        0.13218535276187338,
        -0.23259754911807382,
        0.08848829434228278,
        -0.12580735817389688,
        0.18190764836853862
      ],
      [
        0.015590111379426879,
        0.08844186694294959,
        -0.23203182268227612,
        0.18505566619477065,
        0.04096929939388587
      ]
    ],
    [
      [
        -0.17277427681731808,
        0.0742208273821991,
        0.12406852987590063,
        -0.09884875876496207,
        -0.14559965131013203
      ],
      [
        0.24484397931259244,
        0.12607353778655842,
        0.21999199896208266,
        -0.1769930932076684,
        -0.22200870772176545
      ],
      [
        0.1118226111213554,
        0.14196434135550554,
        0.15615472843047068,
        -0.15216472053204055,
        0.12025597196388477
      ],
      [
        -0.11795706698952109,
        -0.1770583729262856,
        -0.13087617609959862,
        -0.1529912699537565,
        -0.17026460001477728
      ],
      [
        0.12080356243648997,
        0.18860479805521238,
        0.15250234974139862,
        0.14796113341570477,
        -0.13810782036819838
      ]
    ]
  ],
  [
    [
      [
        -0.1946980510175717,
        -0.12065598526694832,
        -0.10648491974126735,
        -0.19932084983864237,
        0.10619521891424852
      ],
      [
        0.03910250034809892,
        -0.23419544496729064,
        0.13975650412786295,
        -0.08021186670236555,
        -0.24549108259451707
      ],
      [
        -0.22570553167396898,
        0.21969631636427325,
        -0.019790294947514827,
        -0.10598717062211364,
        -0.03821913964296871
      ],
      [
        -0.1965704024187245,
        0.22918193243988005,
        -0.04475609652124648,
        0.1671833953455585,
        0.053941921064863285
      ],
      [
        0.01659322745726612,
        0.16134130141754183,
        0.03147964177414293,
        0.1650843957162354,
        0.127504813181312
      ]
    ],
    [
      [
        -0.1432111195938565,
        0.08502492388837912,
        -0.10481292150550152,
        0.07349397615495937,
        -0.16513821908302714
      ],
      [
        -0.20771794831597948,
        -0.23192004205819436,
        0.10658879286368558,
        -0.060743203012762294,
        -0.061942563465029125
      ],
      [
        -0.11716434650064375,
        0.06942900310570521,
        -0.10447191426985633,
        -0.07573355508707723,
        0.05315232747552963
      ],
      [
        0.20413955021330088,
        -0.03475734856375185,
        -0.11186709500615188,
        -0.07608256349001087,
        0.037528517599106824
      ],
      [
        0.16720325171394865,
        0.06931094395927781,
        -0.07703692813844466,
        0.03373316629935438,
        -0.02489901670249466
      ]
    ],
    [
      [
        -0.11232241433500702,
        -0.28440067742970804,
        -0.11120904777133679,
        -0.16128608780677586,
        -0.0644595862737745
      ],
      [
        -0.33220119119823244,
        -0.010602816929062104,
        -0.17906310902782396,
        -0.08046828347033315,
        -0.0333192165932469
      ],
      [
        -0.04844802868292176,
        -0.32893932096961265,
        0.048308725316899004,
        0.16135974783652407,
        -0.02538153085247913
      ],
      [
        -0.16976642988224858,
        0.1345470959485582,
        -0.03431095658679136,
        -0.17016135783558073,
        0.14708816063201677
      ],
      [
        0.08666529976411512,
        -0.062226311042288554,
        -0.0730998671302474,
        -0.20268456726317405,
        0.13180848494946873
      ]
    ],
    [
      [
        -0.10400104882678557,
        0.3555600807157603,
        0.43132531788495126,
        0.17548009084410113,
        0.04770962580076513
      ],
      [
        0.061422023276281434,
        -0.2023959710555241,
        0.07397970411541557,
        0.3019021948186554,
        0.1285936347821944
      ],
      [
        0.41721653057364017,
        0.11867141206647051,
        0.09914570891224238,
        0.18846148506030833,
        0.09456693847769594
      ],
      [
        0.3106608123301832,
        0.28258627688119714,
        0.023795400001139024,
        -0.2781125637735936,
        -0.0918051453333091
      ],
      [
        -0.2636166711575119,
        -0.08264179383943059,
        0.18149812121351774,
        -0.21417359773474254,
        0.02452751895000656
      ]
    ],
    [
      [
        0.22741192129379914,
        0.05150015533781116,
        -0.13256654331834355,
        -0.17748152253841004,
        -0.02274480884912075
      ],
      [
        0.19073854667546086,
        0.0665182955073526,
        0.19172478786635413,
        -0.1478684816126547,
        -0.07128017370495766
      ],
      [
        -0.06258000577485279,
        0.05766218148486668,
        -0.2212403705270707,
        -0.1886608354130862,
        0.19159560635443132
      ],
      [
        0.11668076750296841,
        -0.19020395232879567,
        -0.0985698717805178,
        -0.04319272207698883,
        -0.21774491667770968
      ],
      [
        -0.026581180933524202,
        -0.035097474307828634,
        -0.08255469799181737,
        -0.21577981536481702,
        0.07940912931929273
      ]
    ],
    [
      [
        0.1416111671918727,
        -0.08766536987986093,
        0.1891299241064329,
        -0.13862397911869362,
        -0.1696056067368352
      ],
      [
        0.1317321686451806,
        0.003174494595004036,
        0.23179542230120223,
        -0.16669358617928245,
        -0.0837898814715493
      ],
      [
        0.031227503802396493,
        0.12290542903423098,
        0.23899161776932085,
        0.13038068482500764,
        0.027159584227527192
      ],
      [
        0.09808738760332388,
        -0.20989481660146883,
        -0.11534050921199543,
        -0.1817305761006683,
        -0.01272693642112472
      ],
      [
        -0.18892368994359018,
        -0.049509559146699425,
        0.10908979032818521,
        0.12737581261209396,
        0.03792051280659656
      ]
    ],
    [
      [
        0.03251095783532686,
        0.18237607319337895,
        0.19441566697034465,
        0.050166218994722706,
        -0.040183516443721576
      ],
      [
        -0.18841531867970684,
        0.029633644589378776,
        0.10934563742546098,
        -0.24458588767736866,
        0.20786351743952797
      ],
      [
        -0.03323477100474241,
        0.046966076550327245,
        -0.010512912160432757,
        0.05410197984552043,
        -0.03925538957922638
      ],
      [
        -0.13295288075009526,
        0.08216211442608577,
        -0.13296034481436875,
        0.14439028754149374,
        0.14958995464918673
      ],
      [
        -0.21122123355280648,
        -0.16859865791676323,
        0.04445388786360494,
        -0.21703657828701955,
        0.16431099230107357
      ]
    ],
    [
      [
        -0.0011850973221654158,
        0.00892779443262419,
        -0.048670277408787335,
        0.1844309577412661,
        0.06909320943886045
      ],
      [
        0.13248733503380786,
        0.12137197012536334,
        0.08313453381756701,
        -0.018210654477645628,
        0.14918589985068087
      ],
      [
        -0.15695183851842023,
        -0.22058864127484834,
        -0.31059989407665395,
        0.14576855521443954,
        -0.0851831575626862
      ],
      [
        -0.15887459544060958,
        -0.005366390262156002,
        0.04112133632833152,
        -0.10272686363410337,
        0.17593962648350736
      ],
      [
        -0.19341853163960127,
        -0.022134625181291657,
        0.06455095462716749,
        0.007307681913160049,
        0.2142707890755494
      ]
    ]
  ],
  [
    [
      [
        -0.17475503637286408,
        -0.21856279110282453,
        0.1706232141797078,
        -0.0067155710678238585,
        0.18376296033719802
      ],
      [
        0.02507381272383094,
        -0.1937165488245135,
        -0.2316987194813517,
        -0.07579310346999822,
        -0.22405164965055643
      ],
      [
        -0.007082677741000106,
        -0.236873502280217,
        -0.14830934989495573,
        0.04719897166655593,
        -0.026548551290520146
      ],
      [
        0.09386642225610908,
        0.04875117818490886,
        -0.027331854747041924,
        0.13383151590829537,
        0.08448053110052811
      ],
      [
        0.24356203420006417,
        0.030854420048442067,
        -0.19476135488793067,
        -0.18674493973924178,
        -0.06340098363126641
      ]
    ],
    [
      [
        -0.23025801696428438,
        -0.08069586537965433,
        -0.010601844966777251,
        -0.12629628131883308,
        0.013880791317629869
      ],
      [
        0.17117343154895925,
        -0.1273890614636184,
        -0.09094239343862227,
        0.009746350985138295,
        -0.021985207912504454
      ],
      [
        -0.12738691693482465,
        0.17519881075274005,
        -0.19277314716178343,
        -0.05535276994232807,
        -0.2132703463955284
      ],
      [
        0.26625168639781854,
        0.016321729537612635,
        0.006189801298773966,
        -0.29075464847420407,
        -0.1838786918052543
      ],
      [
        0.1399095265995336,
        -0.0058539957887560464,
        0.11233149885513682,
        0.19135193019414065,
        -0.042096132152422264
      ]
    ],
    [
      [
        0.12607684720391527,
        0.007005907872593603,
        0.05303046052403445,
        -0.1128637767839714,
        0.11503158498139496
      ],
      [
        -0.10587984296656062,
        -0.12871053505432836,
        0.15172578044048218,
        -0.1825635953700273,
        0.20235242324419592
      ],
      [
        0.21303650179519967,
        -0.14385072923763115,
        0.21042715111855406,
        0.1972722795399645,
        -0.002093721956295232
      ],
      [
        -0.24360332402131182,
        -0.1368816635671481,
        0.1242963873079118,
        -0.02144855102926199,
        -0.2548870324523739
      ],
      [
        -0.009615536311332386,
        -0.13231266804063094,
        0.23630177298961558,
        0.19204592512007712,
        -0.13844990046858704
      ]
    ],
    [
      [
        0.054376090366887266,
        -0.2236328234651761,
        -0.15646650895179964,
        0.03926171179104506,
        0.15372456661282832
      ],
      [
        0.07174684574594505,
        0.03975004780060704,
        -0.2184158522112339,
        -0.209901852001294,
        -0.029595008152122987
      ],
      [
        -0.15321853687092563,
        0.020482379866477444,
        0.014580244409691155,
        -0.1383703776755543,
        -0.21047222878792166
      ],
      [
        -0.08061759963896273,
        0.09288180993193773,
        0.26323509586362437,
        -0.08731888368943252,
        0.12658909125813084
      ],
      [
        0.13751595049267484,
        0.1411078876634864,
        0.10813045936373905,
        -0.04870548756737517,
        -0.17826769425828318
      ]
    ],
    [
      [
        -0.09799755475124924,
        -0.05945569400794977,
        -0.1189936217493715,
        0.22921836202047086,
        -0.23244347116957254
      ],
      [
        -0.12663329581091143,
        0.06913699101392118,
        -0.06081738494716252,
        0.16062407027705802,
        0.11661765738968247
      ],
      [
        0.020457832846164998,
        0.20085669029435402,
        -0.15574341371777012,
        -0.06123647182678869,
        0.11244271127087206
      ],
      [
        0.020060596345895375,
        0.11450961485938105,
        -0.21370271779084776,
        0.010942941917216488,
        -0.17464313388382716
      ],
      [
        0.18068695377852723,
        -0.13448167701656966,
        0.10556072647605164,
        0.18089586668309923,
        -0.14148703060835732
      ]
    ],
    [
      [
        -0.006277502731652491,
        -0.07591241119612366,
        -0.11559972148157442,
        0.2128899297867275,
        0.15154294084787667
      ],
      [
        -0.05011075499293998,
        0.08247595917198636,
        -0.16371694958282407,
        0.15531607109746748,
        0.010180184167958033
      ],
      [
        -0.1793521365239742,
        -0.06529591236119132,
        0.024436850409407018,
        0.062017274743920214,
        -0.025097360778067034
      ],
      [
        0.02481849277375022,
        -0.06307433618562192,
        0.014508023033859518,
        0.15185079805911406,
        0.053916653784670455
      ],
      [
        0.18768608619425414,
        -0.09922888882733624,
        -0.1648601020820477,
        -0.07290308052976534,
        0.0689337749291588
      ]
    ],
    [
      [
        0.026192467675500496,
        -0.0567847265373826,
        -0.26182343061063373,
        -0.21996119699645716,
        -0.245660015643412
      ],
      [
        0.03408018333149418,
        0.14905988816221064,
        -0.2042843402839708,
        -0.04809511114693322,
        -0.24689871357711174
      ],
      [
        0.0670977590945123,
        -0.25958578703828566,
        -0.11771221237791461,
        -0.25510962569471035,
        -0.2169949862224919
      ],
      [
        0.22098504394202922,
        0.02774955864702983,
        0.18776733051733574,
        -0.019398724778393325,
        0.1560227061336923
      ],
      [
        0.050757613660268985,
        0.18674513923042765,
        -0.08046806086204905,
        0.0055534901541164205,
        -0.05278378698820588
      ]
    ],
    [
      [
        -0.11724914970644607,
        0.03137938240549839,
        -0.19731278128717064,
        -0.17289967150754612,
        0.13924758701536719
      ],
      [
        -0.1478791772478129,
        0.007315607139047577,
        -0.10999757856536344,
        -0.22383876378666925,
        0.19993067535516768
      ],
      [
        0.03405193113099653,
        0.15746563522103488,
        -0.15984882062714023,
        -0.00617797557640718,
        -0.13129241270536865
      ],
      [
        -0.07355899151878925,
        0.02147872721965242,
        -0.1511991741603322,
        -0.028120915099470397,
        -0.037946160772611655
      ],
      [
        -0.044129163803368766,
        0.14532077974026705,
        -0.23812769452875834,
        -0.1494372061231858,
        -0.017064405953232293
      ]
    ]
  ],
  [
    [
      [
        -0.1369080165536418,
        -0.16544212834711794,
        -0.16140782605616932,
        0.1453871944448979,
        0.02621242567182195
      ],
      [
        0.2139345479747769,
        0.06698567353317143,
        0.11116731337510409,
        0.2032177619312354,
        -0.16096119589156505
      ],
      [
        -0.20443264084524881,
        0.08655216433187707,
        0.052476006543059756,
        0.15725793340307034,
        -0.15315232494830672
      ],
      [
        -0.035671314879657044,
        0.16805674780984045,
        0.15115695081230998,
        -0.03242341721677227,
        0.05821124985041371
      ],
      [
        0.2297627825571267,
        0.05795390715744349,
        -0.20227440784394846,
        0.013971520641480608,
        0.21939598116310371
      ]
    ],
    [
      [
        0.1942700040147677,
        0.09248525010691894,
        0.004549466424221319,
        0.25762391278862,
        0.20671643554927802
      ],
      [
        0.07491625179849182,
        0.12580787127476573,
        -0.12273240115158975,
        0.07638163887105472,
        -0.028468639223206492
      ],
      [
        0.04782019230800895,
        0.19458485470892845,
        0.18544078097600028,
        0.013323222724376567,
        0.03533925306504611
      ],
      [
        -0.16539222979122115,
        -0.008202523988239023,
        0.13654144660052148,
        -0.13108144277036934,
        -0.09775804989677539
      ],
      [
        0.20089397778217932,
        -0.09803277458474273,
        0.15819708944291325,
        0.16478660557171643,
        0.04724886658933616
      ]
    ],
    [
      [
        -0.3133407902914051,
        -0.1889939885810354,
        0.051594900404518446,
        -0.13640104843467876,
        -0.3041248545093128
      ],
      [
        -0.22269104875164844,
        0.14442208062636777,
        -0.23159509959709798,
        -0.27670575937692204,
        -0.20672713358296058
      ],
      [
        -0.1249223359118138,
        0.1392776673937105,
        -0.18601023267342792,
        0.077388036371666,
        -0.03945446400790559
      ],
      [
        0.12859180692001826,
        -0.15039225966846761,
        -0.24218158381833463,
        -0.08269431361322346,
        0.050330469848937236
      ],
      [
        -0.12605936879131596,
        -0.05156819217351919,
        -0.12007857381513477,
        -0.2621333977176669,
        -0.17698569690654117
      ]
    ],
    [
      [
        -0.11246208001458925,
        -0.09797152953026528,
        -0.04833049030720195,
        -0.1349042752769041,
        0.1749944156657316
      ],
      [
        0.22443621209592382,
        -0.09816708916269576,
        0.014425415061485227,
        0.21858708719918046,
        -0.019557564947350094
      ],
      [
        -0.042376874401699405,
        0.13014228058232485,
        0.16889925139468256,
        0.010268154946287649,
        0.03386718612539747
      ],
      [
        -0.06841483783312982,
        0.16946061571211146,
        0.06902813586586788,
        0.05465722937330858,
        0.05204785885530754
      ],
      [
        0.1455990825565498,
        0.12260435291236411,
        -0.09989489278336973,
        -0.1458857402982194,
        0.058070652039713164
      ]
    ],
    [
      [
        -0.05485583290478955,
        -0.1667690627097442,
        -0.1880472669283954,
        -0.2353304361933319,
        0.04534988727078607
      ],
      [
        -0.044325411235306596,
        0.24044274130991825,
        -0.16080525372816676,
        0.2240417551926063,
        -0.009298598906321853
      ],
      [
        -0.07205527879268853,
        0.03841094147098566,
        -0.24506007756063428,
        0.16514309340684874,
        -0.18142966885272463
      ],
      [
        0.0068539699577450115,
        0.10805602824949408,
        0.23349247160217415,
        -0.08480973620046682,
        0.22667893964215727
      ],
      [
        -0.04826850554618652,
        0.0226687702235292,
        -0.2242143020296065,
        -0.040739840160712026,
        -0.14321489025779063
      ]
    ],
    [
      [
        0.16481186537364823,
        -0.23057583897692552,
        0.16487701715115358,
        -0.12336202947222329,
        0.0038451110766532137
      ],
      [
        0.05688369003729407,
        -0.024334835412268843,
        -0.2210681890147064,
        -0.03275518473800572,
        -0.15602181521194972
      ],
      [
        0.232472435262291,
        -0.22156544301680917,
        -0.2371363909726406,
        -0.19479566667164086,
        -0.08061706263702065
      ],
      [
        0.1593570016134071,
        -0.1329143114591931,
        0.23743567507613653,
        -0.11216171457465825,
        0.028971485296978596
      ],
      [
        0.2054303252193863,
        0.011325414174590416,
        0.17643307657568308,
        -0.11074619054838519,
        -0.1826191323201354
      ]
    ],
    [
      [
        -0.27153147150994794,
        0.09576834372079437,
        -0.18899174085159204,
        0.33588932177302233,
        -0.15001471022052218
      ],
      [
        -0.22377270075682534,
        0.1661749698747699,
        0.30366983074874365,
        0.20154424536046417,
        -0.12581683710732058
      ],
      [
        0.20485946928433338,
        0.01610769307621572,
        -0.052404373483808456,
        -0.24973630525916402,
        -0.21117497621896406
      ],
      [
        -0.12390245295871984,
        0.02029506346114929,
        -0.0329099930087623,
        -0.03697887766576024,
        0.11716461336795812
      ],
      [
        0.17949753249347566,
        -0.24264593293815778,
        -0.24117861893111567,
        -0.04718022760815736,
        -0.11902321920292845
      ]
    ],
    [
      [
        0.038160942765771415,
        0.1356909924656791,
        -0.0470988643229601,
        -0.08990180740966475,
        -0.07202297421929486
      ],
      [
        -0.1109928194505089,
        0.04395765322455159,
        -0.12008753110618163,
        -0.21090808505457773,
        0.12512700094482843
      ],
      [
        0.03854750339061853,
        0.07221917553988727,
        -0.2113134372994315,
        -0.10998647632094394,
        0.01065766112591609
      ],
      [
        -0.11683821895207538,
        0.1018941228260563,
        -0.06562942598726472,
        0.26350145831894095,
        -0.09084490317139614
      ],
      [
        0.25746419840378026,
        -0.07666034239155214,
        -0.09452106365887727,
        0.012656625415649594,
        0.30099604881090325
      ]
    ]
  ],
  [
    [
      [
        -0.20888365682398613,
        -0.17677861804464118,
        0.08417187275227701,
        -0.053649664952283516,
        -0.20200546961551621
      ],
      [
        -0.12334546425746495,
        -0.2188127163625009,
        -0.07201723020692558,
        0.21457628878212742,
        -0.10057147174089345
      ],
      [
        -0.07193273876264807,
        -0.11280442600831336,
        -0.13886268579535505,
        -0.2176440362965632,
        -0.2515807252545813
      ],
      [
        0.11294135646317974,
        0.09658123121321378,
        0.07867555330207326,
        -0.14458663236454763,
        0.20112888004824064
      ],
      [
        0.20773564740144326,
        0.026349125316631635,
        -0.15536240685406336,
        0.21625378355264624,
        -0.01895468278447992
      ]
    ],
    [
      [
        -0.07265466321610055,
        -0.26955141740274113,
        -0.14072785678917246,
        0.09757521184721499,
        -0.29568789435741133
      ],
      [
        0.10873497793401624,
        0.224924660865014,
        0.33659915166419174,
        0.044583244762504165,
        -0.26663118814805864
      ],
      [
        0.14469070145498739,
        0.26307361981107663,
        -0.045542438852464874,
        0.036273738576469955,
        0.17469923587073855
      ],
      [
        0.02916269971471801,
        -0.0705822828733291,
        -0.12093043826598579,
        -0.2695125159677046,
        0.09083568961673893
      ],
      [
        -0.3102754317614687,
        -0.14636264803023036,
        -0.24865918725613734,
        -0.11391879992381067,
        0.003008812216414925
      ]
    ],
    [
      [
        0.025436345827057078,
        0.011936792013470135,
        -0.21742571827490725,
        -0.14124950293985652,
        -0.1404492580808129
      ],
      [
        -0.06222473507351594,
        -0.16193804024291825,
        -0.09317436595262525,
        0.1406167253899107,
        0.28541061552657887
      ],
      [
        -0.19753437334188031,
        0.10590347950306303,
        0.08862267348763894,
        0.09743660301209733,
        0.014952565624018331
      ],
      [
        0.19749026224181493,
        -0.05234753962609647,
        -0.02611538073344549,
        -0.095863896392637,
        0.12515350749947896
      ],
      [
        0.12856425922346107,
        0.01614890996287525,
        0.24624416548100236,
        -0.038191126535278175,
        -0.14987511904042808
      ]
    ],
    [
      [
        -0.09097669391134071,
        0.11474540330598663,
        -0.2559715122508399,
        0.10665767112144253,
        0.02240970289912045
      ],
      [
        -0.0067761743441524195,
        0.08045836627193471,
        0.08529245256799513,
        -0.18409249212786796,
        -0.17935252646834277
      ],
      [
        -0.013339872928897878,
        0.019224776435308143,
        0.08139956870732143,
        -0.0019294713096431118,
        0.11878105856933169
      ],
      [
        0.0031573932052367873,
        -0.1310980207216407,
        0.08833761983983926,
        -0.3339358933411115,
        -0.2522332848911744
      ],
      [
        0.1768368777539541,
        0.03754085236930597,
        0.19063944863782953,
        0.09809951697744215,
        0.1979933104125213
      ]
    ],
    [
      [
        0.12695060182559037,
        0.20736764607641278,
        0.1609598765069242,
        0.22836993388900095,
        -0.12980157514797896
      ],
      [
        0.07258530703907969,
        -0.1381149809157501,
        -0.20679827694285263,
        -0.08189866712552882,
        0.03954022107011984
      ],
      [
        -0.08276163517134269,
        0.04654502747391805,
        0.047211978042675774,
        0.23871850325797167,
        -0.20221149310321573
      ],
      [
        0.11028477515795465,
        0.1942229890250629,
        -0.06368301040946807,
        -0.12752719323291617,
        -0.09029485921237354
      ],
      [
        -0.1478280143364246,
        0.19822122400709838,
        -0.17384052867779146,
        -0.045859025362548454,
        -0.1069189473063254
      ]
    ],
    [
      [
        0.12563375229634308,
        -0.08952152942803988,
        0.20891742413276834,
        0.18082649306754445,
        0.06669247897028462
      ],
      [
        -0.12325661203367046,
        -0.14118725250761366,
        -0.02646789534050652,
        -0.006536060852209769,
        -0.14553683736578527
      ],
      [
        -0.08981968955271291,
        -0.20882908931350863,
        0.06393909011114626,
        0.004054049813036426,
        -0.21048183430963996
      ],
      [
        0.2210448395430098,
        -0.1592629443551594,
        -0.07589020974653499,
        -0.07507428203742006,
        0.2354742428145453
      ],
      [
        -0.013748865794223334,
        0.11426330268650264,
        -0.008301395471722258,
        -0.14511300080737224,
        0.12413083349903226
      ]
    ],
    [
      [
        -0.051808228662472776,
        -0.23225922887157666,
        0.20310354475659084,
        -0.030841399604230824,
        -0.13179771771082044
      ],
      [
        -0.11701715548380337,
        -0.15632010402888935,
        0.15583456345971794,
        -0.2596493419203088,
        0.21017068027052394
      ],
      [
        0.15630535559166955,
        -0.0691692114630785,
        0.09474854476616708,
        -0.14962379347918314,
        0.2543095161184833
      ],
      [
        -0.03119901438496864,
        -0.1201389972340183,
        -0.0486140798888902,
        0.04430311821810342,
        0.1022292893489149
      ],
      [
        -0.10330193447874111,
        -0.23586198053325852,
        0.05249557076817848,
        -0.007483208213348862,
        -0.21476803797858915
      ]
    ],
    [
      [
        -0.2506578039420929,
        0.2229875188042458,
        -0.04159676883547597,
        -0.03044711834978367,
        -0.10526812654635223
      ],
      [
        -0.05772507953276439,
        0.13329186286775116,
        0.035292379959406525,
        0.05221473822696396,
        -0.18101887267610742
      ],
      [
        0.2679920491728316,
        0.12972636328827816,
        -0.13547255889734278,
        -0.2578701275438803,
        -0.040379715622711226
      ],
      [
        -0.11798802586263007,
        0.082783348098985,
        -0.2638253243446652,
        0.18622395725418683,
        0.019205871557935607
      ],
      [
        0.06510835581872543,
        0.16073259330244521,
        0.19331445392868668,
        0.20756770555111684,
        -0.018536501599748696
      ]
    ]
  ],
  [
    [
      [
        0.13637229938463868,
        -0.12690506894673295,
        -0.19715693322659336,
        0.11102578014249362,
        0.07471977710009174
      ],
      [
        -0.16685056314950505,
        0.2177969727081634,
        0.09913450675728445,
        -0.21731933843946083,
        -0.14869610704652708
      ],
      [
        -0.05474037232778796,
        0.22126186049142327,
        0.05045176742870439,
        0.19912895613336273,
        0.019885106991016893
      ],
      [
        0.18374186599056802,
        -0.24038817851599834,
        0.1642692264723069,
        -0.0343731529674583,
        0.09221194506420338
      ],
      [
        -0.1681278999603411,
        0.2118028137292337,
        0.10524172394656477,
        -0.08246215328428427,
        -0.19687561691356473
      ]
    ],
    [
      [
        -0.07220917179642038,
        0.056914210250483134,
        -0.14782173438747293,
        0.19377553451506932,
        0.03441928566227173
      ],
      [
        0.11524086153046137,
        0.03336253218953971,
        0.30812531736002285,
        0.20182098169972784,
        -0.3209611280098236
      ],
      [
        -0.11691572936974963,
        0.39127313318494084,
        0.26497433261674325,
        -0.06746124319833996,
        -0.1841487731230156
      ],
      [
        0.27541507425027123,
        -0.24137459881736234,
        -0.05934004750590659,
        -0.3053810910467532,
        -0.08336421380152473
      ],
      [
        0.09456257388416432,
        -0.249414360183908,
        -0.1450881152467699,
        0.15368946061117394,
        -0.040308010342126055
      ]
    ],
    [
      [
        -0.21227647761612856,
        0.12326526718516367,
        0.2019464164913164,
        -0.2544261879872908,
        -0.30982179100352636
      ],
      [
        -0.0020028850772054337,
        -0.004197914788915136,
        0.07610109170995161,
        -0.2068927505625058,
        -0.3223168847060828
      ],
      [
        0.13753456275994427,
        -0.21240619729754276,
        -0.02660605536235072,
        0.1785734803805413,
        0.11817426846493191
      ],
      [
        -0.24974639613076666,
        -0.2794894289749905,
        0.08981120514164141,
        -0.09158407488419741,
        -0.1568273202064765
      ],
      [
        -0.05737665468209911,
        0.13970147160701482,
        0.19534972813899468,
        0.1450133888322282,
        -0.0763614260856564
      ]
    ],
    [
      [
        -0.22980494149255132,
        -0.014131527162681453,
        -0.07482900438774666,
        -0.11663623392202252,
        -0.14532549790941465
      ],
      [
        0.2153554864390916,
        -0.17620340430341852,
        -0.09898811865170727,
        -0.004306362905398499,
        0.14244218728538433
      ],
      [
        -0.2787646361412456,
        -0.1880401099232754,
        0.2701821729925953,
        -0.24168165486412807,
        -0.28470356709798805
      ],
      [
        -0.16958579562213955,
        0.15979846955353535,
        0.22122058018791238,
        -0.12250555167653189,
        -0.13563634154825452
      ],
      [
        -0.24831535553991388,
        0.060094183716057015,
        0.0439110333942971,
        0.027296834643839068,
        -0.1269587429679097
      ]
    ],
    [
      [
        -0.22066021009471073,
        -0.17134638295800783,
        -0.17763780903175985,
        0.20818334266459163,
        -0.22955011114489948
      ],
      [
        -0.027109398601136606,
        -0.17599986002081344,
        0.19151571057827577,
        0.11147961540205588,
        0.021562138327998467
      ],
      [
        -0.01864251314806578,
        -0.12900087038488622,
        0.21484548088876512,
        0.17088536107046598,
        -0.12042888913900508
      ],
      [
        -0.027177043178451862,
        -0.07820842773489564,
        0.17316353537251306,
        -0.24517933323529978,
        0.06555318470215087
      ],
      [
        0.11677545025071494,
        0.05851620543034511,
        -0.15158051402661474,
        -0.0921586056275523,
        0.046878560869760104
      ]
    ],
    [
      [
        -0.023542096109399585,
        0.1447028549116538,
        0.0826569096926555,
        -0.16457086006819077,
        0.01764189250277702
      ],
      [
        -0.19608708544629808,
        -0.18106431827811714,
        0.08754213733246823,
        0.08943047664420158,
        0.0498365128524107
      ],
      [
        -0.0179523261615094,
        -0.20371469138163686,
        0.10062160023109228,
        -0.12850062511276467,
        -0.061293920401077215
      ],
      [
        -0.2096731006334842,
        0.09198878834026954,
        -0.22743145478409724,
        -0.12202609535894048,
        0.0785124501611677
      ],
      [
        0.06648916118120216,
        0.0413485223347846,
        -0.24848466402180996,
        0.024447034636066862,
        -0.2626681906491565
      ]
    ],
    [
      [
        0.08586230924243995,
        -0.222914490447506,
        0.1237538109200832,
        0.10034736547408582,
        -0.38278663130388557
      ],
      [
        0.08269642864504043,
        -0.07074689988862605,
        0.1923769697072938,
        -0.2373589253773464,
        0.01035671379088511
      ],
      [
        0.22371614802352616,
        0.3441732050756451,
        0.07185654489398462,
        -0.12961968807129642,
        -0.2011758084034502
      ],
      [
        0.2319908350370761,
        -0.012647031718862708,
        -0.17019994366803046,
        -0.1089240969145432,
        0.22178983933088933
      ],
      [
        -0.20982900765236628,
        -0.005479501208020023,
        0.01119330452410488,
        0.1843244781397575,
        0.3153853283596367
      ]
    ],
    [
      [
        0.02192468775634043,
        -0.06563995348795322,
        -0.034550716549660916,
        0.11047062553536163,
        -0.026625500003831112
      ],
      [
        -0.2864827995902924,
        0.07105928949768553,
        -0.12262560884475339,
        -0.28278575925746646,
        0.19752680245957355
      ],
      [
        0.03305390140606296,
        -0.18369592574806498,
        -0.19460152013205245,
        0.00034717277401320783,
        -0.10505591463819892
      ],
      [
        0.1402846020019702,
        -0.2322630660431462,
        -0.2997075060444074,
        0.041642872564342986,
        0.054614864913840565
      ],
      [
        -0.07000050745898628,
        -0.26048723290058967,
        0.09641414894361346,
        -0.08348123084138295,
        0.2655827869709268
      ]
    ]
  ],
  [
    [
      [
        0.21520452595977968,
        -0.19414279553788316,
        -0.03394306229021188,
        0.1708807193005156,
        -0.24198750112052753
      ],
      [
        -0.17333208692390775,
        0.07264215901521358,
        -0.2101141400285798,
        -0.1396693702443109,
        0.20492795176986683
      ],
      [
        0.17830256546160925,
        -0.15423575164111342,
        0.13762278612052645,
        -0.06741235717336046,
        0.11034324199291426
      ],
      [
        -0.05789049274815829,
        -0.060016883466521155,
        0.015663505847690967,
        0.08926533758377396,
        -0.23921166473578945
      ],
      [
        0.05219186110992451,
        0.04358771414513229,
        0.13830470044961315,
        0.11086209996726543,
        -0.020028294183430786
      ]
    ],
    [
      [
        0.19132077736572614,
        -0.1775200582641102,
        -0.14726197799369056,
        -0.06158514616206166,
        -0.07840748259853896
      ],
      [
        -0.17961530582388693,
        0.18274362468760175,
        0.008378535483987225,
        -0.12037903012854587,
        0.1251179040324745
      ],
      [
        0.2023231387012097,
        -0.0015768798526839545,
        0.27480694349713447,
        0.047324864180444286,
        -0.306282332260613
      ],
      [
        -0.0005967485011551438,
        0.29523228157608916,
        0.023176568187955136,
        0.05044068079850391,
        -0.09699262013011965
      ],
      [
        0.09468481144280708,
        0.09196149470615068,
        -0.15456448324458688,
        -0.29291208726510676,
        -0.15129177746822384
      ]
    ],
    [
      [
        -0.19535681075689013,
        -0.15482903999589107,
        0.12436818534905804,
        0.09418122611889333,
        0.1069368537378762
      ],
      [
        0.03744454514725279,
        0.09175338903600168,
        0.12506624558176827,
        -0.17498873502306203,
        -0.07059939778233017
      ],
      [
        0.12965491214229902,
        -0.12672412327443935,
        -0.18816872887892985,
        -0.010789636526902515,
        -0.15956962095981994
      ],
      [
        -0.05274822577670507,
        0.004831314478960399,
        0.20101362682493368,
        -0.10464160024730325,
        0.1386393650026583
      ],
      [
        0.0020514325156468258,
        -0.05497835848695075,
        -0.11239360281242125,
        0.11670072891128301,
        0.03584098349849811
      ]
    ],
    [
      [
        0.012469003882005484,
        -0.09946923039283595,
        -0.14012667222773212,
        -0.14302136288710068,
        -0.11143821420411042
      ],
      [
        -0.17807341838201377,
        -0.08063426877860566,
        0.13022197403916422,
        0.10426714482087139,
        0.08681683417119021
      ],
      [
        -0.12071921854883777,
        -0.11316784628688213,
        0.03613588411179986,
        0.18960797357450002,
        -0.052120446082312546
      ],
      [
        -0.27122674865772967,
        0.062182531776876715,
        0.1178287924087973,
        0.20162960242178277,
        0.0024906646974994506
      ],
      [
        -0.11217582450928819,
        0.09957737797985194,
        0.05800517329545135,
        -0.188287831462511,
        -0.2123002921289178
      ]
    ],
    [
      [
        -0.18304328837055456,
        -0.017913119508759307,
        -0.20453154974080032,
        -0.10628011319481213,
        0.23353207514431035
      ],
      [
        0.19423190708398466,
        0.0600919288934749,
        0.005083439465388926,
        -0.06501452735843556,
        0.06587915443829258
      ],
      [
        0.1784317458560378,
        0.13864363936304056,
        -0.046726170631753654,
        0.11934952173112161,
        -0.2102821745959539
      ],
      [
        0.2023395647663369,
        -0.10477801551322474,
        -0.01298208065749917,
        0.23854227695991417,
        -0.128340401727377
      ],
      [
        0.06134785323298064,
        0.14896869385251676,
        0.022823596718312324,
        0.19624220522369176,
        0.037800963686967025
      ]
    ],
    [
      [
        0.05161140812134107,
        0.11028278101619969,
        -0.28434660055202887,
        0.04018760411455238,
        -0.003993902058146766
      ],
      [
        0.1078094702315964,
        -0.02757533731863813,
        -0.2523595613489815,
        -0.231083377137531,
        0.07836960976711806
      ],
      [
        -0.10196316899498917,
        0.03005635115110269,
        -0.16674805158993009,
        0.040063530629212,
        0.06683200976908417
      ],
      [
        0.04092566795829539,
        0.11395459100473374,
        -0.21720655674423692,
        0.05841583558017139,
        -0.1596055715278242
      ],
      [
        -0.27182814968738434,
        -0.1002332210216274,
        0.03342338928666107,
        0.14158099832615686,
        -0.2626043192431503
      ]
    ],
    [
      [
        -0.19116073111898768,
        -0.0840446707192623,
        -0.2804752842536373,
        -0.1684689118578319,
        0.07234341619424266
      ],
      [
        -0.09996315275313912,
        -0.02733036782073003,
        -0.12288815401303044,
        0.27427463515018635,
        -0.01864661779037343
      ],
      [
        -0.22662670101490962,
        0.1899027665518137,
        -0.07102185162322186,
        0.028035936507560623,
        0.1207994596871401
      ],
      [
        -0.16938340805135868,
        0.3149349050367778,
        -0.11156279122110363,
        0.026925798042153334,
        -0.2619975369130503
      ],
      [
        -0.012670003450488859,
        -0.10294365305881416,
        -0.02940653584739424,
        -0.22942323957420221,
        0.08705961682588166
      ]
    ],
    [
      [
        0.0724323790564096,
        -0.1574563563862767,
        -0.10689269277579411,
        0.13718710009065188,
        0.13140892302160026
      ],
      [
        -0.20696788887099557,
        -0.20475811095999763,
        0.005686122559995942,
        0.04996259717102162,
        0.13564987734936723
      ],
      [
        -0.06239481427516917,
        -0.08231360260289318,
        0.020055510846204015,
        0.23770257270974554,
        0.1639329813015751
      ],
      [
        -0.04384263002160472,
        0.2194725892316458,
        -0.1017589107581437,
        0.08885849232028978,
        -0.18605689485951551
      ],
      [
        0.10168961065655907,
        0.03309460059030287,
        -0.05426543787232546,
        -0.205376269896828,
        0.1831578964378046
      ]
    ]
  ],
  [
    [
      [
        0.12861950448108364,
        0.12663976809349825,
        0.1729162529997634,
        -0.1883946003139829,
        -0.07399717240416516
      ],
      [
        0.04931893739949169,
        -0.16058780320372543,
        -0.012233012097014875,
        -0.029404945420788343,
        0.23158668892592085
      ],
      [
        0.22225996323865346,
        0.09032630349749707,
