[
  [
    0.006599421527082036
  ],
  [
    0.01105910500311895
  ],
  [
    -0.04211450210164264
  ],
  [
    0.06510923562716452
  ],
  [
    -0.016618511960474636
  ],
  [
    0.05831131170229461
  ],
  [
    -0.006806725040743987
  ],
  [
    0.061730373683082804
  ],
  [
    0.02898282779405952
  ],
  [
    0.10142979337784608
  ],
  [
    -0.014801193677004092
  ],
  [
    0.09834600686628898
  ],
  [
    -0.04005288598801908
  ],
  [
    0.05744856739590984
  ],
  [
    -0.012105865109841326
  ],
  [
    -0.010765251867588659
  ],
  [
    -0.06352659773782128
  ],
  [
    0.1344008381617858
  ],
  [
    -0.06485897703984966
  ],
  [
    -0.02743290817511701
  ],
  [
    -0.08366728157681073
  ],
  [
    0.10142968462696546
  ],
  [
    0.100172409759616
  ],
  [
    0.020826255420180694
  ],
  [
    -0.11850029055379395
  ],
  [
    -0.00023512249507030752
  ],
  [
    -0.17678564151470344
  ],
  [
    0.11923788204829287
  ],
  [
    -0.009316259035459306
  ],
  [
    0.03613802541423491
  ],
  [
    -0.08957818230285713
  ],
  [
    -0.04801100802397145
  ],
  [
    0.08450680827351233
  ],
  [
    -0.09772305216557549
  ],
  [
    0.06810963082142225
  ],
  [
    0.11156982735400758
  ],
  [
    0.0839562739747537
  ],
  [
    0.02982307709529629
  ],
  [
    -0.06383062258540152
  ],
  [
    -0.0038292983425195362
  ],
  [
    0.00785061279862388
  ],
  [
    -0.014251909737187544
  ],
  [
    -0.0626220886242708
  ],
  [
    0.017100049294805957
  ],
  [
    -0.00967640874892514
  ],
  [
    -0.08440089468235698
  ],
  [
    0.02326100764372138
  ],
  [
    -0.016296208055935485
  ],
  [
    0.10250907251121168
  ],
  [
    -0.0654939384915808
  ],
  [
    -0.13428633835513307
  ],
  [
    0.08148335749229565
  ],
  [
    -0.10594288817353786
  ],
  [
    0.060961095212082
  ],
  [
    0.04995402545475176
  ],
  [
    -0.23703325143790824
  ],
  [
    -0.03610922088678544
  ],
  [
    -0.04480221254388265
  ],
  [
    -0.06127538506790201
  ],
  [
    0.10579493139244561
  ],
  [
    -0.0042297264749938885
  ],
  [
    -0.03949568636588233
  ],
  [
    -0.0613288564778132
  ],
  [
    0.07347546103537035
  ],
  [
    0.02479615433181945
  ],
  [
    -0.0064890797069297795
  ],
  [
    0.07536293613815058
  ],
  [
    0.04690356143693829
  ],
  [
    0.06625649673555493
  ],
  [
    -0.07909904551303158
  ],
  [
    -0.12193069003747731
  ],
  [
    0.05313028411242522
  ],
  [
    -0.0027422570692581592
  ],
  [
    -0.07895478158468956
  ],
  [
    -0.04852346400348177
  ],
  [
    -0.020915893866082013
  ],
  [
    -0.0026041147371672372
  ],
  [
    0.014856291015830692
  ],
  [
    0.026816498481696135
  ],
  [
    0.1463095037153905
  ],
  [
    0.014982443098188048
  ],
  [
    0.10389191017729194
  ],
  [
    -0.016682426148453087
  ],
  [
    0.013173882909093592
  ],
  [
    -0.06661281988248026
  ],
  [
    -0.1830806079883493
  ],
  [
    0.04251897421693234
  ],
  [
    -0.2994355643422397
  ],
  [
    0.11836599916602018
  ],
  [
    0.08856774467062312
  ],
  [
    0.0036726178659120235
  ],
  [
    -0.05409489154807452
  ],
  [
    -0.17282262480567678
  ],
  [
    0.16084837623631515
  ],
  [
    -0.09844184917924308
  ],
  [
    -0.013388690362707064
  ],
  [
    0.2555951418536175
  ],
  [
    0.00861080133692406
  ],
  [
    0.08004416389446599
  ],
  [
    0.1488414465866615
  ],
  [
    0.11649285108455351
  ],
  [
    0.01867124005097642
  ],
  [
    -0.08322041832440844
  ],
  [
    0.054980923089051566
  ],
  [
    0.15947508300169194
  ],
  [
    0.04744423264193798
  ],
  [
    -0.01731765257328675
  ],
  [
    -0.06591904563959167
  ],
  [
    0.024712117645154276
  ],
  [
    -0.00548270511251655
  ],
  [
    -0.11123338361027263
  ],
  [
    -0.034439655351511875
  ],
  [
    0.07532829323304563
  ],
  [
    0.025644948167349718
  ],
  [
    0.03894817988763393
  ],
  [
    -0.004743204356049835
  ],
  [
    -0.21205293909992676
  ],
  [
    0.14089087916819537
  ],
  [
    0.07897318465404767
  ],
  [
    0.0024634068687817653
  ],
  [
    -0.19437282971824532
  ],
  [
    0.016330970942468034
  ],
  [
    -0.047302230110544775
  ],
  [
    0.10446866127262837
  ],
  [
    -0.02794101423810884
  ],
  [
    0.04381825121272226
  ],
  [
    0.05928691266321401
  ],
  [
    -0.02070865985086893
  ],
  [
    -0.066933296285272
  ],
  [
    -0.06337215552194057
  ],
  [
    0.07876893828518322
  ],
  [
    0.084865490136122
  ],
  [
    -0.008037469145719766
  ],
  [
    -0.02069653147178852
  ],
  [
    0.08043031452473286
  ],
  [
    0.15698862762666982
  ],
  [
    -0.006462662385001951
  ],
  [
    0.0025122414176141404
  ],
  [
    -0.046247984902754384
  ],
  [
    0.03723224124469044
  ],
  [
    0.05900427637989783
  ],
  [
    0.12813536520919813
  ],
  [
    -0.025719483700129865
  ],
  [
    0.19676005581073489
  ],
  [
    -0.003458175202258359
  ],
  [
    -0.002240487135697055
  ],
  [
    0.10344604698888751
  ],
  [
    0.05203407610676812
  ],
  [
    -0.10187866800458018
  ],
  [
    -0.15327794693474261
  ],
  [
    -0.010770020427063827
  ],
  [
    0.06715158046024175
  ],
  [
    -0.09725582506191888
  ],
  [
    0.026302487914123946
  ],
  [
    -0.061351754022151685
  ],
  [
    -0.03870857055502873
  ],
  [
    -0.014540978962976257
  ],
  [
    0.04443656925702645
  ],
  [
    -0.11446570237662941
  ],
  [
    -0.059586185999719175
  ],
  [
    0.02086763898927617
  ],
  [
    0.09425587560141817
  ],
  [
    -0.07181267089914484
  ],
  [
    0.08863574497524662
  ],
  [
    -0.3171558616211403
  ],
  [
    0.11947150300307441
  ],
  [
    0.04556959130718112
  ],
  [
    0.04860413006706203
  ],
  [
    -0.1362432297436633
  ],
  [
    -0.00415082316236584
  ],
  [
    0.023988569535540898
  ],
  [
    0.02724060429193443
  ],
  [
    -0.23100373998739085
  ],
  [
    -0.07264349340293658
  ],
  [
    0.05092155703135016
  ],
  [
    -0.0673576186821866
  ],
  [
    0.06829477888063526
  ],
  [
    0.11428040210808801
  ],
  [
    -0.04967565954709417
  ],
  [
    0.1719863498042402
  ],
  [
    0.012448529187724457
  ],
  [
    -0.043008225301649036
  ],
  [
    0.007676543257027045
  ],
  [
    0.04676690404240584
  ],
  [
    0.035106386457771366
  ],
  [
    -0.08884434017920953
  ],
  [
    -0.04156577462458211
  ],
  [
    0.009825072705432442
  ],
  [
    0.06954099643826929
  ],
  [
    -0.019393457206223135
  ],
  [
    -0.03329480517455066
  ],
  [
    0.20170420929903823
  ],
  [
    0.014374739201511055
  ],
  [
    0.09696070602197168
  ],
  [
    0.09888597368374996
  ],
  [
    -0.0385422418959633
  ],
  [
    0.13036822176439203
  ],
  [
    -0.02719460386912429
  ],
  [
    0.14002938576081722
  ],
  [
    0.005668726797891486
  ]
]