[
  [
    0.024172866766917718,
    -0.007285858553784971,
    -0.05462462894123674,
    -0.07214133374970366,
    -0.06141531003068463,
    -0.029460238052297624,
    -0.07201753884460188,
    0.0061726911255612455,
    0.015497732558860293,
    -0.025986370327198312,
    -0.07748964802898668,
    -0.032309121850471495,
    -0.07474454811747484,
    -0.04524920801107252,
    -0.05849770179045905,
    0.02276742450274805,
    -0.09451212665465905,
    0.013548448110912648,
    -0.012455750180684406,
    -0.04811345002347371,
    -0.06049023656108121,
    -0.07314688012085256,
    -0.0240104737470288,
    -0.058490700271044346,
    0.02166607632140512,
    -0.006549533453121902,
    -0.03477115461477529,
    -0.02882454647111196,
    0.05280141906154358,
    -0.04798824762325203,
    0.017886177237985447,
    0.027701517616051868,
    -0.010701154259795884,
    0.05622114633655886,
    0.048176580018190925,
    0.011280076496099918,
    -0.031192895682380865,
    0.016720623450686187,
    -0.011124230447625064,
    0.007576010273033781,
    -0.0217827156998186,
    -0.04609109838961362,
    -0.02758761653358868,
    -0.042489341338781905,
    0.05253563386243256,
    -0.04212187440511115,
    0.01535916193447148,
    -0.04590443556066787,
    0.015056473045383933,
    0.021283038028665657,
    -0.010694475736509496,
    0.01719896817628197,
    -0.05923871674126545,
    -0.07005457238648617,
    0.02833926399209344,
    -0.08089380399014201,
    -0.07232137909733119,
    -0.0031032434451033,
    -0.04279949198495743,
    -0.06307689396833713,
    -0.04289591038254332,
    -0.04326845693201933,
    -0.061103966737736125,
    -0.05397837329986022,
    -0.07153473461499954,
    -0.02112053800360537,
    -0.013872169317243815,
    -0.10370304740211375,
    0.01788574883535087,
    -0.058370056434678734,
    -0.04929081558548918,
    -0.005981416689918648,
    -0.0741469279158027,
    -0.033745465819175834,
    0.0007312990379799147,
    0.03086898906625649,
    -0.041352625270602086,
    0.034920079445803526,
    -0.0633917220404319,
    0.03757434294731419,
    -0.029695336679344576,
    -0.014102889975629918,
    0.04622096570967234,
    0.050921712137607406,
    -0.019385537178199852,
    0.01249772775002516,
    -0.028617104279280475,
    -0.0632052975486314,
    0.056117156977574016,
    0.0006574384240019191,
    -0.008044234608914362,
    -0.027381086765111678,
    -0.016996254063541032,
    0.003109518759115567,
    -0.05813838874082001,
    0.01571966219167204,
    0.023270136558445127,
    -0.052346122458384145,
    3.1338446148680196e-7,
    0.03715844872343912,
    -0.07770702403839365,
    -0.10210083448478265,
    -0.014786086027979527,
    -0.01153325848660809,
    -0.05768446233935279,
    -0.0009786966509657635,
    -0.04899465227196714,
    -0.030283825185044574,
    -0.0038037811909644556,
    -0.017065725333043437,
    0.018237575238986323,
    -0.08994933627544321,
    0.048412775910296135,
    -0.055896150826243246,
    0.025245512477376338,
    -0.07918715583749382,
    0.04499306954810306,
    -0.06824250468937963,
    -0.02403265355916212,
    -0.04551447178234274,
    0.03907597086177148,
    0.03907949127951874,
    -0.054008259251091685,
    0.026377289436943563,
    0.015003056141386587,
    -0.023428015276216123,
    -0.02523628126720366,
    -0.047158078773710886,
    -0.07177016043314255,
    -0.08253134178490482,
    -0.03132417550127458,
    -0.014479974275931382,
    -0.018564555661862894,
    -0.04403525385399415,
    -0.05778123798935781,
    0.05211204707063634,
    -0.04992813559204275,
    -0.039459722703287715,
    -0.062470769546820015,
    0.022512046603736437,
    -0.003802151590040646,
    -0.06563341185014089,
    -0.08197254378676906,
    -0.0790426389674927,
    -0.038542957590936545,
    -0.07406000465563686,
    -0.03224697988280252,
    0.0409244680706272,
    -0.08050684209100482,
    -0.07552525474131128,
    0.0034462241680343494,
    -0.012741426090887383,
    0.018578372352229307,
    0.017488292216431597,
    -0.010649902174342927,
    0.055842245360891885,
    0.012763189274609722,
    -0.03224600714615771,
    0.0157859943252668,
    -0.030809201265664103,
    0.03730243626181252,
    0.029015881786555692,
    -0.005956699269722162,
    0.009895139871662496,
    -0.0156990118630145,
    0.05692054450681895,
    0.03864025726831252,
    0.004302371467529547,
    -0.02867586560263908,
    -0.0016847352393770606,
    0.016825933633583246,
    0.0436099584111125,
    -0.05168937858764339,
    0.031283556905558174,
    0.046872856382368204,
    -0.009390200642708907,
    0.05721614404006872,
    -0.024650217234159732,
    0.031139046198086297,
    0.05112102992222695,
    -0.08673527107127287,
    -0.06474680696080817,
    0.01507134259073496,
    -0.04201184365825151,
    0.05030693293514742,
    -0.050734170993377625,
    -0.013852610963316575,
    -0.05514038494370641,
    -0.023931029528994827,
    -0.014098556562460372,
    -0.04524392007792082,
    -0.06698503240071377,
    -0.000653202144241738,
    -0.006056097035181319,
    0.01292774352970876,
    -0.021497049200456503,
    -0.006691222982852536,
    -0.012804794080197869,
    -0.009368234856429014,
    -0.045237481874833355,
    -0.0364212328645107,
    -0.06298842779554528,
    -0.04297584798320869,
    0.014706310585304729,
    -0.0012567045351518141,
    -0.018808299700054678,
    0.03129182168286692,
    -0.051461330164253805,
    0.008470272882175426,
    0.0035038267321159454,
    0.0214304982485347,
    0.01812990721084078,
    0.006116345690552957,
    -0.02892022344360842,
    0.04617346333675345,
    -0.030574673693300327,
    0.04770916161108312,
    0.021725568437742936,
    -0.05322592027295988,
    -0.013980623989814216,
    -0.05551896870549597,
    0.005247873517261071,
    -0.023914019753812448,
    -0.004520068024801538,
    -0.009318336133246398,
    -0.07298209515325431,
    -0.0350730202277824,
    0.036070764378147116,
    0.010654935980286882,
    0.03548955413407282,
    0.022999563172291404,
    -0.06477144776333452,
    -0.021274495747662728,
    0.002961857093679342,
    -0.021773009858209933,
    -0.026177871464004437,
    0.01091866394040144,
    -0.011217802696862336,
    0.04924037446904917,
    0.0005726883617617954,
    0.021091281370258314,
    0.01765999597597189,
    0.034428125823587674,
    -0.03102268958118348,
    0.03910858535510486,
    -0.06368220344300507,
    -0.069192642398666,
    -0.030696660719291294,
    -0.03918808140656882,
    0.02908149588422594,
    0.01430339404799058,
    -0.09376590978306251,
    0.0019451626101787975,
    0.027968234893096862,
    0.010937422949011623,
    -0.08106880253742345,
    0.005706149741407183,
    -0.015069250150715722,
    -0.08419541159332626,
    -0.08107187463134706,
    -0.03469585056969956,
    -0.005734955628321265,
    -0.03344811390756297,
    -0.03922340293120772,
    0.016115500920026792,
    -0.023553549131922473,
    -0.032492479239388215,
    -0.044800397985242026,
    0.014973350657954236,
    -0.07251975087380155,
    -0.07893803588912227,
    -0.0744234198014999,
    -0.01218759917658472,
    -0.08494723046070873,
    0.028195113114687535,
    0.04634245074980128,
    -0.06621889305379741,
    -0.0012856721290979815,
    -0.02691311073501003,
    -0.07211357387627461,
    -0.004802740822399885,
    -0.0031272821305298086,
    -0.04561354152533618,
    -0.023818809195712148,
    -0.05950592706479157,
    -0.07091913689326829,
    -0.03683340005971519,
    0.005588845109981543,
    -0.06618666895676291,
    -0.0030986421737304024,
    -0.021031838222071355,
    -0.052209563152719456,
    -0.06882281568294012,
    -0.04280208913772372,
    -0.0685093991549967,
    0.027054594557871913,
    0.016998648854553322,
    -0.031490894485258186,
    0.01674207305140558,
    0.01164157589658521,
    -0.015454446310169822,
    0.015553235651970837,
    -0.0639553408062074,
    0.05549496005884892,
    0.04365147773019098,
    0.03367752238844017,
    0.038540159016463564,
    -0.06820904929119458,
    0.0327633141918006,
    -0.049772332966624,
    -0.04639920759163043,
    -0.07080752554795651,
    -0.01899859388671708,
    0.03237940161821761,
    -0.05431841273394425,
    -0.022866562280774824,
    -0.030816044663222384,
    -0.0637082089994015,
    -0.01807756917063523,
    -0.04558505008798883,
    0.038354443048582154,
    0.03718922103442461,
    -0.03956155916832709,
    -0.025766580161212513,
    0.008961724964623772,
    0.04175729038441532,
    -0.009282327569215407,
    -0.017963083432994614,
    -0.036009964622165366,
    -0.009889986630339466,
    0.03863072291888364,
    -0.04885807045115172,
    -0.03566259742901244,
    0.03133303860249146,
    0.03789721475395281,
    0.028062619356526375,
    0.01883490425032741,
    -0.06007049384557431,
    -0.004892394078359945,
    0.012914369630577432,
    0.0461858836425287,
    -0.06256814549017056,
    0.05202261352927018,
    0.002573493707811889,
    -0.018189488952430957,
    -0.011361346516303985,
    -0.016918816211225655,
    0.04902984596390941,
    0.033686839487832236,
    0.04485459543464144,
    -0.022274425353385755,
    -0.050278068745338175,
    -0.052161611512379386,
    0.01874009830046201,
    -0.011392588245488475,
    -0.05548777087268341,
    0.013340051185832766,
    -0.0020362821485872705,
    -0.006003808029354447,
    -0.040571921831031976,
    -0.07848577822962596,
    0.019421456091352252,
    -0.003472976218929859,
    0.0033055467786399246,
    -0.05303887544780513,
    -0.004881772091383292,
    -0.045326362118201804,
    -0.008146147952628144,
    -0.07257350854585563,
    0.012579609423814976,
    0.054231553779324204,
    -0.029272499019180075,
    0.03187604128493943,
    -0.0231406254453296,
    -0.010874408844667649,
    -0.041073765063812495,
    -0.0120646081787077,
    0.03409903170710372,
    0.007250554605295176,
    0.024236290270603266,
    0.05146436519118061,
    -0.051153259637496076,
    0.024670789058137813,
    0.04432967818057433,
    0.06238205254717169,
    0.04035195534055955,
    0.053214030797010536,
    -0.010065759729352147,
    -0.031068499196859545,
    -0.03889816703096371,
    0.03677760581935402,
    -0.048095198904749684,
    0.04982039870872386,
    0.03684890769882219,
    0.016730321615462264,
    -0.056849728788758595,
    0.054269175214788336,
    0.00819925239027463,
    -0.01109415950731316,
    0.05345060803796343,
    0.03421369771488361,
    0.04683748709629127,
    -0.04506611125076497,
    -0.016279685738639183,
    -0.06863764182134545,
    -0.030874879680409726,
    0.025738139738491695,
    0.04920953075889522,
    0.03979025919946924,
    0.0028730153564871176,
    -0.0418017863282207,
    0.014759276184871304,
    0.06459897385064174,
    -0.06589859814706374,
    -0.038932246012567694,
    0.03677766151392784,
    -0.058086632719432874,
    -0.054922461932030216,
    -0.05945972990156879,
    -0.0122516735020897,
    0.046635802570359514,
    -0.03611429657733433,
    -0.04063761657468079,
    -0.06531854789624772,
    0.03754610560185326,
    0.016763648564312207,
    -0.007253308671949884,
    0.014649900680018781,
    0.016585578289811356,
    0.026147550253805194,
    0.019093154335935683,
    -0.021749558585729516,
    0.01374860414780477,
    0.01851204188804839,
    0.004941024493574276,
    0.024768575079325745,
    0.0032770845056850836,
    -0.0469958083039245,
    -0.0445629761064029,
    0.05803596680134192,
    -0.006981615604905998,
    -0.08067877257644437,
    0.051818870776827355,
    0.037706988635471346,
    -0.03836822036167294,
    0.04562990256270376,
    0.04895752901163811,
    -0.019153842359478247,
    -0.06641506415764593,
    -0.04672575141633624,
    0.0494510797433109,
    -0.0017097416588737896,
    0.013750880385947503,
    0.012980022748500663,
    0.009995387311603172,
    -0.019265599517984653,
    -0.01719172593869503,
    -0.01621158503895817,
    -0.057482632726016405,
    0.021074674068907437,
    -0.03134750260229603,
    -0.006240554284521338,
    -0.033728362590157254,
    0.048720771972464175,
    -0.0067490531945625,
    0.00648074426606087,
    0.012778450919809935,
    -0.06714130985996142,
    0.005604489759775633,
    0.02699746396038516,
    -0.011697199634886241,
    -0.032682239634488075,
    -0.045656681367626815,
    0.01749240909362242,
    -0.03111265171073574,
    -0.03932383501745699,
    -0.06300051590765035,
    0.03319128804653677,
    0.0020232907806130677,
    -0.04685667056059326,
    -0.020938835858073407,
    -0.02699075709200789,
    -0.007060553808194062,
    -0.05573663660332905,
    -0.025093672271278362,
    -0.005299485701119651,
    -0.03446463469401751,
    -0.01054513652459916,
    0.018387051954565886,
    -0.03425296198123919,
    -0.012083511741025966,
    -0.023199005592937326,
    -0.03877729327917959,
    -0.046382920961760075,
    -0.06052624120756345,
    -0.07195628227198547,
    0.047513132393728404,
    -0.0002903787031779329,
    -0.004685941132969471,
    -0.07903965752926782,
    0.01185683422259754,
    0.004923993182600375,
    0.0029408390144383236,
    -0.017607634732328854,
    -0.05959448692225871,
    0.02051059273288245,
    0.000760994071737192,
    -0.014153181815656366,
    0.0070273940518715775,
    -0.09161204538726955,
    -0.0476646636068153,
    -0.04213684096297785,
    -0.018123014564803704,
    -0.06808124875039737,
    -0.062063717759466966,
    0.018448962797566054,
    -0.034266470644410865,
    0.0003046024711818863,
    0.048761550978203616,
    -0.0654660979758116,
    -0.003967388567410278,
    -0.03429565860799072,
    -0.010590526604060915,
    0.05143054588526214,
    -0.04767753153570253,
    -0.052913927334877105,
    0.0165621043717751,
    -0.040697714703795726,
    0.048116638187905104,
    -0.03433909357496721,
    -0.010210965727293455,
    -0.0777747812584738,
    -0.07310454489699536,
    0.01814648894893521,
    -0.04267889051669956,
    -0.01053186518484436,
    -0.0630994894851013,
    -0.022458097061828025,
    0.021671574957677523,
    -0.033661766586586234,
    0.053250338580700385,
    0.0539273106157536,
    0.025438309667084946,
    0.019882366807849557,
    0.01827391189013115,
    0.03902900090624362,
    -0.042797531624342904,
    -0.04798245672465236,
    -0.04751944331884121,
    -0.0615219636847907,
    -0.03736651097584308,
    -0.03839992714063183,
    0.014940620023166493,
    -0.026507078589403613,
    -0.012578319226771521,
    -0.06723632045877674,
    -0.06315062698410819,
    -0.05040597016082309,
    -0.015635137455443104,
    -0.04509519225902666,
    0.015689878339376663,
    -0.027893536094011444,
    0.03215151207608851,
    0.012206100209671321,
    -0.033036195586560436,
    -0.059174709151540744,
    -0.05023847627119098,
    -0.020534636641888086,
    -0.03981580054182187,
    -0.04725285281767501,
    0.05402935285920693,
    -0.024282211643396792,
    -0.04079473752626738,
    -0.06531629800995496,
    -0.03301886483620244,
    0.06413630890649157,
    -0.027354874785049298,
    -0.03191715993592633,
    0.03963752565254048,
    0.02639428320999575,
    -0.05407151107348251,
    0.020942134604810755,
    -0.038101660733002474,
    0.031141239174773207,
    0.02462108134424271,
    0.04793871882624016,
    -0.02170784610692481,
    0.0072064967544470115,
    0.023193249558817634,
    0.001295273580466175,
    -0.03420998198385946,
    0.007734609596693107,
    -0.0023069605082338845,
    -0.046080642632756914,
    0.035718505085978555,
    0.006160638529455723,
    -0.03433618906563517,
    0.049954587995659445,
    0.01776327994390509,
    -0.06451153149818455,
    -0.024247218221276148,
    0.03745787132339419,
    -0.0842851528528743,
    -0.04106279937979183,
    -0.04427267919058382,
    -0.03078935821340745,
    0.020823641291425884,
    -0.04436325928071049,
    0.033822625013251235,
    -0.08220367111265489,
    -0.011119838381180067,
    0.0030946645993534115,
    -0.030183684750262715,
    0.04092672968934902,
    0.025313157017128454,
    0.015024299881320818,
    -0.06992629205624967,
    0.014965794378252673,
    -0.030238678100442312,
    0.04449644201141651,
    -0.016509107592965335,
    0.04865266613698342,
    -0.03622876066617669,
    0.017549633874388355,
    -0.029729465325262994,
    -0.032394251511722996,
    0.018474316508288686,
    0.04171886030959292,
    -0.08119962568404641,
    -0.05838546792923627,
    -0.03967667038969482,
    -0.048385755038588336,
    0.033624612091518895,
    -0.013920695091663838,
    0.006060943629839904,
    -0.032664404031393694,
    0.012952558192525167,
    -0.015285406428993141,
    0.02740242758813678,
    -0.022480297139902496,
    -0.06844687903744782,
    -0.061629968773583864,
    -0.07026658785930805,
    -0.04838900004875331,
    -0.02924538741093194,
    -0.02021311220821301,
    -0.06781711947760494,
    0.0358451018850498,
    -0.040262529828933344,
    -0.06608750060407442,
    -0.037030362117366475,
    -0.051192263072026734,
    -0.007697353390318472,
    0.02877487480925914,
    -0.05692372624175439,
    0.009381008859128055,
    -0.04896106150498314,
    -0.010941031918588306,
    -0.006212564037544327,
    -0.06788175731860975,
    -0.06234683531240567,
    -0.07995906460531922,
    0.030226955154582878,
    -0.01879329822677465,
    -0.007211664237973309,
    -0.07465364536518757,
    -0.021988851513236977,
    -0.08382838758534043,
    -0.08184748828930287,
    -0.009132101178403103,
    0.011183109789853334,
    0.019654594516252562,
    0.0130033206633983,
    0.010240395450307166,
    0.01726763899033799,
    -0.08277829317170071,
    0.01680556619627816,
    0.03187773845321577,
    -0.03898237698007143,
    -0.06980065711269796,
    -0.04216013718685862,
    -0.055367215430787375,
    0.02070591607395442,
    -0.08614331911077736,
    0.008910213686094669,
    0.02142819673016574,
    -0.04274337249457401,
    -0.047283213575706105,
    -0.07827416734124447,
    -0.08014504962576957,
    -0.050716391627628275,
    -0.082791435327427,
    -0.001512090282738653,
    -0.014818447383504433,
    0.0009533917557884694,
    -0.08082453553800163,
    -0.08125661238514813,
    -0.03227057623128219,
    -0.00022434600602251422,
    -0.05676114248754672,
    -0.07560018742550527,
    -0.03274321829062981,
    -0.023168331568772717,
    -0.04457293007869054,
    0.014857477168578525,
    -0.08107346423057885,
    0.004379181387032235,
    0.0010318032692492058,
    -0.022244354067665024,
    -0.08372642226399388,
    -0.07451410270296742,
    -0.033041679192374294,
    0.030339841947778085,
    0.018011947319335517,
    0.03980997261391939,
    0.021737070840121244,
    -0.0151066215292841,
    0.044554613772445836,
    0.019127821711779867,
    -0.06465514265874697,
    0.005007866755407515,
    -0.07656231364796595,
    -0.015588416950105946,
    0.047151002884775105,
    -0.060433885017643546,
    0.023580900598967152,
    -0.06568509349590208,
    0.007221434617513263,
    0.004529954767094512,
    -0.04692276876710186,
    -0.04863319151416464,
    0.006628772047930061,
    -0.08689667041258085,
    -0.05254718296713771,
    -0.02850579431767272,
    -0.011538675583904005,
    -0.09191281362987773,
    -0.01658276612381989,
    0.003899657990704218,
    -0.028820543121014862,
    -0.012270384752265408,
    -0.019667369216218752,
    -0.01686335636848175,
    -0.02219983764080554,
    -0.025579486018448328,
    -0.009909453881087282,
    0.028788868249531627,
    0.004712883370847986,
    0.05125803694721072,
    -0.05385306583262864,
    -0.04311347453432958,
    0.0004904541540365641,
    0.020722886269123855,
    -0.05166809178935158,
    -0.05382530459616156,
    -0.00799480657122374,
    -0.03359285246191559,
    -0.07412580311111178,
    0.01629589251449476,
    0.015847312282925602,
    0.018582768418972676,
    0.002290123102714161,
    -0.0122517773185365,
    -0.04565729236601463,
    0.008046504790400436,
    -0.0761331370732045,
    -0.022443447023723716,
    -0.06287237875284517,
    -0.0017017674008214722,
    -0.0351799164879641,
    0.022006715342962637,
    -0.0010424624078406053,
    0.028130188310481197,
    -0.030983077863189344,
    -0.08532867441981505,
    -0.018718627776096602,
    0.014567153117853818,
    -0.011191667291329255,
    -0.0636815619257653,
    -0.05057555474531231,
    0.02181712851004079,
    -0.02861295701862501,
    -0.05950242672818872,
    0.03326764505360473,
    0.024394657055475916,
    -0.03452315397690643,
    -0.039668105939667804,
    0.05479654162668103,
    0.0008113678918551764,
    -0.03504010487162934,
    -0.02727643351871362,
    0.03604156622624265,
    -0.0010486662383791436,
    -0.008599281251729549,
    -0.058078896658982034,
    0.05172573992906787,
    0.034027908883413366,
    0.0375980309180411,
    -0.05325099691261734,
    0.0443894605690289
  ],
  [
    -0.05329330753103143,
    -0.03459608368605042,
    -0.029425295473967994,
    -0.03286719235688631,
    -0.06323019738560505,
    -0.07987701798094281,
    -0.07983408113337352,
    -0.07783639411536061,
    -0.03763522117309923,
    -0.01709327841108816,
    -0.012543811115849254,
    -0.00043381125520929113,
    -0.01882159470930176,
    -0.0991878203190734,
    0.0005370838202271402,
    -0.04169994590299891,
    -0.0033724780027200585,
    -0.03979754142632249,
    -0.05927607836973969,
    -0.04447269824575993,
    -0.01604143035182265,
    -0.031144201108214798,
    -0.06788283883086535,
    -0.057044164296711816,
    -0.019331592039174138,
    0.029404669981311707,
    0.0010219649471926663,
    -0.052285063227600515,
    -0.06391734926342035,
    -0.07285808296400119,
    0.0471884528468348,
    0.03802023144280564,
    -0.0142325052390022,
    -0.061872652500877354,
    0.03424361121915258,
    -0.03098622124574494,
    -0.024618382775379925,
    -0.005538289603882793,
    -0.005434394981213534,
    0.011990504713846979,
    0.008156269573485,
    0.01802816696316458,
    -0.05485030893387701,
    0.01027227980866359,
    -0.05678369470632065,
    0.015446150480813273,
    0.02799868126918437,
    0.02026278575155559,
    -0.06074705619699108,
    0.03853785293739582,
    -0.01550226842120652,
    0.012994109155176441,
    -0.07356775594637775,
    -0.04725466210416779,
    -0.025085643908795443,
    -0.036804169674986446,
    -0.030774815003805866,
    -0.017363352647241016,
    -0.0340921355042226,
    -0.03440682079048524,
    -0.01422956082124986,
    -0.0545796227480456,
    -0.0904584086124206,
    -0.10926520342529422,
    -0.030031192602124158,
    -0.08912417413391811,
    -0.07684023535931636,
    -0.05770653327668051,
    0.0029700425768103074,
    0.0026862510736826704,
    -0.07053521331774273,
    -0.05340055731437269,
    -0.054396955648116044,
    -0.06893077108481253,
    0.015022108255040412,
    0.04014813614644841,
    -0.025960417786712896,
    -0.024516518938513247,
    -0.021767114044437565,
    -0.009021777884794656,
    0.007591666401354971,
    0.04792309448193027,
    0.026353503339537034,
    -0.034086190746741366,
    0.0608790681015383,
    0.00519971692442872,
    -0.0524834877610909,
    0.0023661118704973953,
    -0.02069387125277393,
    0.040226062653960976,
    -0.0017907232792830246,
    -0.04854184543404458,
    0.03974956715824448,
    0.005217541445360395,
    -0.06223723687923431,
    0.03146722530506643,
    -0.05529435235884189,
    0.05002224622272452,
    0.01716021619680187,
    -0.0526409730060528,
    -0.06321048692147001,
    -0.03865904988738466,
    -0.018845057050538783,
    -0.06768190741919218,
    0.001542061284539386,
    -0.0684798430167368,
    -0.051928834178194265,
    -0.05187256973921532,
    -0.004158599174645014,
    0.0000708502558036553,
    0.04403373611639845,
    -0.06944098111021593,
    -0.08816525751045876,
    0.0034986304309490893,
    -0.03385536214876897,
    0.014620405933138944,
    -0.017743904575482573,
    -0.03274093836553098,
    0.0206620026779187,
    -0.011509504420654392,
    0.015128899309859256,
    -0.00679611473285754,
    -0.08196948929444674,
    -0.0057809404240462365,
    -0.06334555998352459,
    -0.1361196647630661,
    -0.06869083283141544,
    -0.11255184110535314,
    -0.03694498753376111,
    -0.04917091897898271,
    -0.07576392718483733,
    -0.07674146816070139,
    -0.05102560559079969,
    -0.053096463876831104,
    -0.07946200045362936,
    -0.03690536172357112,
    -0.0442872166958918,
    -0.0034341152358736593,
    -0.05979197165993797,
    -0.0013350966846245984,
    -0.1027420270900028,
    -0.033494895117939835,
    0.00768966337564438,
    -0.011872312760548152,
    -0.06405375873118863,
    -0.038005712860864176,
    0.007683407354169469,
    -0.027899950774996636,
    0.003372608326490787,
    -0.04520772020621724,
    -0.02744196171283903,
    0.017652257585853325,
    -0.0067292717744017,
    -0.04117886777554796,
    0.05653012857115417,
    -0.019067795852616965,
    0.06862916209293146,
    0.026230044006977277,
    -0.008992054123195713,
    -0.00167048047207682,
    0.057787222436783206,
    0.06745161246016708,
    -0.015745921603540054,
    -0.04698761982163492,
    0.03829877337639355,
    0.034559370672494635,
    0.04634620507066107,
    -0.005308962215675473,
    0.044382950683156966,
    0.024217496492603973,
    -0.04869974354469072,
    0.03583059947569772,
    -0.015073727771663423,
    0.033590634545896496,
    -0.036398784296337666,
    -0.02643356110734085,
    0.05134631306964666,
    0.04755453152480598,
    0.008457940197407877,
    -0.02810094465774029,
    -0.03471859077279275,
    0.014499146774139398,
    -0.07001470727707651,
    -0.059542875750480895,
    0.021351697377331,
    -0.05794392211113619,
    -0.07048977692766512,
    -0.019493061530962027,
    -0.07677330937117835,
    -0.030951722142593154,
    0.019608866919083933,
    0.0047091933364979775,
    0.028144956568390094,
    -0.01966520724663324,
    -0.05126216958508666,
    -0.0382104933392351,
    -0.011634758166385463,
    -0.02471176990113621,
    -0.04663216979435939,
    -0.0013304929105030993,
    0.023729024621313342,
    -0.009595008840006546,
    -0.02544070923429851,
    -0.02821577154663246,
    0.0061632845048008485,
    -0.021936063475606365,
    0.03448062220298699,
    -0.002663330190092231,
    0.002785895658769642,
    0.012098131251796294,
    0.0014204244857866674,
    -0.028946583329265772,
    0.03344509393689004,
    0.029350262219226143,
    0.006146013958154365,
    -0.06703283575260847,
    -0.02660529450872138,
    0.023853159842959125,
    -0.05901213089351478,
    0.014528558434243647,
    0.02462207163920642,
    -0.048557980781387386,
    0.03418427334633497,
    -0.055032508256383464,
    -0.028273506888428446,
    -0.021871145528271053,
    -0.04012390462869954,
    -0.06285733936525298,
    -0.06242332604344997,
    -0.039891372595937155,
    0.028029419919816705,
    -0.05222291445808643,
    0.0018511923711388742,
    -0.043249317653988734,
    0.007322807237451949,
    -0.027109178945872597,
    -0.05024127073746599,
    -0.08190731326672061,
    0.05728350194812985,
    -0.04983307636631272,
    -0.054688610613350425,
    0.037534697851584864,
    -0.007769178081028177,
    -0.06776430571632377,
    0.009524174672830815,
    -0.015956202648701664,
    -0.05111065406001396,
    0.02939378455633874,
    0.026148216623397523,
    0.04532736361192109,
    0.01569520841801408,
    -0.0013930828293750907,
    -0.036470105532588434,
    -0.04940057323398975,
    -0.10437885848182533,
    -0.01614838744141905,
    -0.018492840489629556,
    -0.024864732138910623,
    -0.03186378231154685,
    -0.10402904310519781,
    0.0020451384094554827,
    -0.012427430860192658,
    -0.020703462967440318,
    -0.04588972114206599,
    -0.053969822360075324,
    -0.04838369801011705,
    0.007806479633554919,
    -0.04121564139483796,
    -0.015421636083661112,
    -0.023847561237037032,
    0.011378552504627186,
    -0.04694154115114243,
    -0.09599851224956316,
    -0.08323558890876911,
    -0.1187219033691689,
    -0.021659080419931493,
    -0.018792549537677408,
    -0.021568642124201235,
    0.01013446866551016,
    -0.06591279871178325,
    -0.05785589128054211,
    -0.0002490626654484357,
    0.03302533664190918,
    0.02553233923141884,
    -0.030785268008955285,
    -0.013343677823226614,
    -0.09436111845797135,
    0.04341274888944312,
    -0.006132416530889896,
    -0.052343630536283804,
    -0.04606570004583998,
    -0.00037459830787381457,
    -0.062293526024631334,
    -0.026450847351419338,
    0.002727433821618764,
    -0.06772696637863836,
    0.043656216564264716,
    -0.061587940704341114,
    -0.004980022807920901,
    -0.04037724245267914,
    0.02775294395460567,
    -0.05128180255398642,
    -0.07666720059033247,
    -0.05406143175976017,
    0.0016744745884800915,
    -0.05350490736346318,
    -0.07519405617722337,
    -0.04438489680664543,
    -0.019553727753817838,
    -0.0831348762770285,
    -0.007925577010577826,
    -0.0577798846043549,
    0.007934356874288293,
    -0.024445392475451033,
    -0.0333549337586047,
    -0.00024749033545073214,
    -0.031988641837597594,
    -0.044836230657137086,
    -0.04296966996750439,
    0.03405461384025286,
    0.008842335305579709,
    -0.07369374420104605,
    0.018589670452172535,
    0.0049084582492692815,
    -0.051478537843561274,
    0.04382798104530154,
    0.034710658145334354,
    -0.023215031110274092,
    0.03908592901088102,
    0.007937353702212043,
    0.0329314418392822,
    -0.07045985414905148,
    -0.04191138174962091,
    0.02129795605973817,
    0.02014576996097073,
    0.020728623996568607,
    0.04003157870941684,
    -0.027954368250569205,
    0.06104059423328888,
    0.030614270332531668,
    0.009694382805146978,
    -0.021058183866284556,
    -0.016640075542319614,
    -0.011262363550462855,
    -0.06470495265664633,
    -0.0181319518892939,
    0.011056733422291883,
    0.0364531429577164,
    -0.02649205889527669,
    -0.06499005155676554,
    0.04066089486893599,
    -0.015443892282962642,
    0.04281581232636285,
    -0.012403565723786002,
    0.03342080153259144,
    -0.043339170290874446,
    -0.017468169965543796,
    0.026013191769169542,
    0.032181127544584645,
    0.02150389995750586,
    0.00872688515574794,
    -0.059572256846686475,
    0.033538769938019734,
    0.028483125544665238,
    -0.09336268699931101,
    -0.08306154582204238,
    0.007207911389432128,
    -0.011020092443347595,
    0.014836586560317567,
    -0.09289642342883536,
    0.03836683414004341,
    -0.022287491147152234,
    0.030720616248846696,
    -0.03364732356142061,
    0.022385771126910328,
    0.05845920655971809,
    0.034163293705042605,
    -0.018929625751286667,
    -0.006794734465639197,
    -0.041506594425355134,
    0.02061540879386242,
    -0.03358232296925721,
    -0.03402236916957779,
    -0.04505086675654916,
    0.004842911617734995,
    -0.017769891259515277,
    0.03301134197585686,
    -0.0020943918440184503,
    0.036532236624513395,
    0.06394166043729549,
    -0.021901016129828994,
    -0.050835005066775345,
    0.005738687691319991,
    -0.03222764148079794,
    0.014974749620071379,
    0.03954506005765425,
    -0.018541829932133876,
    -0.03629231791507434,
    0.047718791781196285,
    0.0003787459880399155,
    -0.04715994391157506,
    0.00970849842680572,
    0.018817328956717994,
    0.029903128339449064,
    0.0006228473670690629,
    -0.0052860489579308195,
    0.009199517481474809,
    -0.049324094568815084,
    0.027217953127977167,
    -0.07777507177088515,
    0.038123990619279347,
    0.0064707789268845855,
    -0.04459853567917003,
    -0.02252424414526733,
    -0.009527336307073357,
    -0.058766995362972,
    0.012542169085504888,
    -0.04016565953970326,
    -0.0019827529959408658,
    0.015246264863244891,
    -0.0706997284906446,
    0.017817517628009736,
    -0.0166721747978327,
    -0.00001802018550098368,
    -0.06976222421679815,
    0.006723328264029259,
    0.0008818053341955751,
    -0.06453573095502071,
    -0.03943782006245456,
    0.024062550889272713,
    -0.01681969701463691,
    0.043702627145632,
    0.004189891368586224,
    0.02598396404268649,
    -0.035838732533262856,
    -0.022637885657845577,
    -0.03975768790501014,
    -0.0390065866794653,
    -0.059791380710886244,
    -0.06081013723893479,
    0.00013219845998694975,
    -0.004210130568750055,
    -0.06680313117962997,
    -0.05990955097321615,
    -0.014512381076275055,
    -0.038009040793658626,
    0.009735241072268622,
    -0.022638334450466483,
    0.0410002374398863,
    0.05447763714746559,
    -0.029315073072564042,
    -0.03682362342043775,
    -0.016593494551171498,
    -0.03708393275043289,
    -0.038725936839587194,
    -0.047469843151209744,
    -0.05574309352240577,
    0.022598991158066784,
    0.03129321299087404,
    -0.020142272239939668,
    -0.04890353011609304,
    -0.04589742399843139,
    0.03851944305833188,
    -0.04569941848750147,
    -0.046232117701045024,
    0.05235936394979706,
    -0.007779773841441821,
    -0.06917556575943534,
    0.017447125214773793,
    -0.06117727714056453,
    -0.04555570063648474,
    -0.05735203919861461,
    -0.012266985839499782,
    0.01537490380441394,
    -0.00044382449621469065,
    -0.028874106215812642,
    -0.023327156489775056,
    0.04237107842738225,
    -0.08132624362043916,
    0.05197666203693935,
    -0.044546255488548826,
    0.019855824198026683,
    0.064901626743898,
    -0.04078767934914304,
    0.04536853497565468,
    -0.018063331707581863,
    -0.041002848050201504,
    -0.05509353955188357,
    0.024471300246338177,
    -0.027323136678027223,
    -0.06527976158853223,
    -0.04956059058855652,
    -0.000377119232609057,
    -0.024237641696352688,
    0.002174194640851288,
    -0.003548268950516641,
    -0.014114770087761455,
    0.021856161836755143,
    -0.08567004808314327,
    -0.09327314165331586,
    -0.025763031140767466,
    0.028425676057257217,
    -0.062437920547135005,
    -0.02882285107695646,
    0.04884472019336372,
    -0.009889120041283414,
    0.009509865584473403,
    -0.0573289780301098,
    0.017238389940581588,
    -0.04911777179467697,
    -0.011131016422791028,
    0.02376972996019128,
    0.019285693458774254,
    -0.001873355640118102,
    -0.0200106080406315,
    0.014752962425590493,
    0.0023235948174423577,
    -0.016518074676462175,
    0.03752902382819206,
    0.019872461994067635,
    0.032516597347765776,
    0.0008954482147217182,
    -0.05292622826870155,
    -0.04048096663636291,
    0.020192784029828385,
    -0.07405430638695253,
    0.033407514832334666,
    -0.0518371261196664,
    -0.03552887944625441,
    -0.0689312568579564,
    0.022604810481745712,
    -0.044130829434489954,
    0.02158290395722224,
    0.0074652891968615765,
    -0.028719476286236462,
    -0.05632073786963194,
    0.0332882161130949,
    0.06244503629476669,
    0.045734616940623855,
    -0.023006367000249772,
    -0.041623669778008535,
    0.04980522361401019,
    0.05100172937239739,
    -0.016685269716129214,
    0.03295209094239909,
    -0.03143605231628658,
    0.04377644173771435,
    0.011840707778743884,
    0.03137834742434079,
    0.04367713819847431,
    0.02362148612048443,
    -0.003911609715605543,
    -0.06966329617939301,
    -0.00904585257770954,
    -0.011429616898458244,
    -0.004711539384506678,
    -0.02210542349383725,
    -0.01599218798574967,
    -0.07330723714492066,
    0.033107956692308545,
    0.009302064647334905,
    -0.01366559378788053,
    -0.008787398606534378,
    -0.0009283082538012823,
    -0.09335598241468276,
    -0.022207977595383992,
    0.006870392806169698,
    -0.07337663749068131,
    0.023141267659229883,
    -0.03677516003000766,
    0.024647198632319782,
    0.021547259867680905,
    -0.04994409609182617,
    0.03350134791473757,
    0.025847811862781293,
    -0.04736666524255944,
    -0.025463655496637868,
    0.024260616670193077,
    -0.05701111260460163,
    0.01873476608599288,
    0.020317598647264103,
    0.008676969141544068,
    -0.01926246721557591,
    -0.03294151906903901,
    -0.03031797129117058,
    -0.03065985323262373,
    0.026889415001283615,
    -0.010302136835101111,
    -0.06586908318727527,
    0.005115842836183505,
    0.042601416290985517,
    -0.07297947135102771,
    -0.06786364009092788,
    0.0016025645976307386,
    -0.057847775513318586,
    0.01455105530938572,
    -0.06878802410930059,
    0.01548825449874306,
    0.049800119167500066,
    0.012563895126888883,
    -0.00889481537342942,
    -0.02174900558636619,
    -0.043524938175500356,
    0.04870533978661031,
    -0.022794290195377164,
    -0.05049165081544045,
    -0.058704572490753185,
    -0.01608208112734073,
    0.04751656670736519,
    -0.044948122175977503,
    0.011271146755690731,
    0.018166495251318502,
    0.048707192674566815,
    0.04293130103318872,
    -0.04706518541687383,
    -0.060372343621757044,
    0.031459797084004475,
    0.05384282236996769,
    -0.04035153409293744,
    -0.06555312764240223,
    0.011923527555542842,
    -0.058162209306488244,
    0.009247966225377997,
    -0.02968536387810486,
    -0.031144192190809866,
    -0.067702844117494,
    -0.013620775201687495,
    -0.044302228134193364,
    -0.07154053416293961,
    -0.037896105886251044,
    -0.010126305306979713,
    -0.03900638224884008,
    -0.015230727357268317,
    0.0022498677391057614,
    -0.040735081409915636,
    -0.020981547598335672,
    -0.016066577456898087,
    -0.006402090041257559,
    -0.08030406186700431,
    0.024469925524518533,
    -0.022278517829297764,
    -0.014139288977174903,
    -0.030325302897607535,
    -0.05743115605260111,
    -0.021491764440241277,
    -0.002408629157277803,
    -0.01775473491107469,
    -0.006765273090195185,
    0.028982040355086267,
    -0.01736149706812546,
    0.001492775945584119,
    -0.08886667817227283,
    -0.0014959520347492135,
    0.020165523648384007,
    -0.048331485288352724,
    0.007573919500257107,
    -0.07909240997918858,
    -0.052438970544143135,
    0.05799633604081355,
    0.05256300975301281,
    -0.01280838796380337,
    -0.06726059162985615,
    0.0021569318286810257,
    -0.014161505838079163,
    -0.08213146615618214,
    0.023971820448796016,
    0.010495370902980283,
    -0.014603416011460044,
    0.002838078234877108,
    -0.04344934433690539,
    0.013329357213441409,
    0.05182869640421258,
    -0.06698396951844567,
    -0.07701509939562956,
    -0.07256234682199442,
    -0.07100517971590922,
    -0.026137054379330334,
    -0.09410150533472682,
    0.01631613610180944,
    -0.017858525617286992,
    -0.04234783519606474,
    -0.023373411775371354,
    0.019106556044744028,
    -0.1032057537606135,
    -0.005400331044870674,
    -0.0661943768761496,
    -0.018645101246645947,
    -0.03907038225476077,
    -0.011820706674230649,
    -0.05807255438758107,
    -0.08359931919319243,
    0.008132612110598967,
    0.034398534463579815,
    -0.02485500185660556,
    -0.05673343791096991,
    -0.09191324149548388,
    -0.02346946382122846,
    -0.0258941507996623,
    -0.08411969892422444,
    -0.04567415708652112,
    -0.09788797098554301,
    -0.07637028000033512,
    -0.08237313003289003,
    -0.00043587218152114937,
    -0.06593215794653111,
    -0.039006825494887806,
    0.012535024946157231,
    -0.02849446091975373,
    -0.042017226159128805,
    -0.1000156801385409,
    -0.07470214737066426,
    -0.0512996725856467,
    -0.05005013133494375,
    -0.004626524203668596,
    0.006146066193129812,
    -0.1087270541270985,
    0.0008613793456825435,
    -0.041415649063071026,
    -0.10964695145412166,
    -0.09362379098274358,
    -0.01924102484708588,
    -0.06587443912558165,
    -0.041367649769719274,
    -0.07525969563434018,
    -0.04604863577787707,
    -0.04765012207987022,
    0.01584999304016512,
    -0.05920773313355239,
    -0.03075520138458946,
    -0.006696101352175586,
    -0.08925695551083988,
    -0.07223330797794822,
    -0.0005372786788828526,
    0.030684468274544505,
    0.07529081922155166,
    -0.04591982457778161,
    0.011809380680741917,
    -0.016061341179062102,
    -0.02981640288160795,
    0.04719988638418102,
    0.002018024634648845,
    0.026713593456629513,
    0.020695259323020725,
    -0.014070297530367858,
    -0.01854641257963671,
    -0.035690872459712,
    -0.03430852480297807,
    0.019597566523269327,
    -0.050811351459663576,
    -0.0641208082652704,
    -0.0344732224036666,
    -0.06132722053735859,
    -0.007818612196884702,
    -0.07239502197236579,
    -0.004942359965440782,
    0.02097808504047539,
    -0.04349038147007975,
    -0.038679334123153435,
    -0.06679395825542392,
    -0.05344209384024295,
    -0.08632399582078397,
    -0.07740434469197675,
    -0.03948483288847355,
    -0.047547768782313676,
    -0.0849136200894918,
    0.030903085808952492,
    -0.08729750887689182,
    -0.023003495360765125,
    -0.03307064231191825,
    -0.0037865154166412,
    -0.026459411917101598,
    0.01873809401535124,
    -0.056938253751171564,
    -0.03327697217015583,
    -0.006568843923222797,
    -0.04113051633967081,
    -0.044841764502374135,
    0.0372636091861452,
    0.02569808695359398,
    -0.042428195742694824,
    -0.017391616511864178,
    -0.028411459717726417,
    -0.07032355432110796,
    0.016740012709775813,
    0.023810436616503793,
    -0.04748425796104571,
    0.05076502038669223,
    -0.02622847073766969,
    -0.053283964564104315,
    -0.09491458208982043,
    0.010003591777523909,
    -0.044063166914019035,
    -0.06448907384869039,
    -0.018437219848789457,
    -0.0667640413020507,
    -0.03946865839920872,
    -0.06433442323356849,
    -0.07177014963430829,
    -0.0817789986254084,
    -0.03398145372526762
  ],
  [
    0.0014199935347459416,
    -0.012952814577556515,
    -0.03960154565601557,
    0.041994238261027224,
    0.051384441198438865,
    0.05960471793684072,
    0.00383997034199331,
    -0.022062870913328137,
    0.058862730541724834,
    -0.04474850613081724,
    0.06831429346274798,
    -0.008124317291321839,
    0.08299820354586604,
    -0.027859706760902034,
    -0.05323355417007621,
    0.023449172881899256,
    0.002228120163659484,
    -0.015943205651442877,
    -0.03975693949271063,
    0.016470367710263865,
    0.08736865401215921,
    -0.025178002313305543,
    0.06490671387413276,
    0.08687831177808526,
    0.0361091351939087,
    -0.03628545069226369,
    -0.018591484850756516,
    -0.04905937475107255,
    0.03405248803201606,
    0.01654639544647705,
    0.0008571845817931458,
    0.031031392249224878,
    0.016946932839734898,
    -0.029051232019353043,
    0.010728610320012169,
    -0.04564987167467254,
    0.04424590236223199,
    -0.029295068081327563,
    0.036139705829767686,
    -0.004124537322837602,
    -0.07249572927734493,
    -0.018479142230324826,
    -0.03909480420501698,
    -0.05304003094671261,
    -0.01609134038761285,
    0.019577800921814485,
    -0.06382135581575961,
    0.013585336171807716,
    -0.035582837410785315,
    -0.03203773623894353,
    0.01910706772145612,
    0.057352255479025574,
    -0.008613423499995209,
    0.05755016495663358,
    0.02989327818417156,
    0.055668658184554104,
    0.0789538129479347,
    0.04950130088081413,
    0.05749758552985137,
    -0.029928236216143416,
    -0.014615764885260304,
    -0.022438239303910486,
    0.09566737422838067,
    -0.01923151805890016,
    0.10998102703419568,
    0.07918386898710032,
    0.07160459147424558,
    0.030840208824627766,
    0.019165014206421273,
    0.09360132093775965,
    0.019319048153694222,
    0.11833389424561289,
    0.10630015628121081,
    0.001159750313968254,
    0.10448365386377817,
    -0.012394352487605183,
    0.02920995276825481,
    -0.04057385383406636,
    -0.05424764685506264,
    -0.03472004254100975,
    -0.010207386702462946,
    0.02809536676948913,
    -0.029670022953008066,
    0.014182366938000344,
    0.02802692774272719,
    0.02847039710810496,
    -0.00008575830531196438,
    -0.029137524248690906,
    -0.04105242077900228,
    -0.02967812802908235,
    0.04541772239227215,
    0.010642092264367709,
    0.03210648783034777,
    -0.045508238441414564,
    -0.027281176298627197,
    -0.03125511604606453,
    0.05587775268095959,
    -0.02127357440150809,
    0.02608484409078817,
    -0.008016685615889809,
    -0.03595281548069365,
    -0.05918864911152674,
    -0.08112843139244304,
    0.01933247526993263,
    0.01074676565723412,
    0.04316087490224037,
    0.02608999803221785,
    0.008460786736433249,
    -0.05446711580873652,
    0.029942353698583758,
    -0.08650689378352493,
    -0.01977967401506652,
    -0.09733298408341062,
    -0.0776358581767137,
    0.020606007544528685,
    -0.05657361438177401,
    -0.10051938498347278,
    -0.09799074404368906,
    -0.08098416455493532,
    -0.03252647636695138,
    -0.0442238089435056,
    -0.10061605986116055,
    -0.09932022973451596,
    -0.0071344019186006654,
    -0.060502599731753745,
    -0.037226259170052414,
    -0.0496416308073643,
    -0.0413735263028509,
    0.05256769107948521,
    -0.06003799761471677,
    -0.03129955403225379,
    -0.030641019009291257,
    0.06408999050110906,
    0.05310358613254055,
    -0.022853780310763783,
    -0.07672700914938843,
    0.0007562792624281006,
    0.02729163743408879,
    -0.014814005322336045,
    -0.002621921205020438,
    -0.06343166057058858,
    -0.04702623113482063,
    0.029774532161266378,
    -0.05349964494638821,
    0.027815267407425324,
    0.03609276784270217,
    0.027504657088179403,
    -0.06788707161749863,
    -0.06856664279524965,
    -0.02229872672400604,
    -0.05491023434105221,
    0.005303314785119004,
    -0.08198634630748698,
    -0.011868585379000946,
    -0.06322491454319783,
    -0.00749149835992671,
    0.004534661905265523,
    0.029569762906213205,
    0.04450982911175129,
    -0.0348376898512134,
    0.03031022298484543,
    -0.006280131408361359,
    -0.02195089238996428,
    0.027398217239352086,
    -0.028181744903024022,
    0.049302830228200784,
    0.024232242864378205,
    0.020796182519034402,
    -0.03981788234354977,
    0.008021400263820058,
    -0.046189623435063054,
    -0.019563967448660853,
    -0.0137561729527121,
    0.04348072574763021,
    -0.006473648090366272,
    0.04326656923782879,
    0.0781023132889058,
    0.010424954954997852,
    0.0710244146100735,
    0.07244446116416525,
    0.019494262220330835,
    0.009168481370628371,
    0.08375250751320744,
    0.03264843286835589,
    -0.004081429289828848,
    0.02266019857357446,
    0.1079244195665321,
    0.010519140113661882,
    0.02730271870241609,
    0.04245369330460449,
    -0.003921410671926047,
    0.07199148597277759,
    0.023355232934301945,
    0.02485492187098241,
    0.03514161244481461,
    0.004412452772364317,
    -0.027181424649228857,
    0.0004994491843812669,
    0.050687032568639594,
    0.012792389870891922,
    0.06892229755508925,
    0.1040051359179775,
    0.051478951570497915,
    0.03341939204935842,
    0.044253310103352435,
    0.07515826157853389,
    -0.011826604201004235,
    0.08645714416034535,
    0.028309342398855804,
    0.0039326279807640405,
    -0.021323934097513014,
    0.04972695506963337,
    0.018987160656331627,
    0.05025122763835699,
    -0.012335692320995963,
    -0.030880141416388868,
    0.030954852794643856,
    0.03042108332172004,
    0.07271075136383379,
    0.04136670510936595,
    -0.016331173904787617,
    0.02985599688439558,
    -0.02189719182561017,
    0.07762538151950996,
    0.06841494670689753,
    -0.03471542719807985,
    -0.0031730921720267906,
    -0.02497322605937412,
    0.02606653727643436,
    -0.008509617099627291,
    -0.020560186825562043,
    -0.013017546466488835,
    -0.0022337682049766586,
    0.06957506006638774,
    0.023858172691264976,
    0.03923101517675326,
    -0.0035548633180284787,
    0.012573639278612669,
    0.019682940400776647,
    0.04879845228763459,
    0.07394400170460676,
    0.07189560071837461,
    -0.015271284903109318,
    -0.005709134933751118,
    0.057330150903238855,
    0.028356957956700773,
    0.05701961459389817,
    0.031981240732561936,
    0.010088976231400528,
    -0.002027921832030696,
    -0.04424134819803694,
    -0.006446373097780248,
    -0.012382323864670588,
    -0.043514401151644365,
    -0.02217546627578255,
    0.004511185654098435,
    0.08244286283668266,
    0.07380619322422625,
    -0.02567975775580999,
    -0.05676238307326265,
    0.07320608672833503,
    0.04786741602606978,
    -0.0014768554965318898,
    -0.02646174566230302,
    0.06987653777227348,
    -0.026992311098255332,
    0.05460519229657105,
    -0.015154355534869612,
    0.05321705819598104,
    0.01932398460482037,
    0.07130001496007454,
    0.01565368502695321,
    0.04551228214755828,
    0.04533115973409647,
    0.03611457525134919,
    0.027835467301313806,
    -0.009293876102476333,
    0.04711890652388796,
    -0.0719256137573224,
    0.02670368531911089,
    0.012289078514970088,
    0.018979338140874016,
    0.049273785669162865,
    -0.06294636917504928,
    0.05821268292799116,
    0.008925139866990492,
    0.01646972642985831,
    -0.050902478058334276,
    -0.06964961736918258,
    0.04366199339292606,
    -0.022163234980160283,
    0.001690627579983147,
    0.041187293192802565,
    0.02292797823288275,
    -0.01808769792679866,
    0.03499802268122979,
    0.03140084698377981,
    4.4657429549046566e-7,
    0.002279330930759137,
    0.021823260703578,
    0.09760272742291744,
    0.07216410920713252,
    0.03189140453071966,
    0.06471109979033682,
    0.05430709353628373,
    0.0665746326775177,
    -0.014616173507162697,
    0.061549209814564784,
    -0.018209749992253218,
    0.08605548264347669,
    0.003708103480358191,
    0.06221833975758016,
    -0.020872731637279072,
    -0.01553769372467259,
    0.04622366688826154,
    -0.01102723648194211,
    0.04963118921609688,
    -0.019480497930598584,
    0.05119169923992469,
    -0.020968356790042064,
    -0.07186204928392513,
    0.005624680713933569,
    0.056347452487488264,
    0.044598016563700604,
    0.09616102040360837,
    -0.0767248147779705,
    -0.002656789418679978,
    0.05638880337456044,
    0.0476750223752628,
    -0.04850628807773976,
    -0.017068739692776645,
    0.044032132796900166,
    0.05233166663610476,
    0.023114940976306304,
    -0.05527932192665967,
    -0.01883629451485978,
    -0.04231467320674423,
    0.009523104502444086,
    -0.03982267985540465,
    -0.05180197470852292,
    0.042428421941306846,
    0.021553767031819906,
    -0.031067030929161292,
    0.0702038178236177,
    -0.04840527609595731,
    0.04762986125900836,
    0.0032676280216511473,
    0.0600361997770161,
    0.0030627290826778755,
    -0.04999447520204227,
    0.04221864482903949,
    0.014128302473057863,
    0.046196714779804415,
    0.010920529453547507,
    0.04984557584446918,
    -0.008351931880906032,
    -0.004063334035160623,
    0.07973722652437751,
    -0.005012953090520224,
    0.04614993691897367,
    -0.0014109197656801131,
    0.05723722477036837,
    0.011350648724078623,
    -0.024829182140503215,
    0.0709777358601632,
    -0.015036858601276069,
    -0.004934508052574177,
    0.000921829935678238,
    0.025929446261639847,
    0.030252882242576024,
    -0.01841806402608198,
    -0.01045182419571065,
    -0.03340983315865825,
    -0.05043270552432171,
    0.027992314060079064,
    0.04076545946839881,
    0.026983223138606877,
    0.04046569761064887,
    -0.07224760439270987,
    -0.0028026731948165686,
    -0.059485967456809535,
    0.0633960381359058,
    0.014190912809240045,
    0.03397925914501735,
    -0.028907815062340667,
    -0.004480965196330527,
    -0.03470416209837781,
    0.007020692346427324,
    -0.020716369783830717,
    -0.04719079808937866,
    -0.05668885441090109,
    -0.0005329264813879365,
    -0.02829380150218443,
    0.024760335009353072,
    -0.03473539974185964,
    -0.038754195619466775,
    -0.04535447729373775,
    -0.03670811401339584,
    -0.027054959446758217,
    -0.02150446872420445,
    -0.019674442922135472,
    0.08725655127090776,
    0.07397164869242602,
    -0.007739148744705646,
    0.061354054988229254,
    0.019171996537756256,
    0.09714497671539986,
    0.0685710403936742,
    0.03488930817706256,
    0.018367196346984412,
    0.07362032739433519,
    0.025750296654709553,
    0.08503832241617364,
    -0.0020814450667382663,
    0.015838520738630027,
    0.027936989266415427,
    0.0634765701283144,
    0.08355893804317165,
    0.08368064032205767,
    -0.014140757665607233,
    0.09193616310448094,
    0.04855473035365628,
    0.08875449695333251,
    0.057055809612514635,
    0.08809637267764697,
    0.0019484063493955624,
    -0.0005135183958519887,
    0.03964940669101612,
    -0.029395421629898374,
    -0.0213708991383642,
    0.00642781229021652,
    0.056586033240996154,
    0.027377750050855063,
    0.058509046700734244,
    -0.01147808015707476,
    0.0739290671387803,
    0.04801213837486045,
    0.019854159945591244,
    -0.02187170093114213,
    0.07000098792584512,
    -0.011837999199037852,
    0.043826999462105914,
    0.041556252397313594,
    0.056625523507001715,
    0.06881305869091517,
    0.03671326927869049,
    -0.03348917424561756,
    -0.015064375019943317,
    0.014323146288972457,
    -0.060540335004815635,
    -0.03155843522190411,
    -0.017439403954422873,
    0.03496398067659534,
    -0.01785481372864902,
    -0.041515338585781575,
    0.02049617936184085,
    0.0364196318294475,
    0.0039054362094698473,
    -0.042839733973818454,
    -0.06355817050839367,
    -0.02378797703700514,
    0.03719263114383568,
    0.0157150866296404,
    0.05036770651502543,
    -0.007608157320243294,
    0.057394314424764184,
    0.024122395104492825,
    0.00027580504644752124,
    -0.013450386706236018,
    0.06485897314638193,
    0.05499718572085036,
    0.040578507931945326,
    -0.02459925510171062,
    -0.028295681427439618,
    -0.058535602907425544,
    -0.009984415903127805,
    0.033799858211363255,
    0.08950294806609882,
    0.0866148793688087,
    -0.007445184689029546,
    0.004559442333569552,
    0.03397557677541846,
    0.0679260611945833,
    0.04798352370424546,
    0.09895989848392599,
    0.04452248198514001,
    -0.008777352727866975,
    0.05455378459152334,
    0.01398113508193015,
    0.10512477660593433,
    0.049937293028671316,
    0.0446431834633019,
    0.07303708447058042,
    -0.03546209958692268,
    0.1073167569553241,
    0.08032792082538238,
    0.01636451964699056,
    0.04486430988958367,
    0.033474224175444225,
    0.0867020742027696,
    -0.0782981909121503,
    0.018341903806946943,
    -0.06921090153796863,
    -0.07675610397788121,
    -0.031248918252928786,
    -0.002013865373092736,
    -0.07119918445347734,
    0.027990580866712807,
    -0.06649899270164816,
    -0.04934381878640626,
    0.016755618749101045,
    -0.026306723659704326,
    -0.05441777729258243,
    -0.04459230063414457,
    -0.010572472578443983,
    -0.06035678586469083,
    0.009864316554814801,
    -0.02168499458661043,
    -0.10717602806010365,
    0.03520332981394371,
    -0.028681574592426526,
    -0.07245526308455061,
    -0.011581433369702805,
    -0.07249896344794259,
    0.0040342102534869145,
    0.06732947903919774,
    0.029139977126924066,
    -0.05639238274923087,
    0.004772849846099854,
    0.00037236443359983066,
    -0.059142349211863926,
    -0.022780803144268537,
    -0.06340467489213897,
    0.057332095879324495,
    -0.030790274483151258,
    -0.037393547433833225,
    0.002132669462266014,
    0.021094713153329944,
    -0.0224896328308786,
    0.02661986189721475,
    -0.016405650652225018,
    -0.05405989853069213,
    0.02702568996030983,
    0.026726886385451898,
    0.0013243014655870905,
    0.04397521378530715,
    0.019732767933683767,
    -0.03148983716833129,
    -0.01092424980144294,
    0.05477607907171609,
    0.0401770845449936,
    0.06522839303505205,
    0.08640643228602567,
    -0.03912513649145864,
    -0.011372064132656208,
    -0.026493372811671734,
    0.0016789703023319955,
    -0.04069760475645334,
    0.0006088307056891164,
    -0.026335619258742376,
    0.06102164040078379,
    -0.0006106631236836029,
    -0.010808199011353105,
    -0.028969653566564058,
    0.08358366917504606,
    0.047432134769330725,
    0.06034934346462721,
    0.051994275646120476,
    0.0009363930484882086,
    -0.004144198442012246,
    0.004629426513422024,
    -0.005090342962865143,
    -0.061600233182219834,
    -0.023790521467704547,
    0.04521837918512681,
    -0.08419242657297653,
    0.060891622550929926,
    -0.01448019154313881,
    -0.010895763876496278,
    -0.026156308613422295,
    -0.005490190504196544,
    -0.00019129810148641873,
    0.06551205606137854,
    -0.00905056438424769,
    -0.03491341829124687,
    0.07034301970003887,
    -0.03254941780989784,
    0.07640111550042329,
    0.02399940832790597,
    -0.024097907179479246,
    -0.03851815906030938,
    0.030530904915233033,
    0.0059889816392317205,
    -0.013442128381289057,
    0.02961058744972165,
    -0.04401469121173891,
    -0.02401028518466885,
    0.014935467962250341,
    -0.007204831744439411,
    0.0210906896910036,
    -0.004840763598281533,
    0.0013132020760031787,
    0.07560257444142031,
    -0.04042679031897842,
    -0.03166926334538749,
    -0.0037292074140475337,
    0.03529346023060807,
    -0.048815922982819275,
    -0.021787039779848416,
    -0.0340102991680014,
    0.016129094710978942,
    0.05621449588934432,
    -0.05495502262930655,
    -0.041300114852093714,
    0.01982541942149902,
    0.08166900226266077,
    0.013756233281453364,
    0.027650002896694968,
    0.06344574130030375,
    -0.046301065815945085,
    -0.0021196034482221593,
    -0.029725959710048825,
    -0.02134868831528932,
    0.03289326609785932,
    -0.0450181835532366,
    0.0005691460172280954,
    -0.05304091149067774,
    -0.006459728463963181,
    0.07775287698747482,
    -0.008786181872891864,
    0.06015907637070808,
    0.04988583180587347,
    -0.04345699840076595,
    0.0522020349169202,
    0.016837469494585776,
    0.0028925341248391503,
    0.0410207027592879,
    -0.05016805064734125,
    -0.020259647934893692,
    0.0645290902354343,
    0.009164194326038492,
    0.050418288693069156,
    -0.014301487800174564,
    0.0667389112569831,
    0.047597932404498985,
    0.05588144854540776,
    0.011594175638275438,
    0.06141575409802352,
    0.03253534554701981,
    0.019540023068894696,
    -0.014063133255308448,
    0.0004898426076244385,
    -0.036165898786893,
    0.05911466114286007,
    0.08555974416413174,
    -0.038915882920070206,
    -0.005743048765773885,
    0.06576503506768577,
    -0.017106096083753197,
    0.016443851635192377,
    -0.016265944638265136,
    -0.019831243328218697,
    -0.04049432534562285,
    0.00046798075238048116,
    0.008102850707492799,
    0.02583408502865008,
    -0.03420495934304649,
    0.060762079000666235,
    0.009910767842158764,
    0.05850247325413668,
    -0.009963922849431843,
    0.0218004647845617,
    -0.027170796594388733,
    0.01823337993499634,
    0.07877682754591182,
    -0.02541187098099009,
    0.03021552922213961,
    0.08373437237302302,
    0.01982632655510464,
    -0.023151807623169558,
    0.043320295646493374,
    0.06238989770617105,
    0.03270343464733545,
    0.02162384058980095,
    0.08992871207310217,
    0.013118157570874797,
    -0.04867002233848607,
    0.08997993931496417,
    0.01638026219794919,
    0.036016657204177335,
    -0.022984916490139357,
    -0.0021625625393604324,
    -0.013576357717568347,
    0.024880286715523746,
    -0.0504332837684352,
    -0.008794125219453079,
    0.017231043829576766,
    -0.006619454068948073,
    0.027521325241087306,
    0.02914804207147811,
    0.0721731890910004,
    -0.055611918286164255,
    0.04745532635582125,
    0.0016741263548599417,
    0.06468921564779785,
    0.062303907682633185,
    -0.01985319983683279,
    0.02154362062667899,
    -0.02173975154487519,
    0.0034888542811093207,
    -0.004235341978963456,
    0.01348545909807026,
    0.02630747868271051,
    -0.04622541715428297,
    0.022584782864318864,
    0.07661795687008356,
    -0.005830776776267537,
    -0.02369578551819308,
    0.047564530267011004,
    0.07827441892470927,
    0.10049544482583006,
    0.001401382657190102,
    0.09224413321812965,
    0.032453618751341576,
    0.07172218916114657,
    0.006457096488997599,
    -0.04798882579170635,
    -0.06766610434635074,
    -0.05538921385165253,
    -0.059719849283667394,
    -0.08592996799743019,
    -0.08014463057361154,
    -0.06900114256666894,
    0.002501330901035813,
    -0.02876796065606861,
    0.0015891772885256558,
    -0.00986778115048311,
    0.06117113340993753,
    -0.05815718405541732,
    -0.04501526507572429,
    0.007009295266639784,
    0.01613379116849701,
    0.02195627899930075,
    0.005212516942510037,
    -0.10327104470737927,
    -0.017679276437516423,
    -0.06888035665765765,
    -0.03226253356970922,
    -0.04088472795839705,
    -0.11874480735844971,
    0.05142382764361005,
    -0.0076943193594734335,
    -0.0199138828831638,
    0.06329253125314732,
    0.0625042483333345,
    0.01554867504287139,
    0.03697101593477472,
    0.031576132972021616,
    -0.01380075672941197,
    0.09332094512465355,
    -0.006049053354326524,
    0.01532270435545598,
    -0.00562358662512536,
    0.018772537708503078,
    0.04597353459050584,
    0.029992491038323688,
    -0.02234005949590887,
    0.05036621249334571,
    -0.0040714543491133974,
    0.07054711033641017,
    -0.017509523236616545,
    -0.008771387934816013,
    -0.07113223372718185,
    -0.025924019696950896,
    0.028809825261076758,
    -0.016957214939761475,
    -0.006215885980957504,
    0.06902432723908683,
    0.06720790828652863,
    -0.012113493124436357,
    0.011947735419752411,
    -0.04206559772149374,
    -0.009012529596132204,
    0.053437279002380385,
    -0.036279388674934014,
    -0.050191627458787344,
    -0.037265354913122876,
    0.04216101612684184,
    -0.012228671173922847,
    -0.05114521805820746,
    -0.019510413986882764,
    -0.01557081363287144,
    -0.034818552177256094,
    -0.02546581893040022,
    -0.062048659062812664,
    0.013049113343674503,
    -0.05261516423886181,
    -0.007944980933774144,
    -0.03685706557860867,
    0.02425324077753189
  ],
  [
    -0.05770264873547516,
    -0.06882750547638407,
    0.048748415540700585,
    0.016742364416711644,
    0.03290947543556232,
    -0.030994383297023698,
    -0.05230528525767474,
    0.0026511526183928876,
    -0.07246043847055533,
    -0.02844722253524824,
    -0.05033326047610927,
    -0.03655614941075867,
    -0.04959666130596866,
    0.016707830566215838,
    -0.02792461809949104,
    -0.016876526690061757,
    -0.07227569177293301,
    -0.07374796712863037,
    0.030599224998780546,
    0.04150172865424686,
    -0.01470529946356109,
    -0.01899017805047258,
    0.005489422347528799,
    0.006146345625190629,
    -0.012593119252944561,
    0.046918459377997386,
    0.012950970080653648,
    -0.07069593522964306,
    -0.058908718296336524,
    -0.02835856173370927,
    -0.043403032007889066,
    0.03406867197900638,
    0.021702282284487135,
    -0.006152390525184055,
    0.051222092199631086,
    -0.04411753923674047,
    -0.000035631525021990406,
    0.042477623050671626,
    0.024055664402533844,
    -0.06506802290200678,
    -0.02483297722838717,
    -0.028962755315397586,
    -0.06773502650554518,
    0.031244646091488217,
    0.009057457330853159,
    0.01465544305435342,
    0.005268491501639799,
    -0.059210613682025466,
    0.013689554442916366,
    -0.0656627995916869,
    -0.09413671550948358,
    -0.0073754016859995915,
    -0.0055922278276795715,
    0.0493763653852208,
    -0.05971044999344687,
    -0.03164816548232412,
    0.019836773130614306,
    -0.08674807910384523,
    -0.07252123046542316,
    0.0021455136307665886,
    -0.04036616429753204,
    -0.02259145298352238,
    -0.03778516114045807,
    -0.0248607505753105,
    0.02493552905696403,
    0.014667117332376977,
    0.024010073117831526,
    -0.03662022279738015,
    -0.07560876070150682,
    0.01824807292002711,
    -0.06996502053674393,
    0.034480378648041966,
    0.008582792769793937,
    0.019247005205121934,
    -0.008150814352405061,
    -0.06410674997459449,
    0.02536643426248461,
    -0.0030903942824611168,
    0.019804904239647907,
    -0.004803942810050278,
    -0.04001650155781373,
    0.056178843510368004,
    -0.06356236490713947,
    -0.008977856847909249,
    0.029655315167276073,
    -0.002877914830814658,
    -0.02882279377187845,
    -0.024668957603881828,
    -0.019503057919649625,
    -0.011982103719383155,
    0.04486326697029133,
    0.0004493388762812314,
    -0.029137013576640048,
    0.04078442582894634,
    0.05011339506822017,
    -0.004021408415979231,
    0.0022080971985559052,
    -0.027659112998237687,
    -0.00041815676115922266,
    0.06071153084039961,
    0.01104603619524363,
    -0.044444212129131,
    0.028619928383489306,
    -0.0035293158330071094,
    -0.009424563787748981,
    -0.1027842013901313,
    -0.08660465710111968,
    -0.049305112133671815,
    -0.03290309892728694,
    -0.023614215120879432,
    -0.0639169497069858,
    -0.10548819926858878,
    -0.016542799048992193,
    0.04400238688309099,
    -0.052295823068524906,
    0.0037010971629609936,
    0.024606821107920566,
    0.013432399161596699,
    0.03145253930518445,
    -0.08637444419575924,
    -0.046768083103894,
    0.02533837260578188,
    -0.02560430518779622,
    -0.04630088266702051,
    -0.05781033147596622,
    -0.08312325259025875,
    0.0046245168894069,
    -0.09643063472184636,
    -0.030896929991903518,
    -0.010946079882006687,
    -0.008395244079540875,
    -0.07748144361850291,
    0.00755435083043724,
    -0.05370166850051484,
    -0.05438799386341451,
    -0.03103304795178644,
    0.014329676292255957,
    -0.07592494969690039,
    0.01440539515996758,
    -0.07846106516450195,
    -0.03143542141388878,
    0.0324946418889219,
    -0.06455268101423203,
    -0.025234737195854385,
    -0.050120497046451905,
    0.02539955986750691,
    -0.06123870737954291,
    0.02111756243481457,
    -0.0019265071650787738,
    -0.050588227382782854,
    0.028391091573901774,
    0.02865564475826476,
    -0.002534689675044634,
    0.03971858074879375,
    0.011223672216470396,
    0.0006976885526522978,
    -0.0029341802544811226,
    0.02513130015402131,
    -0.04303847037141502,
    0.024654864184794723,
    0.03385656976721883,
    0.01551924704102242,
    -0.018014876828730497,
    0.014255677408335204,
    0.0630323053313145,
    -0.008442240558996358,
    0.05857893126381934,
    -0.03517707092590029,
    -0.028936425101358368,
    -0.047161865397887914,
    -0.033186484611416864,
    -0.057975749450335366,
    0.021315813916617365,
    0.03639654053493698,
    -0.0678117708466373,
    -0.029769564597602303,
    -0.02926620043333501,
    0.03315285049625533,
    -0.05678985681106213,
    0.04924844689210822,
    -0.04482385819102187,
    -0.02514484841771856,
    -0.05670311106767051,
    -0.059114930152904276,
    -0.014208532762348484,
    -0.05270595104113614,
    -0.003969347396322898,
    -0.0003507048519570312,
    0.035355563097062705,
    -0.05660715918786378,
    -0.025260919257665417,
    0.010874988938250592,
    0.023838905919816505,
    0.007884726500235488,
    -0.04368563567957274,
    -0.0281983724422727,
    -0.033168358558879084,
    0.02546042060397985,
    -0.057117847638831286,
    -0.017897401503260087,
    0.05794196963068561,
    -0.0668054173614084,
    -0.023632681752658036,
    -0.04904593155606426,
    -0.036369116207311036,
    0.05467916764407413,
    -0.044926536549509385,
    0.022741997163081857,
    -0.048993988517773764,
    -0.008807762560582902,
    0.034249611066578055,
    -0.006658582605967672,
    -0.06697949570794974,
    0.013608237889048101,
    0.007691698030044226,
    -0.049109899249673954,
    -0.06384748700545878,
    -0.028033103762740343,
    -0.03943714661364331,
    -0.0376748464333419,
    -0.01402178577861972,
    0.024861263843881026,
    -0.014871968198971873,
    -0.011879076312470238,
    -0.04203380271544022,
    0.01839101684401225,
    0.012172191040102224,
    -0.010899018847794381,
    -0.04948163047872992,
    -0.032729212044120284,
    0.045654201179274274,
    -0.020918576802717453,
    -0.03159801656967337,
    -0.06101572987788056,
    0.010068552360850835,
    -0.05423988122847026,
    -0.011607899345126602,
    -0.0189405534674466,
    0.04995899424340754,
    0.02281951419549713,
    0.025993594488651555,
    -0.01794537012976584,
    -0.04892865691372105,
    0.04215647250790175,
    0.034995121263807986,
    -0.018911167777018227,
    -0.06318541664039917,
    0.04279393361239837,
    -0.024236990262288028,
    -0.05474577944673408,
    -0.04304113644246435,
    -0.0883781201194567,
    -0.0505286098528836,
    -0.07428984934385956,
    0.011682471634546112,
    -0.07493134065020063,
    0.0009203392132225892,
    0.007690351651611312,
    -0.06177175462288591,
    0.014694295050212006,
    0.008894851067902122,
    -0.0030099926617005997,
    0.023793427191865706,
    -0.023131267881309606,
    0.01532895442564633,
    -0.034084605521147976,
    -0.02877390549675672,
    -0.019419881590555986,
    -0.040488865411928754,
    -0.008589961833169785,
    -0.05520821667709864,
    -0.08465410826450306,
    0.03783357491550573,
    -0.0813640674923016,
    -0.045880728749790406,
    -0.06328443338123976,
    -0.042846115747260445,
    -0.07292443575531546,
    -0.04525801340286186,
    -0.005761791907793717,
    0.013274426160722724,
    -0.06591404385861395,
    -0.03636967801260297,
    -0.02947864255458035,
    -0.0773818747301946,
    -0.002856457604932125,
    -0.026863079985623935,
    0.028176170953859898,
    -0.007584669939168418,
    -0.03533171610649966,
    -0.0014434931652362343,
    0.007029505662273621,
    0.0361241366409506,
    0.026777420105541072,
    -0.004972988571697982,
    0.016111640071847073,
    -0.06539519938393738,
    0.0029209594663314156,
    0.02281963199953495,
    0.039954912243844884,
    -0.040304216935723454,
    0.03138456881067271,
    -0.004997313069414074,
    0.00013706677253294718,
    0.007044845354754486,
    -0.017219969892801085,
    -0.056932227320799285,
    -0.029311000764113537,
    -0.027812962563904784,
    -0.06326951690344366,
    -0.019403881089025223,
    0.02405774550186476,
    -0.020428558457688303,
    0.049593994815600353,
    -0.00872606369174107,
    -0.01828535654590665,
    0.008476540619489516,
    -0.04209481464363727,
    0.03338018189665355,
    -0.025708430003689157,
    -0.014357237270065347,
    -0.05497930981609693,
    -0.004041180271881732,
    -0.0523132198204709,
    0.03256736467125347,
    0.007449195130057784,
    -0.03632613633963219,
    -0.019798857310791812,
    0.029321289410645754,
    -0.06255698138428138,
    -0.0450818100793237,
    -0.048788204082630446,
    0.041244108107818186,
    0.03514442341671675,
    0.011088547592002375,
    -0.02882600198696132,
    0.03114000921112029,
    0.044927250047063695,
    0.018532020059401626,
    -0.029115210919313367,
    0.05321603780833614,
    0.015446802290933976,
    -0.044864191912467676,
    0.05811011736186621,
    -0.06082811968163683,
    0.0395195279456637,
    0.03393989487651719,
    0.019454877155948992,
    0.0057015191246345825,
    -0.010239098189530033,
    -0.053835278620221735,
    -0.015973835701626436,
    0.04390531238411709,
    -0.04264299155020607,
    -0.03857006100139984,
    0.01804349269252685,
    -0.009196571294755065,
    0.007735091573063571,
    -0.06829363607591567,
    -0.02095546824618872,
    -0.08146797554728569,
    0.010381663478358422,
    -0.06289442540291984,
    -0.07120883487740362,
    0.002295376299977875,
    -0.075601349937372,
    0.00942687165775277,
    0.03904514687045511,
    -0.06988969251499426,
    0.024226099248726707,
    -0.012493300240131252,
    -0.022213872803426085,
    -0.021900475087507903,
    0.005992370031196521,
    -0.04421777712808423,
    -0.028972673303061462,
    -0.01272100739036923,
    -0.03278598436374779,
    -0.0343297615507793,
    0.022815669733755796,
    0.04795492363675323,
    0.05099347363962986,
    -0.020699341112718806,
    0.04155029001947615,
    -0.007874765914005514,
    0.044308443731644775,
    -0.0410632821102263,
    0.015878092615077874,
    -0.018818081887588847,
    0.032521767514741534,
    0.04582415014592809,
    -0.009467616082632335,
    -0.006756549730949934,
    0.04070920788490475,
    0.04210519433638624,
    -0.051286438751307006,
    -0.04396892870400772,
    0.02205813244127357,
    -0.040148546067234996,
    -0.03863895602857251,
    0.0009412749475135704,
    -0.055854057653659306,
    0.02993913712934655,
    -0.059396082043952074,
    -0.031197615970884166,
    0.04748626997659541,
    -0.037987838062030314,
    -0.051456182094173825,
    -0.00968109508930587,
    -0.026304151189933997,
    0.05716045373513397,
    0.009226832132970498,
    -0.028713095117308376,
    -0.05013078731441035,
    -0.020057740877936832,
    0.04925332506758084,
    0.0324801746787398,
    -0.01030160693606479,
    0.03560443384288672,
    -0.06004667037357088,
    0.015257122398235371,
    -0.03946233953535808,
    0.042164738698977584,
    -0.030905440184677876,
    -0.04931733036631471,
    -0.005118288294330798,
    -0.03280552932604442,
    0.001070299973409817,
    0.05146271689137129,
    -0.04103626253278109,
    0.019427835197962914,
    -0.00036173219080263934,
    0.001385920716522057,
    0.04984763398500562,
    -0.018010836219981476,
    -0.0011410034296495159,
    -0.06693033918933118,
    -0.06961926109540431,
    0.008943600921519098,
    0.05807287920499613,
    0.02860085585792665,
    0.025689510400921798,
    -0.018931139574266093,
    -0.06067038721282835,
    -0.042979156145566244,
    0.009135983276754018,
    -0.06265882925115905,
    -0.018357888330587702,
    0.010875548241949222,
    -0.02344394649172914,
    0.04068734682099041,
    0.020849165042478437,
    0.0592196747630846,
    0.030403726379783835,
    0.031133936224782614,
    -0.03362008318047604,
    -0.044896674643320145,
    0.051819527374488215,
    0.019538756381531158,
    -0.019893174710789538,
    -0.02219926123714992,
    -0.0013882623935566202,
    -0.04997231082550091,
    -0.04427016560006205,
    -0.012120311451649804,
    -0.011919033100775356,
    -0.01181389250455945,
    0.04214608664259348,
    -0.026723667988439934,
    -0.0005142000136592819,
    0.03668401479987363,
    0.028671856184160086,
    -0.021727071302814354,
    -0.00030697773638309653,
    -0.05620781394392695,
    0.03338511274710235,
    -0.05691971873468393,
    0.04090277508121695,
    -0.05682506079327218,
    -0.03331468002778255,
    -0.02008730237260655,
    -0.03720724743670146,
    -0.02839458581880411,
    -0.07441954592225064,
    0.01469796097671208,
    -0.0701443462713048,
    0.04163509144753311,
    -0.025997261340596694,
    -0.010866941869289838,
    -0.046837186662861796,
    0.02811342981704386,
    -0.06647504169247961,
    -0.06232988841554233,
    -0.046247846232672876,
    -0.023074619209477003,
    0.006565114719242605,
    0.048511389701650545,
    0.02623747302748938,
    -0.000814969192885905,
    0.011990752187629771,
    -0.03621199862170394,
    0.04253877453859551,
    -0.07250792783822414,
    -0.05867314676598022,
    0.022490217137371808,
    0.009657792267107888,
    -0.07619811009318887,
    0.013761335348363636,
    -0.003228244271513986,
    -0.027501742040934283,
    -0.03863318047314108,
    -0.06944483125695657,
    -0.016100077710638625,
    -0.0797341696560934,
    0.025915515254003527,
    0.012425027061001091,
    -0.05227310659040009,
    0.029584481203588003,
    -0.006976210862930244,
    -0.03388326362872938,
    -0.04831961757428665,
    -0.015258045752666849,
    0.01697748295569689,
    0.025155523759055443,
    0.010190817748601578,
    0.01913886444492147,
    0.00941533771747634,
    0.04443108316316403,
    0.04622193540242539,
    0.0210012406785356,
    -0.03517445178054711,
    -0.056885928299870256,
    -0.001539981234417168,
    -0.012688658248029635,
    -0.005403847326177336,
    -0.032138382668956,
    -0.019014207288456174,
    0.008806209491187197,
    -0.013452867317920178,
    -0.036767707561431266,
    -0.013492628641228594,
    -0.003146658774232673,
    0.014181169481734215,
    0.0033237079117958857,
    0.015327142705575926,
    -0.061993015840023265,
    0.0034969640546362343,
    0.03436682420127638,
    0.0158696403871602,
    0.04371759208536963,
    0.005457057257280992,
    -0.048118036642568016,
    -0.07778263586287577,
    0.03661462601051826,
    -0.023721758080520055,
    -0.01868084018324908,
    0.008390342720861328,
    -0.0397734840066517,
    -0.06539282500278876,
    -0.0693533353261661,
    -0.053783492387216046,
    0.044037561152378446,
    -0.02819210493605883,
    -0.03102792247356123,
    0.007448391414256421,
    -0.04840225824554434,
    -0.07714170722752776,
    -0.02395581633931299,
    -0.039914189452790155,
    -0.035116403239013085,
    0.04231208026992225,
    0.014610838697777568,
    0.011476933476245668,
    -0.037781588989296656,
    -0.05054135584883866,
    0.007366558575711217,
    -0.039569983910576915,
    0.005748294000619335,
    -0.03644378241606866,
    0.018330793589300676,
    -0.06293032749141286,
    0.0448395773078025,
    0.039216014648763176,
    -0.031249930673004103,
    -0.029227834988568558,
    0.03946974860888532,
    -0.015673126629325736,
    -0.06240594140511944,
    -0.027623903946616277,
    -0.05917249940564066,
    0.02515956366740629,
    0.007594552179821286,
    -0.048728344253687016,
    -0.0478147429543291,
    0.04689545033967943,
    0.020146638131303726,
    -0.03443043342446827,
    0.008316808852564096,
    -0.05704223717000311,
    -0.04037206589808383,
    0.04597853981632591,
    -0.05796130555780457,
    -0.0632785233251466,
    0.014446353421349596,
    0.027385648584764114,
    0.03607976288342319,
    -0.033378153188077936,
    -0.03505330973383157,
    -0.02507695559083259,
    0.03080414565397906,
    0.022915026387353262,
    0.02615851815837766,
    -0.0023316220927885748,
    0.021580012141993923,
    0.013135666227443237,
    -0.024949025213714667,
    0.035133367123299175,
    -0.04684766547779918,
    -0.056450888874414164,
    -0.04973606382099214,
    -0.058720554513887004,
    -0.06704703614576431,
    0.0402381253697954,
    -0.013029758327085866,
    0.026123316063993172,
    -0.05683564890334604,
    -0.01736799434494694,
    -0.03833446357849537,
    -0.04723204072996128,
    -0.08375051495847188,
    0.06530713306233242,
    -0.006364202069021306,
    0.04596585456911384,
    -0.004551854618790415,
    -0.008399571925303261,
    0.05938177344785451,
    -0.003945282339953189,
    -0.06878806400070009,
    0.03291999650085641,
    -0.03631984203379269,
    0.026232068318410368,
    0.013069949226283399,
    0.0035536006078519086,
    -0.005544145291956714,
    -0.017794520353714382,
    -0.0730726507948738,
    -0.07821994227782836,
    0.0058171500776783075,
    -0.01937211217060846,
    -0.03649242162957404,
    -0.0013591963575374055,
    0.03769009318213253,
    0.013277551917107548,
    -0.004271757061850684,
    -0.07988072757028819,
    -0.05208822204679147,
    -0.00531517947465775,
    -0.04456224002794361,
    0.025403062232856526,
    0.011972410233757115,
    0.028144568176958974,
    -0.034345298830143915,
    -0.039911856431881665,
    -0.024813005096876364,
    0.024224860703490673,
    -0.010465195769060956,
    -0.056163218995489074,
    -0.027380130390317954,
    -0.030871521548295984,
    -0.011219373097629123,
    0.005775671246376359,
    0.0033536523839415126,
    -0.07842729688181926,
    -0.04609956937694448,
    0.01972532362820062,
    -0.023945387512231468,
    0.004972323185705917,
    -0.08507161887711444,
    -0.0069105334505147435,
    0.03949936504469736,
    -0.05511855777856298,
    -0.07865682444543397,
    -0.07178389835229149,
    0.016139034037933892,
    -0.06738787967533987,
    -0.0006610598424721294,
    -0.02974070587817099,
    -0.03513780176432123,
    -0.010340540357125855,
    -0.05095853205059953,
    -0.06829728077785395,
    -0.025594410017546705,
    0.02320752177986166,
    0.026502468540566874,
    -0.008515107012015714,
    -0.033706450680663344,
    -0.022691556251629188,
    0.005234293527601396,
    0.008395421456951888,
    -0.06622959636692989,
    -0.09291984757399196,
    -0.0025451059600988973,
    0.006783042535124563,
    -0.005519790325234026,
    -0.0758525330935206,
    -0.041169923917725976,
    -0.022105732248933307,
    -0.0030585394179375876,
    -0.035130474659238936,
    -0.07789122745730408,
    -0.054823560424630456,
    0.008155239094704189,
    0.001764050109714363,
    0.014486684327745837,
    -0.02252182462517171,
    -0.07860653255143736,
    0.01591737967304638,
    -0.04554580717285729,
    -0.05672447662201339,
    -0.0037530249740639634,
    -0.06308822140258916,
    -0.06946050388092924,
    -0.03433207263658601,
    -0.06658336619256383,
    0.008748168486698763,
    -0.06841166166897308,
    -0.01727421038371271,
    0.030162483485950204,
    -0.02471129173193582,
    -0.06725344458205612,
    -0.0083952001144332,
    -0.0020248103390376354,
    0.010613891389359626,
    0.05735085256261019,
    0.05528982611941756,
    -0.02696862389981736,
    -0.03860387852250796,
    0.02284099329206166,
    -0.026611367455404898,
    0.006442166510446813,
    -0.052806051553409755,
    -0.007337667962388279,
    -0.04790164247894212,
    -0.02839543212148945,
    0.02326445066750714,
    -0.05347232437972544,
    -0.026600065406658865,
    -0.06502341186945228,
    -0.012589392836305438,
    -0.03332206058688768,
    -0.1042105781788334,
    -0.10375449144884924,
    -0.079969295904765,
    -0.1031870348866186,
    -0.003153763766921455,
    -0.028311860380711904,
    -0.06143365324902676,
    -0.003477155935329208,
    -0.0938202342421728,
    -0.009948010372571231,
    -0.05219159811201602,
    -0.08471414432634447,
    -0.019377869460056842,
    -0.02137379971114304,
    -0.07015553817082963,
    0.012267221309802786,
    0.012220608263769929,
    0.019562089619923714,
    -0.09467729324510832,
    -0.02800534822197436,
    -0.024677536507216057,
    -0.053634038714206786,
    -0.011473314624246436,
    -0.08453919296626163,
    -0.004183273761850774,
    0.029239450304921543,
    -0.015039113253344068,
    0.007404284925778475,
    -0.0061513422069918704,
    0.014289867089963264,
    -0.033725135260227836,
    -0.03512433304666679,
    0.0009615590449142434,
    0.04013883611403102,
    0.009553880172596101,
    -0.06594156353823295,
    0.019222834681716608,
    -0.02160896787347898,
    -0.03643459068208833,
    0.01722741543323436,
    0.032882850805694946,
    -0.024956365827327597,
    -0.04457755736697646,
    -0.05931523908432842,
    -0.06019391728510336,
    0.0017452989142197328,
    -0.04540991455381003,
    0.022612749479680082,
    0.022244846862594217,
    -0.005816963772055622
  ],
  [
    -0.09687913851063334,
    -0.13643594641341442,
    -0.05211064758310023,
    -0.17004473910824394,
    -0.0376722777419301,
    -0.07581574213380425,
    -0.09596945372293894,
    -0.0406753797353553,
    -0.10314438878406568,
    -0.05899525281926145,
    0.018449169370425098,
    -0.08437347148646494,
    -0.09728486884584713,
    -0.09956333144927676,
    -0.027386330378867545,
    -0.13211564167216694,
    0.01578828377027833,
    -0.04078268498402769,
    -0.08400253069136662,
    -0.12695005698433037,
    0.025484357545265294,
    0.03500005199671501,
    0.03326479487646968,
    -0.06508645425749823,
    -0.06433383923253691,
    0.18553750217259127,
    0.13630511984113305,
    0.028750410207183108,
    0.023333571926207653,
    0.02053911310705449,
    0.06267731080639652,
    0.05208418727341859,
    0.1297611060351757,
    0.08069070477612425,
    0.021705393158258045,
    -0.003326420024563544,
    -0.006411043613007456,
    -0.021441561211897085,
    0.05047752947781438,
    0.06541795971158322,
    0.08515894309516474,
    0.002613931811577645,
    0.016333737653789836,
    0.09878457658554692,
    0.03217414315050572,
    -0.017723364483194663,
    -0.011567872241007708,
    0.022561310315218,
    0.004204684808889668,
    -0.03274176671417009,
    -0.09035358220302855,
    -0.034704537302536365,
    -0.0739551318585643,
    0.012537044699158562,
    0.008518930155169998,
    -0.036077504061501085,
    -0.05143796152235314,
    -0.1158357165505204,
    -0.06410737887293293,
    -0.0555198510018611,
    -0.011933579326731976,
    -0.0953063859899186,
    -0.11355328576580581,
    -0.008937824627108355,
    -0.09739835296348232,
    -0.10647926280899254,
    -0.014970109017971139,
    -0.029938012260616785,
    -0.05299893669527634,
    0.03496878036288667,
    -0.10619510428648542,
    -0.06820137110483446,
    -0.1116364228478383,
    -0.0765754321532142,
    -0.062236359242833286,
    -0.04288624957403232,
    0.008541920305004195,
    -0.054794731361392714,
    -0.0160303862019324,
    -0.050501905936193144,
    -0.024275898834435514,
    -0.006311877600209813,
    -0.051631040517911626,
    -0.07211025394619017,
    0.03411108357850002,
    0.005900390398361913,
    0.029168119267187473,
    0.001651180779968275,
    0.020802590232141385,
    0.018261820248357173,
    -0.01074875548729286,
    0.010307576019601817,
    0.016501685581036613,
    0.004390619466482119,
    0.017505047213862035,
    -0.009942724858662464,
    0.004553488711773516,
    -0.009292836104063215,
    0.06316183375325442,
    0.054252846916223924,
    0.04605718739182575,
    -0.04452269489231664,
    -0.08315355050775215,
    -0.030079617156001826,
    -0.06886893283878238,
    0.12408026244871823,
    0.07381936376940107,
    0.051052767739957795,
    -0.10186272958425031,
    -0.06684313453614463,
    0.12099201260429006,
    0.053892589659106746,
    0.1621058804786282,
    0.020598845122264155,
    -0.04603818728119011,
    0.05439234716714651,
    0.0864419326200978,
    0.028942337178235408,
    0.09806459833244863,
    0.02130544105604276,
    0.006689082981763798,
    0.042169481968979516,
    0.07181419977742662,
    0.11354471144222684,
    0.07524264889059179,
    -0.12247728496881666,
    -0.1275465696399742,
    -0.054713118022434115,
    0.022989220891855122,
    0.008609041636462495,
    -0.07407154578022097,
    -0.04246366896046437,
    0.05069793209909845,
    0.016468451567438407,
    0.01784619923643095,
    -0.12383283713072427,
    0.06170515504069116,
    0.020681923485230857,
    -0.04260625013907367,
    -0.04045797543816334,
    -0.019956701466855162,
    0.06163235979323931,
    0.11529941579817772,
    -0.027809775314457476,
    0.01801235559857066,
    0.002495575023133821,
    -0.007406669352420792,
    0.16957721002331533,
    0.04902811695958258,
    0.01196923191763879,
    -0.012660232856074507,
    0.07906733370086955,
    0.02450569383094157,
    0.05064544286237519,
    0.07178472075385196,
    0.028001615554876427,
    0.052884918176243655,
    0.06906906232560524,
    0.001649741715649362,
    -0.03509621071853304,
    0.06667829132647558,
    0.05302024293469378,
    0.044634612279326864,
    0.0069999060685575695,
    -0.04977126169168133,
    0.056006648138951724,
    -0.00014958345204076873,
    0.04058623860429337,
    -0.004467575486900169,
    -0.045934910023754445,
    0.025315998088450736,
    -0.05067804354885489,
    0.021007343257959794,
    0.05293501855103487,
    -0.056070741582037266,
    -0.0471191515164958,
    -0.05174523668505904,
    -0.0164022686478923,
    0.03133506106652127,
    0.012122502182985847,
    -0.03374461281610166,
    -0.057066775689677954,
    -0.04184968478921373,
    0.054886975619252355,
    -0.07665643369209736,
    -0.06352738632366052,
    -0.09529242216122953,
    -0.04983788093748883,
    0.0038433542440889394,
    -0.06115698764800124,
    0.05739784938323137,
    -0.017568729704075668,
    -0.11261768880678183,
    -0.05189297993649615,
    -0.08147211964399513,
    0.021309156346558156,
    0.045987754519227694,
    -0.03505523686941808,
    -0.08413572903100598,
    -0.15966406324931934,
    -0.038051676182666354,
    -0.0559957284721587,
    -0.06472290989684569,
    -0.046976323711580455,
    -0.06599829611606853,
    -0.03655086990949591,
    -0.054389740161540925,
    -0.04169256199981136,
    0.017175552868584038,
    -0.10607608035913921,
    -0.029180689173012257,
    -0.06325864810524728,
    -0.086724893196488,
    -0.009652977033343559,
    0.008189220132462377,
    -0.07322419781428091,
    -0.06638110292026846,
    -0.09870583209089988,
    -0.05024778717639252,
    -0.0058169707341234785,
    -0.014814385496144894,
    -0.08779427048762121,
    -0.012222286353290158,
    -0.09567478725407275,
    -0.11666498006447608,
    0.006700740621583582,
    -0.03807919806621017,
    0.0071282607474333305,
    -0.0003832929058123039,
    -0.048144897885281236,
    -0.0294316986719615,
    -0.013694924730621618,
    -0.012726363388191827,
    -0.0017524974652411173,
    -0.024055179767311547,
    -0.030334462571944304,
    -0.044117099873359204,
    0.0044930291232283,
    -0.035019699716976174,
    -0.08813768274877737,
    -0.008210764503262902,
    -0.025831800091164668,
    -0.035299021037540484,
    0.007342620729580725,
    0.005562411678741059,
    -0.07863787741849537,
    -0.05592068357846806,
    -0.024990837347676684,
    -0.033673652865165285,
    -0.03261419416857338,
    -0.01871886815509796,
    -0.012014573896215677,
    -0.12433819196765016,
    0.0038057542245697753,
    -0.09667408130312687,
    0.005179971088836667,
    -0.10386102451361764,
    -0.0982333511230142,
    -0.05620258008015696,
    -0.043480358030895595,
    0.013751081032379807,
    0.008762585785053574,
    -0.14770466526242043,
    -0.07355009300889298,
    -0.12242849245694096,
    -0.03438662646079659,
    -0.0659114043059672,
    -0.13500307138921622,
    -0.029579374427020255,
    -0.05180571043121077,
    -0.12713106137972832,
    -0.1825757110286428,
    -0.15941757445820617,
    -0.06375460725964098,
    -0.1248844081908943,
    0.07095868723751309,
    0.1451872381986014,
    0.04209106517451639,
    0.05909592751925156,
    -0.039097707946659614,
    0.14401813693430626,
    0.008210205108657725,
    -0.03950781395604564,
    0.059444485708797914,
    0.05407957197864286,
    0.08171599219580858,
    0.10348301750227873,
    0.037869444471886844,
    0.030391944915863736,
    0.059097265177631524,
    0.1229584338904121,
    0.028083090609412994,
    0.05513326771685739,
    -0.0002226456335236159,
    0.09423886209541599,
    0.08611470507825342,
    0.15512966674078915,
    0.08132381425792783,
    -0.020864928785441127,
    0.038742839211811986,
    -0.06191726369406169,
    0.011043157326801679,
    -0.10183323465940719,
    -0.06993629239079804,
    -0.04396628074642512,
    -0.07927009221312149,
    -0.10141138494897273,
    -0.058886519034664624,
    -0.1119738595342638,
    -0.018992075860285864,
    -0.10426191372811545,
    -0.01734534213352608,
    -0.1038328472240051,
    -0.07839240059379564,
    -0.08303622615205576,
    -0.033088156931697026,
    -0.027853601176676037,
    -0.02969816724803718,
    -0.013061906979234589,
    0.015706094075150973,
    0.010380038559822245,
    0.010707995083119707,
    0.025167980624851937,
    -0.06512539329181574,
    -0.02620985009651795,
    0.07968705718445811,
    0.05816096696100242,
    0.00020432305412001618,
    0.008294507159766833,
    0.04939021148388413,
    -0.038291415545177745,
    -0.03971066781076123,
    0.005694385796232298,
    0.015604690700897032,
    -0.006016262155153993,
    0.005635252350092682,
    -0.08539132245649136,
    -0.040069081468398556,
    0.007508404452793004,
    0.001525303357400825,
    -0.0750910639729049,
    -0.03403083443208107,
    -0.019897485407710462,
    0.001929156150706293,
    0.016970916057939642,
    -0.05831729090874343,
    -0.028444693332120966,
    -0.05572490761917627,
    -0.09990443929739078,
    0.044196645146065305,
    0.08905824878582548,
    -0.08753293775736265,
    0.0070403286266661185,
    0.012334350303067091,
    0.0300623968330532,
    0.07157955566768005,
    -0.005428329826950391,
    -0.023629786053355015,
    -0.0283543046060285,
    -0.08696343980609891,
    0.025289226386586608,
    -0.08700054757756491,
    0.0331118852195021,
    0.019483686780268957,
    0.011327335735040285,
    0.01946495327964664,
    0.009745192747721891,
    -0.019144404767516304,
    0.015583332073418816,
    -0.031910047446671384,
    0.029536147227346838,
    -0.025176335231626577,
    -0.04729298386982877,
    -0.031237246211279285,
    -0.06410782078237054,
    -0.07156548802179492,
    0.0190567297759745,
    -0.011378403016433617,
    0.05758266938737001,
    0.007072445360355341,
    -0.06541465210095909,
    -0.0023107361399932894,
    -0.03938011785314738,
    0.038659736658825876,
    -0.036528995438194975,
    0.04980257765702224,
    0.03529770359616809,
    0.036378028289507224,
    0.016792577905870826,
    0.0614743700065561,
    -0.002710420953683505,
    -0.05069682267886173,
    -0.00658231989061229,
    0.03268856317945571,
    0.023819107612981002,
    0.043886336081392356,
    -0.0397315754854536,
    -0.027563283692753127,
    -0.014924355689839512,
    0.015010206743041076,
    0.012408706190153718,
    0.010594232044060058,
    -0.1291785982049939,
    -0.029258002759401165,
    -0.13852290726660965,
    -0.024868664999312153,
    -0.10965847513130147,
    -0.044887428347676075,
    -0.09081352622693567,
    -0.028368891425630188,
    -0.05627374585126054,
    -0.038780068802759866,
    0.0014972155971969545,
    -0.08598301626437001,
    -0.03840622035579076,
    -0.08254713084957419,
    -0.057448556933483504,
    -0.015742479449197246,
    -0.06174531685923709,
    0.010853345242406665,
    0.005546489756649373,
    -0.08876050247957477,
    -0.011271444828944507,
    -0.06939018532363822,
    -0.021003530399796674,
    -0.003862525890338438,
    0.013111708871485939,
    0.014112990555811538,
    -0.0020875107027295042,
    0.010867137379186159,
    -0.049542979038424126,
    -0.09518501340557085,
    0.022977354317799233,
    -0.07746370792606283,
    -0.055812973925218785,
    -0.053239706449830546,
    -0.012718116678085293,
    -0.08667943040008266,
    -0.07550131430757295,
    -0.06922017559747151,
    0.0015412239280770009,
    0.005749286341828344,
    -0.06045296982498095,
    -0.07814371371749694,
    0.008938778644811251,
    -0.09909916433179652,
    -0.09364718831818644,
    -0.06738374787702436,
    -0.07753882265476035,
    -0.09395430678527723,
    0.031690195817697414,
    -0.06041596448134624,
    -0.020407569013582698,
    -0.019306245364447406,
    0.06263693076481114,
    0.043950476866392425,
    -0.019589173909264467,
    0.02169262837636316,
    0.06573190415960978,
    -0.021843358173577368,
    -0.032441475219189886,
    -0.02478245347754146,
    0.0461512375255158,
    0.06018643855138681,
    -0.025715609235767076,
    0.02456274862401991,
    0.0163296436799284,
    0.03817545181439787,
    0.0072860093580050245,
    0.042850432869415256,
    -0.015571203870828072,
    0.012217204490820078,
    0.056385881308367164,
    0.037044097690475564,
    -0.02538463078040674,
    -0.15739133413886489,
    -0.08410373702118587,
    -0.06716120854652163,
    -0.007885420466654889,
    -0.07164814008517306,
    -0.15964158455704544,
    -0.07980829417509937,
    -0.06118217831159521,
    0.017481572918454143,
    -0.10432177100634445,
    -0.05434865732894602,
    -0.018441336342705842,
    -0.08901503831240738,
    -0.06894324971445083,
    -0.12803942224658277,
    -0.012634930354976917,
    0.009343155849010598,
    -0.044127272356162844,
    -0.03311473450356418,
    -0.04553777516493127,
    -0.05303757531206183,
    -0.046102209449495155,
    -0.037119842878156645,
    -0.09497565090196095,
    -0.07147958342727138,
    0.04548259497012743,
    -0.05764950056013862,
    0.06787506199673837,
    -0.008869625236019295,
    -0.05785915884529637,
    -0.0010224675377677817,
    0.020003483811344078,
    -0.07641630146816705,
    -0.10306149560319842,
    -0.040599146161883676,
    0.09148847661771899,
    0.08831738730205375,
    -0.10859252671294792,
    -0.08142955240247607,
    -0.02510032861916927,
    0.17082909681356404,
    0.1865330227598192,
    0.04393902100511506,
    -0.020135491973784614,
    0.023245397919074776,
    0.0906636349488934,
    0.06546888991014303,
    0.09956356917291677,
    0.020855387899788542,
    0.008030887057058705,
    -0.031032142463343404,
    0.023973816346993793,
    0.10166321029560436,
    0.06454712172032305,
    -0.12192720611505796,
    0.05036422998035811,
    0.04030762679903371,
    0.04892438532268398,
    -0.00873502358612926,
    -0.017902584553617075,
    0.04079309517675285,
    0.029188192544493664,
    0.05760863565733141,
    -0.03854675082309136,
    -0.033917281720480835,
    0.04573704911403951,
    -0.05849540677216858,
    -0.02014203987524082,
    0.04665371657891609,
    -0.02329920912126672,
    -0.00473869185095802,
    0.09187614153624261,
    -0.03496967162608048,
    0.041662027640703855,
    -0.039155367044586775,
    -0.09426846935669227,
    -0.06356396830186449,
    -0.0721631184555212,
    -0.06789506708072643,
    -0.06638202940915632,
    -0.087241370914069,
    -0.013255312959939345,
    -0.03374079007381568,
    -0.0059196293796238844,
    -0.0573092688264322,
    -0.039621595849769695,
    -0.05434776011921292,
    -0.0381658288002303,
    -0.05122029549442809,
    -0.030672282597920937,
    -0.045863323024012456,
    -0.0408815133240009,
    0.005239247597545903,
    0.039129535592023035,
    -0.08272528775935409,
    -0.07008104934169242,
    -0.05278388218037148,
    -0.008103468746134622,
    -0.0060612723505767225,
    -0.013093824424170767,
    0.029026472695495662,
    -0.014172826009095635,
    0.03467524104815978,
    -0.07232743362682288,
    -0.05820114686393928,
    -0.017034730687322926,
    0.0245758919360837,
    0.047139116218343644,
    -0.07098194441896737,
    -0.07528178776653555,
    0.05174646995614916,
    -0.016690767037803447,
    -0.0909416987901448,
    -0.0693316745610432,
    -0.012845403570342197,
    -0.0006551110741537922,
    -0.014948973401814968,
    -0.04983218085230353,
    0.00024399800088146714,
    0.02828551127748759,
    -0.020543645376602044,
    -0.03440532258696937,
    0.006627481034927348,
    -0.00807053916117014,
    -0.02549363992647473,
    0.06360420416795219,
    0.1038801412441298,
    0.006397274021974257,
    -0.036293490773587504,
    -0.03996220410211569,
    -0.014045175360013904,
    -0.024792989739942345,
    0.058041660755497104,
    -0.08278814141321802,
    0.01184088946390092,
    0.0009335566455330813,
    0.0006687792349246968,
    -0.04060963131921699,
    -0.06514702393090159,
    -0.017303438033923833,
    -0.004724066306494774,
    -0.057387409552298124,
    -0.008276350055161067,
    -0.03063664050643271,
    0.06296561250482148,
    0.05645292574581967,
    0.007561507081041971,
    -0.08100783127828405,
    -0.06981503266717608,
    0.04065014212020482,
    0.0019304513067001298,
    -0.019385874096556396,
    0.030471581351145163,
    0.05837800658034851,
    0.03348081654047257,
    -0.08299808058952103,
    -0.018637468226012886,
    0.006665187652957118,
    0.036050650032593036,
    -0.03451923177566535,
    -0.028741783764912418,
