[
  [
    0.316877273483994,
    0.3507725651970397,
    -0.25248029373463543,
    0.2557692867038918,
    0.5467874241923114,
    0.4658206054697857,
    0.6035046825335847,
    0.8199197455664013,
    0.35877560238630424,
    1.082258775682843,
    -0.28212372260170826,
    0.7307857615726258,
    -0.354275686977597,
    0.8542959541765844,
    0.3433834734042722,
    -0.38097041380600405,
    -0.39818171994949425,
    0.785231041148977,
    0.11282478176065405,
    0.3229010595952112,
    -0.1888404262685168,
    0.5194357193486507,
    0.3927993412492176,
    -0.25950802834362413,
    -0.47852319595573234,
    -0.025572334440340034,
    -0.6782939505776205,
    0.5607693128217199,
    0.4741276120979132,
    0.37933521659382546,
    0.597387762001921,
    0.27724587372124554,
    0.3771682812210427,
    -0.013091340017668828,
    0.37770847923807777,
    0.4992170225814909,
    0.9712573481350101,
    0.06728621333744335,
    0.11884899749217855,
    0.5413378689056206,
    0.4069075040822917,
    0.30713254134947104,
    -0.34391148336106775,
    0.014271222258311013,
    -0.03357675313549823,
    0.09770009193095056,
    0.3500704500253858,
    -0.36363945710844,
    0.3727570695290024,
    0.009356789766370254,
    -0.3655337044700869,
    0.40776558919069267,
    -0.10916447493482931,
    0.313396461487237,
    0.45471415561786166,
    -0.8291931620358894,
    -0.2927257582315162,
    0.22987319297501996,
    -0.34310871314830504,
    0.5130975601417508,
    0.8396252831277851,
    -0.23217269773722068,
    -0.16349865798175806,
    0.588790117098405,
    0.19974392878693528,
    -0.10170548724730033,
    0.39465235365715784,
    0.3906449520108808,
    0.7350039711260362,
    -0.08887489442478537,
    -0.2017434780452455,
    0.28718163110134454,
    -0.07752118329102017,
    0.0396136071696747,
    0.40038095390097067,
    -0.32291989421049083,
    0.3605947785373706,
    -0.3162204473184339,
    0.325578107993858,
    0.5271667264347455,
    0.3378114815525402,
    0.4360558358400567,
    0.17701069229812053,
    0.2847356706333363,
    -0.31104538733587433,
    -0.9150623985915552,
    0.2656837541077454,
    -0.9880097776720058,
    0.5377354355233301,
    0.4822677065148599,
    -0.12428319462751528,
    -0.15035691372635493,
    -0.4930910229278514,
    0.5106453941682125,
    -0.5563906063903472,
    -0.2274106670424268,
    1.1145333243066784,
    0.33300552578893416,
    0.4491047418414319,
    0.644017295037536,
    1.172833422351928,
    -0.11425303008919019,
    0.0524061016038705,
    0.4150044371290783,
    0.5672941263486291,
    0.4490124891422011,
    0.21098420326866968,
    -0.09771086613819098,
    0.36764430819641275,
    -0.5850403051282114,
    -0.3129104877826098,
    -0.1782046942132718,
    0.47311288979475713,
    -0.2332325852170295,
    -0.33679423488292454,
    -0.36269724127893327,
    -0.8774707811589257,
    0.536423869100745,
    0.3489044115735926,
    -0.046835265670759095,
    -0.5245934723734035,
    0.41030951932523874,
    -0.00021902318984690279,
    0.40096649495886105,
    0.6041735146212317,
    0.35844356523965726,
    0.39737532932548136,
    -0.23762995531266884,
    -0.13490413328550216,
    -0.21002358812017685,
    0.39133260477781556,
    0.3413675049730904,
    0.7706766942152874,
    0.2919094907319164,
    0.4304117600280488,
    0.5456091996258218,
    0.3256462735370352,
    0.40990761598133796,
    0.1739617357900519,
    0.2219108783520169,
    0.3733569171140507,
    0.48996646376692543,
    -0.2704994678904952,
    0.8553977405577787,
    0.25874705530313996,
    0.3991287005740412,
    0.5174889049334681,
    0.25339389112707006,
    0.7794172782441456,
    -0.6023484457396785,
    -0.306111009024937,
    0.42023866829266576,
    -0.40787149871090056,
    1.0110703880563678,
    -0.6152156601622318,
    -0.13145033754628666,
    -0.3315244954791678,
    0.3119428170383311,
    -0.37933238443229567,
    0.21334451950179115,
    0.717831722744626,
    0.40886186124714935,
    -0.2361049949310949,
    0.4408729556873256,
    -0.8969910255728021,
    0.41734687764342293,
    0.3683436814704853,
    0.877497829599175,
    -0.5962945302995732,
    0.17060156570399626,
    0.48338456983891265,
    0.10548653594124799,
    -0.8100555015317678,
    -0.42019489930365084,
    1.1589524534709574,
    0.10541447071906627,
    0.33713879217033993,
    0.5625276436195897,
    -0.19379812062018317,
    0.5239146544978043,
    -0.15230743582455317,
    0.9455798673632384,
    0.25539689325741893,
    0.3949201023764402,
    0.4668769875299351,
    0.01753386664295973,
    0.26448026812868847,
    -0.07822398204303069,
    0.5008692575425239,
    0.2779420995268698,
    0.28966745003023103,
    0.634078431610891,
    0.1488106013135634,
    0.4180064510195333,
    0.5292391918130077,
    -0.18535113795496352,
    0.6544851275034864,
    0.2444272806955526,
    0.5571600104168108,
    0.006079325473478898
  ],
  [
    -0.33141794487556914,
    -0.36111816606845015,
    0.31370254157082017,
    -0.30673277255834536,
    -0.5290548971670292,
    -0.4830450803733111,
    -0.5623187625008292,
    -0.8016107050847097,
    -0.288405556654212,
    -1.090579302765089,
    0.2291375804188632,
    -0.7175008443859835,
    0.42965295767049283,
    -0.894066728174553,
    -0.32848068517873996,
    0.40576954721737174,
    0.42139103581211695,
    -0.8013038472893321,
    -0.0588146925212528,
    -0.3391034024619558,
    0.17755169662970774,
    -0.46973929489321525,
    -0.38105535397223644,
    0.2502784629729911,
    0.48679191596667964,
    -0.027147516607885426,
    0.678378346801086,
    -0.5607865948104473,
    -0.4458760707860273,
    -0.3169981235331929,
    -0.5552484749126088,
    -0.2561709877151122,
    -0.3386411934850369,
    0.053674336695707474,
    -0.4341226450652143,
    -0.5149520876581236,
    -0.994850778024427,
    0.0041707343019705065,
    -0.15245029850732236,
    -0.5737345427333355,
    -0.36440596270924885,
    -0.2434252366167353,
    0.37813323582609615,
    -0.07027487145336204,
    0.003932202217924311,
    -0.03351431219059126,
    -0.36352379707980315,
    0.41739242173264823,
    -0.3327443307833902,
    0.021242691187211848,
    0.322465705076106,
    -0.373669807252141,
    0.14845721325142053,
    -0.297584932690962,
    -0.43238674541087224,
    0.8128134754545167,
    0.27525003003295717,
    -0.20758759081691816,
    0.31466728748789646,
    -0.4987077379804085,
    -0.8542093878379969,
    0.2162171977282237,
    0.16113886899632665,
    -0.5920964274660218,
    -0.1322905387161443,
    0.10513580022095922,
    -0.38492168354620404,
    -0.3553628922929296,
    -0.7577750704064704,
    0.0273215015626175,
    0.18362955859388488,
    -0.24889649636013592,
    0.13712024470429476,
    -0.13075505125460107,
    -0.4311976030869731,
    0.36244093075880457,
    -0.39791167695670804,
    0.29147599834458526,
    -0.245283803505252,
    -0.5640596847237461,
    -0.3304085771389483,
    -0.3868168104356572,
    -0.1368970600287291,
    -0.3120320798323023,
    0.3078279173533207,
    0.9389907714816261,
    -0.3488653479822426,
    1.0215244179557998,
    -0.5270042276967883,
    -0.45532518325115706,
    0.16231460163624126,
    0.1592672349665679,
    0.45792767952287344,
    -0.5612951635177377,
    0.5146909302451814,
    0.23581930145001273,
    -1.0955056149972782,
    -0.3871489352894572,
    -0.4220692320532818,
    -0.6884528310272121,
    -1.1602439572490595,
    0.037376564760860195,
    -0.046873711490415436,
    -0.3366599533818903,
    -0.5651993918048339,
    -0.40343500303656094,
    -0.20436308168361245,
    0.05662287111206033,
    -0.3080724747860029,
    0.593039986217253,
    0.3288130118122303,
    0.17476880586170915,
    -0.491136942161447,
    0.20348489757098745,
    0.27624717667079723,
    0.3912340316535676,
    0.8925311304289809,
    -0.5256655653515392,
    -0.42040322270240454,
    0.03761309417389372,
    0.515344026790415,
    -0.3854513166733741,
    0.027218318510008405,
    -0.44410211133333527,
    -0.5965987182184016,
    -0.35768819614170083,
    -0.4889270777873904,
    0.24581250807313224,
    0.07264048051734329,
    0.19349454829759255,
    -0.37257628779357943,
    -0.34624731155952326,
    -0.7765953280998412,
    -0.2574190509928135,
    -0.3814696358725302,
    -0.5057313983591851,
    -0.3623331532026657,
    -0.4612272708290313,
    -0.24008687709729287,
    -0.19268378321754812,
    -0.3317132950577511,
    -0.4668371426383141,
    0.2714526332725787,
    -0.8384882331043083,
    -0.2895802295741565,
    -0.3530579580438438,
    -0.4998427021354578,
    -0.3016694958065113,
    -0.7651675486492935,
    0.6134503451800497,
    0.28239803025262816,
    -0.4490127477700895,
    0.3828854530263441,
    -1.0064897837494615,
    0.6300019428999335,
    0.08295095029864676,
    0.3473544629178243,
    -0.3964363333898904,
    0.3545243186096379,
    -0.2417578308870086,
    -0.69923633103856,
    -0.33401396753075624,
    0.24507981286285208,
    -0.5121901875580397,
    0.9062451275444607,
    -0.4716311868086594,
    -0.27013321229848425,
    -0.8790252788786739,
    0.5953502762264574,
    -0.17893964654508912,
    -0.5428826073463647,
    -0.06760235974911115,
    0.8341312516436151,
    0.39952860982788607,
    -1.1532942398306119,
    -0.11264809629670137,
    -0.4055177216257567,
    -0.5442148061706638,
    0.14274253458595343,
    -0.5321902869148566,
    0.09940212510326642,
    -0.9515072454229636,
    -0.2944294311971962,
    -0.3723785679357348,
    -0.3914691314603014,
    -0.062417975966916006,
    -0.2803519532041282,
    0.10742255336457393,
    -0.5281189267453757,
    -0.30019589350680637,
    -0.29642458752320616,
    -0.6833694593534286,
    -0.14385133127575223,
    -0.3502999131912278,
    -0.5095959473671545,
    0.17406333795004342,
    -0.6862646593900864,
    -0.24131356307588744,
    -0.5562454223320092,
    -0.00814017288906396
  ]
]