[
  [
    [
      [
        0.09260618694580043,
        0.015946500940364313,
        -0.17500841502643238,
        -0.12653370186979707,
        -0.152237778317317
      ],
      [
        0.15352400145802242,
        -0.13666240314252345,
        0.16314444843793252,
        -0.06278689616404728,
        0.002197640750387438
      ],
      [
        -0.20182154257517035,
        0.23227739732605,
        0.13678080148890367,
        -0.1407967496551342,
        -0.16105467159337372
      ],
      [
        0.07969953880338644,
        0.10354299248810105,
        -0.10976722001865448,
        -0.22494547318308755,
        -0.05120633808199921
      ],
      [
        0.11834090583414374,
        -0.11721791961587982,
        -0.14663198646117545,
        -0.16513687623755807,
        -0.12678009632324208
      ]
    ],
    [
      [
        -0.00701145844345272,
        -0.14116068695119174,
        -0.04324007691901049,
        0.05769748735919815,
        -0.2793688254815144
      ],
      [
        0.18031118491628872,
        0.0882376226556592,
        -0.1603205389006503,
        0.16939566501453474,
        -0.035384320830008295
      ],
      [
        -0.186219818742963,
        0.020852623683873663,
        -0.2514610328357827,
        -0.21884797034130124,
        0.17329586482728954
      ],
      [
        -0.23424941263689789,
        0.07932749052911271,
        0.17266091022119404,
        0.18925664233459938,
        0.09762159542970521
      ],
      [
        -0.06881450631334526,
        0.07173955864690436,
        0.019953719538602525,
        0.11791671403765318,
        0.07527349363776839
      ]
    ],
    [
      [
        0.1426148716746239,
        -0.041822871073629544,
        0.15237891251605787,
        -0.16615746470218412,
        -0.010329393218664232
      ],
      [
        -0.07899106652229765,
        -0.007436042914664008,
        -0.17930874372906958,
        0.10316231022137157,
        0.1828875848151606
      ],
      [
        -0.23075974289988418,
        0.03610158125918072,
        -0.07578835452195262,
        -0.01191360903457659,
        0.215647993302197
      ],
      [
        0.14223985967756017,
        -0.14025514727576818,
        -0.11301418930727146,
        -0.2648542584391345,
        -0.08421684955924878
      ],
      [
        -0.04889607385025147,
        0.0037820284002571063,
        0.21260272159890545,
        -0.21672735437714846,
        -0.04019191380328846
      ]
    ],
    [
      [
        0.1475879690793001,
        -0.19561252477814725,
        0.14697926047742554,
        0.2255551148004203,
        -0.2119000854510623
      ],
      [
        -0.06606274537952314,
        -0.12024265118302625,
        -0.08642029603396913,
        0.1206994632694348,
        -0.23144133013677406
      ],
      [
        -0.0507753548199306,
        0.18098835335583244,
        0.19960926334682133,
        -0.10267445453515019,
        -0.15122252440740674
      ],
      [
        0.08810334445077757,
        -0.17378844557531115,
        -0.07205481007107696,
        -0.17523526672694684,
        -0.2486933564264601
      ],
      [
        -0.026021798415548813,
        0.24614537656963756,
        0.12078772173476393,
        0.05341077121969494,
        -0.027344021724471652
      ]
    ],
    [
      [
        -0.11777249891271564,
        -0.2680385803120305,
        0.16131578907423638,
        0.01329304877208695,
        -0.2400455393193622
      ],
      [
        -0.16558456542954114,
        -0.22510491261705973,
        -0.08965006002173037,
        -0.04007543137678348,
        -0.08308429950522324
      ],
      [
        -0.029632874955940885,
        0.11475434142950833,
        0.10900503936311001,
        -0.12079396562266533,
        0.11912566822611916
      ],
      [
        -0.3223260957915984,
        -0.27787209114119193,
        -0.2292790696304931,
        -0.13441280918531248,
        -0.2169553200711918
      ],
      [
        -0.26373068288843604,
        -0.2670052237049827,
        -0.045605067103497016,
        -0.02915855179087059,
        -0.2061773410113087
      ]
    ],
    [
      [
        0.11792364632222298,
        -0.22465831646765902,
        -0.2731995477149717,
        -0.017139128296504585,
        -0.1299650470837016
      ],
      [
        0.061119882893545904,
        -0.24846241730629,
        -0.2423917346273497,
        0.03357746463186361,
        -0.033681773955309115
      ],
      [
        -0.11531868054455485,
        0.101713788353614,
        -0.1863379020056125,
        0.09129527213591025,
        -0.2602240819735631
      ],
      [
        -0.014302942673316681,
        0.03216833199229003,
        -0.11807451161676903,
        -0.2546276020874531,
        0.02397519558599444
      ],
      [
        0.04455651442332751,
        -0.03997007420455393,
        0.06767935311058969,
        0.17785293154940307,
        -0.07014895728578088
      ]
    ],
    [
      [
        0.13476664186621787,
        -0.06505821950371653,
        0.071114827385615,
        -0.3131330706189858,
        0.06752364653243176
      ],
      [
        0.02395460596765259,
        0.12903209841323274,
        -0.13646890866900996,
        0.15013117934857398,
        -0.07937979246819184
      ],
      [
        0.15058969140223635,
        -0.21285447169256988,
        0.14706245646366825,
        0.21956636978866023,
        -0.1404713725797261
      ],
      [
        0.22949472635908283,
        0.04887136823692576,
        0.14295536627087357,
        -0.06711173721416192,
        -0.1500887232467401
      ],
      [
        0.07983467053934894,
        0.1528057090301913,
        0.2049517507978571,
        -0.08322839873346236,
        0.051210359735032136
      ]
    ],
    [
      [
        -0.24614559483213275,
        -0.040622221129520485,
        0.06424181497644384,
        0.010027089850450411,
        -0.0768430074485023
      ],
      [
        -0.18687690451541883,
        -0.02401871593206574,
        0.2091905505634729,
        -0.016427854581764448,
        0.08397096276222589
      ],
      [
        -0.017767632763588392,
        0.115030536288846,
        0.08013721396996472,
        -0.19602660801397603,
        -0.17572584016371837
      ],
      [
        0.12049202403400866,
        -0.19099593552350996,
        0.1607760450146935,
        0.042515983188482744,
        0.09370106143776007
      ],
      [
        0.15120158361735656,
        0.19800736217429196,
        0.03660862873130856,
        0.22670319639936895,
        -0.1335287507414165
      ]
    ],
    [
      [
        0.010789955633594344,
        -0.25521254687017336,
        0.06091937770931167,
        0.16149125230776798,
        -0.15828739475829384
      ],
      [
        0.2032829610089667,
        0.22836609598384072,
        -0.15214493074812013,
        0.2066534303732972,
        0.18835908748470306
      ],
      [
        0.10135649997777604,
        -0.0012184490813153162,
        -0.24072181654791175,
        0.20510475347903365,
        -0.10610736080948686
      ],
      [
        -0.09720352511284254,
        0.20135581106233894,
        -0.19798706181640086,
        -0.2341217363953055,
        0.027965726192211687
      ],
      [
        -0.1644801383482547,
        -0.11580029334227764,
        0.1235206437007484,
        0.2013817497642137,
        0.21181986856710092
      ]
    ],
    [
      [
        0.009571796071208739,
        -0.12986939236265296,
        -0.05273460154999751,
        0.013151155890429865,
        -0.15672914831319873
      ],
      [
        0.12355417656678741,
        -0.2171101783540496,
        0.05798226531831719,
        0.0765596350220876,
        -0.13316131567561146
      ],
      [
        -0.04658786508484743,
        -0.1302843618169621,
        -0.07903201226624527,
        0.14511434504843074,
        -0.23935980562328116
      ],
      [
        -0.18232222428429543,
        -0.039442361956705314,
        0.0017266348800188016,
        -0.2314506189731738,
        -0.09675737640185705
      ],
      [
        -0.052811982820436844,
        0.17543875870006428,
        -0.10249775124594387,
        0.096294778768569,
        0.16205806318215824
      ]
    ],
    [
      [
        -0.20765277171242205,
        0.15062984634493087,
        -0.05098404237684188,
        -0.11211676582844453,
        0.06528690507998783
      ],
      [
        0.23215516610929918,
        0.08802348879324672,
        0.12435173591980014,
        -0.20164416186787196,
        0.1261223421371106
      ],
      [
        -0.016830630860358263,
        0.020038376990272284,
        -0.22817948081556194,
        -0.25762993068835643,
        -0.03949831013257715
      ],
      [
        0.11914673776882077,
        -0.18649612217128073,
        -0.08908114020274034,
        -0.13991136950994537,
        -0.10991296326491544
      ],
      [
        0.11941111117053649,
        -0.03593778625143739,
        -0.023370688132542703,
        -0.052764080309047105,
        0.14377771515727214
      ]
    ],
    [
      [
        0.047071619441667316,
        0.22112178728101067,
        0.2179939928135313,
        -0.25085798308642676,
        -0.17421790408814067
      ],
      [
        0.1540171016129441,
        -0.09437479786032833,
        0.0026702959820741677,
        0.16603756438269093,
        0.004568187148943766
      ],
      [
        0.06499051073216662,
        -0.05932180732148612,
        0.13516550767143987,
        0.037056650191755885,
        -0.2239684258194172
      ],
      [
        -0.22805003965811876,
        0.04155530894093926,
        0.10663317916893818,
        -0.23835938526012437,
        -0.14527058166888357
      ],
      [
        0.2004355497333158,
        -0.22913244558010062,
        -0.012544606936092675,
        0.1783215279021259,
        0.168288745029008
      ]
    ],
    [
      [
        -0.16410706209591683,
        0.14631659191842014,
        -0.0979623691809277,
        0.08586996889841386,
        -0.13157440982190188
      ],
      [
        0.1749346544384107,
        -0.2448754038910086,
        0.09460343447398935,
        -0.2611008355717937,
        -0.15094456985372798
      ],
      [
        -0.025338451939898327,
        0.046812700418006246,
        -0.09364531424145421,
        0.20137271475571444,
        0.23031405384550988
      ],
      [
        0.015909492889967132,
        0.02729370622858014,
        -0.15086820674026655,
        -0.2113338191363958,
        0.16979891490641297
      ],
      [
        -0.18594019152738042,
        0.19216210244855683,
        0.2001030088211378,
        -0.13871192983956135,
        -0.013412983025839414
      ]
    ],
    [
      [
        0.10237895539532033,
        -0.1759355958906724,
        0.02750594104812784,
        -0.07576395590352634,
        -0.09239330517548058
      ],
      [
        0.14303707187296438,
        0.18457376138474882,
        -0.14249232160933187,
        -0.06622182328171312,
        0.01021375649063813
      ],
      [
        -0.005526776926472045,
        0.25885112367678953,
        0.2605796521444743,
        0.10227127487802046,
        -0.12959610986034215
      ],
      [
        0.1658765814452328,
        0.21997645513287425,
        -0.05326963345522754,
        0.1927411431272063,
        -0.18475729387731626
      ],
      [
        0.09683356981508674,
        -0.05156967519115568,
        0.18212370112318793,
        -0.04818790435968017,
        0.13923800500699
      ]
    ],
    [
      [
        -0.000230918776682996,
        0.12673184371573182,
        -0.15460387800590353,
        0.030402475476373265,
        0.09395518746269652
      ],
      [
        0.1116587269089672,
        -0.07723261299266285,
        -0.01971345614885641,
        0.1371329254046642,
        0.1266461140293188
      ],
      [
        -0.00021673482141107151,
        -0.1662077736617756,
        0.11889794167927263,
        -0.03363125421587247,
        0.1750828731104997
      ],
      [
        0.08227187164496702,
        -0.2074281266928918,
        -0.05245452298892549,
        0.07860484561088484,
        -0.16643405508297632
      ],
      [
        -0.014541297248487156,
        0.2154959230189775,
        0.11566595028520296,
        -0.13953767608751388,
        -0.08018642919361917
      ]
    ],
    [
      [
        -0.07279972494606081,
        -0.11026817142137095,
        -0.05958827190479553,
        -0.22135868981427398,
        0.19081769611885724
      ],
      [
        0.0892157846096181,
        -0.15139497145110517,
        -0.23475558213324893,
        -0.15996582638706,
        -0.24828395413259438
      ],
      [
        0.17961830159300024,
        0.11922135127766893,
        0.2143235716313182,
        0.12191519446532283,
        0.04052176566635394
      ],
      [
        -0.10343832579325965,
        -0.03152604875811914,
        -0.018854903476828357,
        0.19022235268484608,
        -0.03763046035404085
      ],
      [
        0.1833241326674359,
        0.17395425431776307,
        0.24735096843148918,
        -0.0353509995331561,
        0.030227781583550654
      ]
    ]
  ],
  [
    [
      [
        0.05033726577852872,
        0.12902896790191432,
        0.199200166184684,
        -0.055909532312785414,
        -0.14560992321478564
      ],
      [
        -0.15054978108248732,
        -0.2056520882634665,
        -0.1892712834386617,
        -0.06627935593239433,
        0.2247445340942939
      ],
      [
        -0.06719335454380782,
        -0.09589858932766418,
        -0.08137375199223704,
        0.03356795278624813,
        0.07463816911175072
      ],
      [
        0.14647530571857842,
        -0.08175619072810013,
        0.1838319835063463,
        0.0024280718618467758,
        -0.25186191003940067
      ],
      [
        0.23011386684154342,
        0.07388577013822735,
        0.19136414496611318,
        0.036054527510996436,
        0.09605476026132925
      ]
    ],
    [
      [
        0.036015775316194626,
        0.0642057184734957,
        0.17227949929170527,
        -0.2489027442972948,
        -0.12902261816673014
      ],
      [
        -0.16891680285862276,
        -0.000004215783634457806,
        0.0700072032283857,
        -0.09724219424412234,
        0.12941807920652815
      ],
      [
        0.036857981125983395,
        0.10201473212815931,
        -0.09505079864367583,
        -0.24180726909980582,
        0.14614795872753375
      ],
      [
        -0.09377175479744854,
        0.2042987526442053,
        -0.0882601132612305,
        0.2238325233795013,
        0.14460654934852307
      ],
      [
        -0.1206373900608145,
        0.18276189093633113,
        0.07228519997916656,
        -0.08660503259797726,
        0.05719910164902814
      ]
    ],
    [
      [
        -0.047756859176593225,
        -0.2542177866976611,
        0.17868817050868918,
        0.07650537733211145,
        -0.08356062971682697
      ],
      [
        -0.042001589776885034,
        0.09358117294955172,
        -0.20251608911577954,
        -0.07240980488362264,
        0.07178803118587777
      ],
      [
        0.00997835721423808,
        -0.11260253894346027,
        0.0012512676493860253,
        0.19409111850696723,
        0.22140758885384218
      ],
      [
        -0.05588892940810521,
        -0.0771248347660068,
        0.023392739893534104,
        -0.04518312218236933,
        -0.2200328504015313
      ],
      [
        0.14850728468342117,
        0.18565404169696637,
        -0.16742995597123445,
        0.07835237749978823,
        -0.13711812497110412
      ]
    ],
    [
      [
        0.12061629724552404,
        0.20535031757637598,
        -0.19289583720167905,
        -0.11986478046661882,
        0.09490731536307252
      ],
      [
        -0.21355276478963495,
        -0.21336953788676932,
        -0.21787908137860493,
        -0.12915178334930932,
        0.2190726892371227
      ],
      [
        0.06487393023201471,
        -0.04862293232443932,
        0.1528723376852871,
        -0.11164236950753613,
        0.11985058006466358
      ],
      [
        0.11775136514214762,
        0.12443388682749872,
        0.16619291992138355,
        -0.11113548902856638,
        -0.15035629092637784
      ],
      [
        0.1732118733950379,
        0.037542825606915874,
        0.14958774296345204,
        -0.1287098146863145,
        0.05325096099093139
      ]
    ],
    [
      [
        -0.08541433316841655,
        -0.11847516931315517,
        0.17595888402985857,
        0.192889147460881,
        -0.1378195237394372
      ],
      [
        0.12910639571297647,
        0.06770346469393874,
        0.20525366271414477,
        0.08499418171793886,
        -0.18980549452829795
      ],
      [
        -0.06783715023973942,
        -0.1557099648446337,
        0.23234567878453996,
        -0.1467963042171209,
        -0.05672343756585415
      ],
      [
        -0.1327392387678276,
        0.15706871272770875,
        0.01912695029213272,
        0.17426562070836984,
        0.08549536406600432
      ],
      [
        -0.016714828868784316,
        -0.0003166138820451325,
        -0.2565775199689068,
        0.06641506836831905,
        0.22702073528067618
      ]
    ],
    [
      [
        0.1775839399886947,
        0.00137532087530828,
        -0.11568162551445958,
        -0.18543008660672824,
        -0.060906100251837784
      ],
      [
        -0.03661609549545206,
        -0.21560824049831623,
        0.015812404792782075,
        -0.0745561983584262,
        -0.21177335665452515
      ],
      [
        -0.007124938302614951,
        -0.04261518376997071,
        -0.024751435312250082,
        -0.21331402276186012,
        -0.2586214209809692
      ],
      [
        0.09858120687581994,
        -0.15252004239861688,
        -0.027787265208780484,
        0.17742138113302566,
        -0.235284137497121
      ],
      [
        0.055914506102760275,
        -0.1269472769050799,
        -0.19451375851044617,
        0.010395243314527233,
        0.06189246204508678
      ]
    ],
    [
      [
        0.08429386294859079,
        -0.06716920593185431,
        0.07692691415399937,
        -0.16425776111898266,
        0.20470365578842728
      ],
      [
        0.0936040604923114,
        0.19866489445462818,
        -0.020757244409662465,
        -0.23245409191246424,
        -0.16750301827968253
      ],
      [
        -0.2694231034282506,
        -0.051735478529478615,
        -0.10855666131031702,
        -0.015479938745541382,
        -0.05419098183735761
      ],
      [
        -0.1374389313803058,
        -0.18804348854843472,
        -0.08768554258068706,
        -0.1446028004938749,
        -0.15491598999264924
      ],
      [
        0.16848214287227686,
        0.24978570550401474,
        0.08754635613840676,
        -0.156431054777881,
        0.23324050497874463
      ]
    ],
    [
      [
        -0.16363861619511041,
        0.0742456798695058,
        0.25316006154819687,
        0.09381445631949578,
        0.19403851168655858
      ],
      [
        -0.04994099245236618,
        -0.018591127997499592,
        -0.22020765216579657,
        0.08494250355397957,
        0.008641444063926865
      ],
      [
        0.04719824254515913,
        0.040023876881245965,
        0.11081172537281493,
        0.08276111953641688,
        0.23579362115185434
      ],
      [
        0.04528177627283992,
        -0.14913908090456904,
        0.10336805524173709,
        -0.03538761355738791,
        -0.18363102749092988
      ],
      [
        -0.07638976256232434,
        0.18099629768337816,
        -0.057116345473376,
        -0.053982750322767434,
        0.01730252191150092
      ]
    ],
    [
      [
        -0.2059296530072795,
        0.23075834200324383,
        0.038257791060382615,
        0.0748004568186693,
        0.08197766091226363
      ],
      [
        -0.027992838576318815,
        0.22072869347042018,
        -0.157277492755369,
        0.23700081290672617,
        -0.24157803720459484
      ],
      [
        -0.16078863016383593,
        -0.252259703760525,
        0.12807364182633665,
        0.025477208394919966,
        0.22246347010590622
      ],
      [
        -0.19373299587883583,
        0.1963429551087788,
        -0.06442134354577925,
        0.05313453494530272,
        0.2229529228153365
      ],
      [
        -0.10231835137075057,
        -0.12423724019184768,
        0.074396717442122,
        0.12630446199683387,
        -0.2023484360178675
      ]
    ],
    [
      [
        -0.22030806145883672,
        0.15020368261595166,
        0.09670891337346225,
        -0.0899434947789612,
        -0.008398671038537862
      ],
      [
        -0.0789259120669885,
        0.09234577949352393,
        -0.22226166334935032,
        -0.1254765538613004,
        -0.0854888535277294
      ],
      [
        0.07603828116656233,
        -0.10882221911518972,
        -0.23189742744231515,
        0.10783114918176236,
        -0.19494712287727436
      ],
      [
        0.18223587597274393,
        0.09472498390028365,
        0.22430796981456225,
        0.18046541200015268,
        0.05231812514591033
      ],
      [
        0.1027294532383295,
        0.08559338823937068,
        -0.20355087532913377,
        0.22460812572336458,
        0.02721583055347957
      ]
    ],
    [
      [
        0.2333196538039289,
        0.04714286415283068,
        -0.248862682811232,
        -0.05061863640196034,
        -0.03269687209976261
      ],
      [
        0.14011992821298047,
        0.15267585080756135,
        0.018796934545827256,
        0.1889787118016979,
        -0.21260017441848894
      ],
      [
        0.22263859432534164,
        0.12343261285207525,
        0.14461051353061488,
        -0.04624587487269195,
        -0.05139740867510513
      ],
      [
        0.17920274684448728,
        -0.08873825016475174,
        -0.19866076927375118,
        -0.25143721656320994,
        -0.027994654643877542
      ],
      [
        0.24462991938111292,
        0.1770895258475214,
        -0.20599340122640802,
        -0.02253836810210067,
        -0.1737122882595742
      ]
    ],
    [
      [
        0.1861727332575678,
        0.001160720618730365,
        -0.1999300115087796,
        -0.03338817049163311,
        0.14548103340712176
      ],
      [
        0.12113900717106889,
        0.04766926438393363,
        -0.03013371057788258,
        0.005352580445266072,
        0.08718274207777178
      ],
      [
        0.12623106507974918,
        0.0692606563721288,
        0.18769259832410948,
        0.07247941201465405,
        0.1669338083560433
      ],
      [
        -0.09823655536625484,
        0.05223680135940337,
        -0.22786219612028752,
        -0.14653026363335198,
        -0.01034583925294145
      ],
      [
        -0.01403498409201093,
        -0.14517754810222175,
        0.05028223202489092,
        -0.1270674544810276,
        -0.05322294816140769
      ]
    ],
    [
      [
        -0.155104127505436,
        -0.21009638340830766,
        0.13474165235494834,
        -0.20230777112216675,
        -0.08498681896311737
      ],
      [
        0.008083399383018384,
        0.003285116230361809,
        -0.07929492663294212,
        0.07364128109442222,
        0.23878252882371817
      ],
      [
        0.10203521849092022,
        0.1166495711369113,
        0.174471926776048,
        -0.2140664790759284,
        0.22286360425495572
      ],
      [
        -0.10044225020410902,
        0.09503398490333399,
        0.049423766185573904,
        0.126559771544265,
        -0.1082308246687703
      ],
      [
        0.027350618810107162,
        0.0609168728583497,
        0.09036801719873626,
        -0.10833418355203278,
        0.22766503387324988
      ]
    ],
    [
      [
        0.20315341322197827,
        -0.2431236436312892,
        -0.059280143129349816,
        -0.1801297169608291,
        -0.03811712379114154
      ],
      [
        -0.2065297819725076,
        -0.03020632164985599,
        0.08163679602765046,
        0.007747727458775273,
        0.07096515423068725
      ],
      [
        0.024763936286943747,
        0.12220099236106681,
        -0.17784836734314083,
        0.19985104347093116,
        0.20916924089394343
      ],
      [
        0.008829054462331693,
        -0.24899703778266172,
        0.08980172676960517,
        0.02292382196800832,
        0.15184891623040875
      ],
      [
        0.11962440422684603,
        0.21394267331785807,
        -0.1731634463425652,
        0.11578134401744108,
        -0.023745581789422012
      ]
    ],
    [
      [
        -0.23332745157837745,
        0.024593402078164,
        -0.2481897467363715,
        0.116776623896869,
        -0.1546096186825039
      ],
      [
        0.2091623068056291,
        0.19057230954338056,
        -0.22422503454294768,
        -0.23452877712286388,
        0.18236282500688109
      ],
      [
        0.053618418471487406,
        -0.10723760018595223,
        0.23117344297092382,
        -0.2486375509036189,
        -0.05495270800710126
      ],
      [
        0.013559231931970447,
        0.010435808660968549,
        -0.24692581785874063,
        -0.003057726676905427,
        -0.12601470729904016
      ],
      [
        -0.18318984822803544,
        0.02484586500544171,
        -0.06600268170831049,
        -0.1575497549369804,
        0.20170424120290975
      ]
    ],
    [
      [
        -0.19292240194466362,
        0.08672111161288305,
        0.03132443756029746,
        -0.15233785026253874,
        -0.2490357050362182
      ],
      [
        -0.17435114125134285,
        -0.03814997789833776,
        0.05611856902805588,
        -0.19157769945012543,
        0.2044457828489436
      ],
      [
        0.11275732594749478,
        0.04011700278998667,
        -0.23259521568991795,
        0.21577483020884303,
        0.13559863342784922
      ],
      [
        0.07556462342856936,
        -0.16563882982003972,
        0.1656322656546872,
        -0.23989111258918902,
        -0.12620599485096815
      ],
      [
        0.02250903094437399,
        -0.0009193121791599534,
        -0.23348941990593092,
        -0.162931325175272,
        0.09107997059605182
      ]
    ]
  ],
  [
    [
      [
        -0.1607128819299684,
        0.08684933078448999,
        0.2268015802619523,
        -0.23605685975176185,
        -0.0171664312279845
      ],
      [
        -0.06205949800749953,
        -0.03165965992433655,
        -0.07934058734198966,
        -0.27911638812535433,
        -0.07954427193766998
      ],
      [
        0.0737564805221212,
        0.2200747141354487,
        -0.20796182324273632,
        -0.13601835053945488,
        -0.06425696752057257
      ],
      [
        0.1613820984606858,
        0.24280053420666445,
        -0.18124533244183158,
        -0.2882139211093161,
        0.14144543272354998
      ],
      [
        -0.045433753754856164,
        -0.09324622620540673,
        -0.07811758494833093,
        0.09585315124041292,
        0.07072210380764332
      ]
    ],
    [
      [
        -0.003456795835547962,
        -0.01562545996907777,
        -0.002906926556905097,
        0.286522075429218,
        0.11551077725988704
      ],
      [
        0.13207051892863608,
        -0.17475416107554775,
        0.1400979220289671,
        0.22960211575290823,
        0.14672185708394464
      ],
      [
        -0.2647067589850514,
        -0.2579399809785347,
        0.0682054691867519,
        0.2691298361436142,
        -0.13972228120872943
      ],
      [
        0.14849834568286055,
        0.08384110933203248,
        0.14728339283874672,
        -0.018302361347105563,
        0.10665411361957512
      ],
      [
        -0.2221135446773373,
        0.08198545895472098,
        0.2132878076050864,
        0.19095738330735126,
        -0.01890121430431798
      ]
    ],
    [
      [
        0.07931685076062991,
        0.1173496641801763,
        -0.20667980680461373,
        0.06508931729668405,
        0.1390973116256804
      ],
      [
        -0.07041743297569086,
        -0.061778959214353175,
        -0.09334796496017103,
        -0.02273610374402688,
        0.06329500257297
      ],
      [
        -0.05824263186248056,
        0.15258022647681457,
        0.2867738766398219,
        0.15254782257749522,
        -0.04181950965518207
      ],
      [
        -0.14567178452671042,
        -0.16404528612766622,
        0.1053668194839369,
        -0.23070052143381178,
        0.11111246219956845
      ],
      [
        -0.15496789878445316,
        0.12903306060541708,
        -0.09462239408700868,
        -0.002879951378240111,
        0.21400658096097966
      ]
    ],
    [
      [
        -0.06269450940062593,
        -0.053290892989793184,
        0.04170375086085377,
        -0.15951077656084775,
        0.09720981393243719
      ],
      [
        -0.13785584948412763,
        -0.11028589616669307,
        -0.10487697593569358,
        -0.020142618296245144,
        0.07575153311850702
      ],
      [
        0.1456484344764489,
        -0.18827555297685142,
        -0.04313337980667434,
        -0.15840702436818538,
        0.17473520684936947
      ],
      [
        -0.008243705475278446,
        0.18141615997146054,
        -0.03253448374091028,
        0.09791059551569407,
        0.08523645282349948
      ],
      [
        -0.1945242533604152,
        0.2258800595832179,
        -0.06462322166300807,
        0.19431790739158317,
        0.18904435094909747
      ]
    ],
    [
      [
        0.15694949825336352,
        0.2577155102529341,
        0.1670785866137824,
        -0.081837492809566,
        -0.025126192372530436
      ],
      [
        0.014057152684339646,
        -0.1376240794187576,
        0.10352163217886638,
        0.14769092441731133,
        0.09453667132865018
      ],
      [
        0.07059950500190068,
        0.18065700102409893,
        0.07623847950508433,
        0.2064374170739713,
        -0.07958070164080094
      ],
      [
        -0.08752020426737513,
        0.17737339074025726,
        0.029827645254336056,
        -0.2688565468679021,
        0.12204787444281494
      ],
      [
        -0.15390924650557378,
        0.28866492728266224,
        0.054441404655919595,
        -0.14341554358407754,
        -0.23477023642188222
      ]
    ],
    [
      [
        -0.17262886181362128,
        0.0945417091129341,
        0.13109250758845215,
        -0.10409599353838879,
        0.12753827702402698
      ],
      [
        -0.18272257992035162,
        0.09010381753903776,
        -0.17406383289388297,
        -0.16598393240528336,
        -0.033560527608147254
      ],
      [
        0.030619400041033796,
        -0.052442425971072695,
        -0.25533074766427777,
        0.05104588924131359,
        -0.12087288690128255
      ],
      [
        -0.15346287631089975,
        0.007248634614460627,
        0.14662836255712983,
        -0.13122926225258894,
        -0.1871595423312817
      ],
      [
        -0.2860076156772087,
        -0.10374469000810534,
        0.0593633286388988,
        0.04828448870056615,
        -0.0661213089943668
      ]
    ],
    [
      [
        -0.16927574995823047,
        0.024585259506626794,
        -0.36397805952987244,
        -0.14474427487801345,
        0.12058016184961608
      ],
      [
        -0.02984109209521311,
        -0.2925256799080324,
        -0.22990858844082107,
        -0.2965565370558555,
        -0.24046969544469418
      ],
      [
        -0.15173526842294766,
        0.2375799738711954,
        0.11266588587754549,
        -0.07763218992805415,
        -0.28416368253717517
      ],
      [
        -0.1246471057668968,
        0.1995010201011523,
        -0.15216367157543215,
        -0.31222050871432927,
        -0.37738596380690137
      ],
      [
        -0.12794926094542924,
        -0.1138548119565609,
        0.18535409866880373,
        0.12390395204811115,
        0.058693256336990345
      ]
    ],
    [
      [
        -0.04427332837885129,
        -0.2390006362287585,
        -0.08836459453690806,
        0.09728873632946643,
        -0.08418719280854099
      ],
      [
        0.12707474081786233,
        0.09568841125650326,
        -0.08157608815816002,
        -0.1245590364027503,
        -0.12856350924012575
      ],
      [
        -0.06818467934025445,
        -0.05862337283853157,
        -0.05954456551310579,
        -0.013615649114562239,
        -0.07611554099274488
      ],
      [
        -0.21211783478144333,
        -0.1879850688693517,
        -0.010876250237402343,
        -0.019803470685456653,
        -0.006752806185729667
      ],
      [
        -0.06200555573670474,
        -0.2837285772187779,
        -0.02843543709203695,
        0.1328112039799288,
        -0.09700281869570622
      ]
    ],
    [
      [
        0.19447711972834578,
        -0.07729144879560104,
        0.00881390835920053,
        0.12909161348767142,
        -0.05114964273897102
      ],
      [
        -0.018310899758680388,
        -0.13511185582566004,
        0.008146674842257166,
        0.0745643095513345,
        -0.13196368872067757
      ],
      [
        -0.06356224399756472,
        -0.019598839514512457,
        -0.1922741822824439,
        -0.03731970533689036,
        0.1761711385699144
      ],
      [
        0.05017667424259746,
        -0.18551276051098334,
        -0.05468219462360554,
        -0.21545385242873252,
        0.00319650471955611
      ],
      [
        -0.15151056995994708,
        0.1330354431266452,
        0.1780938059352044,
        -0.1646760988194343,
        -0.15264621094177805
      ]
    ],
    [
      [
        0.04969413517476962,
        -0.04882885630050836,
        0.2932516398337611,
        0.17345574788812249,
        0.1772729527820047
      ],
      [
        0.14269876603400167,
        -0.06317026723577944,
        0.23571317534414152,
        -0.11830439399829523,
        -0.07588087191309245
      ],
      [
        -0.02603475651870726,
        0.055859754627972415,
        -0.15386523255819898,
        -0.08270385355153057,
        -0.11950237995164731
      ],
      [
        -0.14032637254626393,
        -0.06703631605130157,
        -0.16840287688699446,
        0.25348157713630476,
        0.11418930198642979
      ],
      [
        0.18638762468027764,
        -0.09146350012883687,
        -0.01243034845351492,
        0.07853424166349829,
        0.02455047460209529
      ]
    ],
    [
      [
        -0.05760719894557272,
        0.13248866395456443,
        -0.22274131687782614,
        0.09779779060371359,
        -0.018902472373781475
      ],
      [
        -0.20631124163172795,
        0.024283085233555983,
        -0.17743129078819533,
        -0.07519679473612885,
        0.2279755775034111
      ],
      [
        0.030408527774294015,
        -0.1192591391172393,
        -0.15973625971386915,
        -0.08268638954766877,
        -0.2302191827897635
      ],
      [
        -0.060061236316685154,
        -0.023917048272759662,
        -0.2670918107273308,
        0.20641800967767948,
        0.06617509246151514
      ],
      [
        -0.02087591131200643,
        0.18924061151034607,
        0.12813598412219876,
        0.16932424577823915,
        0.06053222973622369
      ]
    ],
    [
      [
        -0.08732266459019898,
        -0.15271586563983994,
        0.07451151380357712,
        0.023391313979719754,
        -0.23632211530929823
      ],
      [
        -0.15040774383263358,
        0.22797444187703902,
        -0.19356573513075137,
        0.2388150919471013,
        -0.02037050788593626
      ],
      [
        0.06265217690713026,
        -0.19995589898318322,
        -0.12545003664089557,
        0.14166138345912832,
        -0.10188839542506073
      ],
      [
        -0.004542725395497867,
        -0.090053116322543,
        -0.25682587501888215,
        0.07735285995405877,
        0.08056991993410054
      ],
      [
        0.02672787540337615,
        -0.24659634891769286,
        -0.006215476438621623,
        0.15426158985192642,
        0.10955257450586271
      ]
    ],
    [
      [
        0.057962413184847,
        0.11972055792562313,
        -0.10409966573245331,
        -0.12214646156270308,
        0.024192674690472076
      ],
      [
        0.13854872924479553,
        -0.13658308213156659,
        0.1301710469009444,
        0.15826679493514165,
        -0.1548516478267389
      ],
      [
        0.06574582897258056,
        0.1039396393574803,
        -0.11948148944892012,
        0.18451777308436226,
        -0.07670447453918136
      ],
      [
        -0.224825083976202,
        -0.13650196005957652,
        0.010356289912635524,
        -0.11489065206457412,
        -0.20851376562171917
      ],
      [
        0.09940454998869042,
        -0.06547651437019977,
        -0.020844974734190457,
        -0.0005265177990955142,
        -0.1337070073951651
      ]
    ],
    [
      [
        -0.24129542691198913,
        -0.17247556238479267,
        -0.045994902712000275,
        -0.27183855431984333,
        0.07000161575096935
      ],
      [
        0.05614258445660024,
        -0.2241934622955,
        -0.21758352642242515,
        -0.1742936706063474,
        -0.20487762951247895
      ],
      [
        -0.2243356682554257,
        0.2440704286826965,
        -0.1218417696726968,
        0.0013392626110944124,
        -0.007210845174964808
      ],
      [
        -0.009907555850469209,
        -0.07563057814764859,
        -0.26809590372454634,
        0.13106067449767805,
        -0.04607089326450776
      ],
      [
        -0.1515044541906204,
        -0.013509756384823901,
        -0.05535475130594563,
        0.11486491853453633,
        0.16361511328608605
      ]
    ],
    [
      [
        -0.04471016030989433,
        -0.14332223305387565,
        0.09381201402922225,
        0.1668963736484619,
        -0.22873706695951276
      ],
      [
        0.15723653572298943,
        -0.06605640098214481,
        -0.14814461703678833,
        -0.18452155841622783,
        0.1725322398181439
      ],
      [
        0.029164860137191884,
        0.0718785028897651,
        -0.09607789458038703,
        -0.18092383124835273,
        -0.07381167494747888
      ],
      [
        -0.030975222333765064,
        -0.14830852825908675,
        0.24087115481629892,
        -0.24125271923639077,
        -0.02027389832095847
      ],
      [
        -0.2268873063089094,
        -0.20272402228973607,
        0.1679930879344189,
        0.028550720688160454,
        -0.23067661915398063
      ]
    ],
    [
      [
        0.035574972984745566,
        -0.24136604692621713,
        -0.2472475357385286,
        -0.14821896248348004,
        0.051289423483393895
      ],
      [
        -0.03201662540781208,
        0.19634799114512677,
        0.16326734883143273,
        -0.09527292597785005,
        -0.2533651423112573
      ],
      [
        0.16807606066479663,
        0.16823267263710373,
        0.1480391845183877,
        -0.3047629750798068,
        0.12102659186381898
      ],
      [
        0.19179479154951007,
        0.17623676810431887,
        0.07808852032994011,
        -0.03872240469952395,
        -0.19436432933321907
      ],
      [
        -0.14011761511854534,
        0.15790125448360598,
        -0.09016853203450995,
        -0.11398601959333055,
        -0.022442169581863007
      ]
    ]
  ],
  [
    [
      [
        -0.08486573081694583,
        0.05865111491334321,
        0.016038887469635072,
        0.07566632442574352,
        0.13955902311503865
      ],
      [
        0.22405810519466726,
        0.08795030370909192,
        -0.18859289715024372,
        0.05541830618388208,
        -0.17844435503578565
      ],
      [
        0.1913192498870393,
        -0.020490252302114986,
        -0.13875209010421014,
        -0.17972704019154556,
        -0.21284702223976457
      ],
      [
        -0.07905222952254178,
        -0.028112143879595458,
        -0.14196231286339298,
        0.13812150681791072,
        -0.18620505821944341
      ],
      [
        0.058891778512657124,
        -0.22869103206524874,
        -0.029769233257878808,
        0.04534043786353128,
        0.2001073505044623
      ]
    ],
    [
      [
        -0.18172903838044094,
        0.17972071651621976,
        -0.1082375126424932,
        0.03351179635462589,
        -0.0601783888352123
      ],
      [
        -0.24504473186883083,
        0.21637390904689877,
        0.11947770068119003,
        -0.0010749931417786684,
        -0.23185227939425024
      ],
      [
        -0.08954300884621376,
        0.13725348681738722,
        -0.09518761501000184,
        -0.1640752751115666,
        -0.07149453854056814
      ],
      [
        0.055179716564021444,
        -0.2512166159747932,
        0.14093594588930763,
        -0.15574867639828857,
        -0.15893952404231207
      ],
      [
        0.044104149814769913,
        0.034396147415004935,
        -0.10695538615056446,
        0.20887440764987206,
        -0.01202447602139246
      ]
    ],
    [
      [
        0.054266762142751,
        -0.2188775947898786,
        -0.23044556946443642,
        -0.24790047721890315,
        -0.2116608197081376
      ],
      [
        0.12224814224847226,
        -0.1585305122320578,
        -0.13880572103259167,
        0.11750139985633244,
        -0.1469167128786407
      ],
      [
        -0.05517198741008602,
        -0.21555095264924534,
        0.06879772742604862,
        -0.11154597159645949,
        0.2477128256229681
      ],
      [
        0.1494227825593517,
        0.029933074848030317,
        -0.19082685819419837,
        -0.15755990764011318,
        -0.14594317277843738
      ],
      [
        -0.19083557782476057,
        -0.06812869933884978,
        0.21551355961064528,
        0.1116804881273905,
        -0.023603215378144082
      ]
    ],
    [
      [
        -0.14718843579178792,
        0.20695568290961078,
        0.13583613024648128,
        -0.016566244646503994,
        0.026939831699444455
      ],
      [
        0.18323369110595236,
        -0.05318962206733565,
        -0.02283835704442318,
        -0.012888340356965646,
        0.10187352662239745
      ],
      [
        0.13197701276394821,
        -0.12154565180175902,
        0.023141703137780592,
        0.20339473733120775,
        -0.05854992814250771
      ],
      [
        -0.036691838346122586,
        0.195302683995915,
        -0.19996237171217482,
        0.1867913050782087,
        -0.0144570744510455
      ],
      [
        0.12231545405091228,
        -0.11215804689453511,
        -0.18529681557487068,
        -0.11295125995911826,
        -0.05156345161249205
      ]
    ],
    [
      [
        -0.23544219686696677,
        0.011222787476578143,
        -0.03903673442485089,
        0.14446955924679253,
        0.23451630799915957
      ],
      [
        -0.07814104951699698,
        -0.1811950131153825,
        -0.09469758486003192,
        -0.022124620653062792,
        -0.02600955635893853
      ],
      [
        -0.1616801824437924,
        0.15714758287531944,
        0.18198692506320263,
        0.027116116646843835,
        0.16665551680664892
      ],
      [
        0.0692832486985233,
        -0.23729718731829522,
        0.0859361386913983,
        0.23995623893846763,
        0.07245247359292228
      ],
      [
        -0.08956853293331064,
        -0.04381731130821665,
        0.034677183007862496,
        0.05439499855756184,
        -0.05399353661210284
      ]
    ],
    [
      [
        0.1922159618156846,
        0.1667280497225031,
        0.012785866786014793,
        -0.18092820566372234,
        0.04344220672015837
      ],
      [
        -0.06448857843949031,
        0.1834768945884829,
        0.21179391312770549,
        -0.15206702437609626,
        0.2368604648126819
      ],
      [
        -0.1856013292599533,
        -0.20274648605075185,
        -0.23559718467367366,
        -0.08751423590712165,
        0.17776395939412457
      ],
      [
        -0.1714127080745791,
        -0.05056809366873705,
        -0.24155595473340508,
        0.13351764975450742,
        -0.22704733089776638
      ],
      [
        -0.08128422551364022,
        -0.18034127949486917,
        0.031949374656485355,
        -0.19053753220272115,
        -0.2328177815211525
      ]
    ],
    [
      [
        -0.010118463856707028,
        -0.036631087314156596,
        0.0364737234477027,
        -0.23286857916166848,
        0.15403215502047454
      ],
      [
        -0.08110066676508543,
        -0.10149347248026676,
        0.042767957662409116,
        -0.18766963958311425,
        -0.09492967777986665
      ],
      [
        -0.21222961104793991,
        -0.09547782021723691,
        -0.053537263328268504,
        -0.0574851191588616,
        -0.20591430059941337
      ],
      [
        0.05840713373915698,
        -0.010169369172686455,
        -0.02154206317136399,
        -0.08493982633641757,
        -0.10448374707618116
      ],
      [
        -0.2410104927305048,
        0.0016915922575464922,
        0.12192221919673368,
        0.04800989153963893,
        0.12051287377592172
      ]
    ],
    [
      [
        -0.17034049824308833,
        -0.12633396649604875,
        -0.027873172305586693,
        -0.18538138051405192,
        -0.04994378384223488
      ],
      [
        0.10946312599621355,
        -0.10954851845200085,
        0.20515457152118624,
        0.20764405548339507,
        0.0862027653607092
      ],
      [
        -0.21719370854525796,
        0.07969206119107689,
        -0.07234299815383885,
        -0.10979623104420877,
        0.00808432562612145
      ],
      [
        0.0743562024891964,
        0.23009210055595988,
        -0.08486433477392731,
        0.1960197128219274,
        0.11308205247796412
      ],
      [
        0.12399369383113126,
        -0.1746170428200687,
        -0.0991909796811459,
        -0.11786890459283046,
        0.206083512843392
      ]
    ],
    [
      [
        -0.08909886509557584,
        0.09838584139599836,
        0.1576618595355788,
        0.2214268451689292,
        0.12580007540724683
      ],
      [
        -0.22645905983293854,
        0.24290865358621874,
        0.11884589147268647,
        0.21897382509917895,
        0.10859759948280583
      ],
      [
        0.17214742882866824,
        -0.06747286151690725,
        0.19237559254932554,
        0.16217387956927357,
        0.16651219905605594
      ],
      [
        0.07675355154114896,
        -0.21199472384105686,
        0.1098291298567258,
        -0.10619412164418482,
        -0.21468066877985778
      ],
      [
        -0.14399770622619412,
        0.13463050864320056,
        -0.06870351490555111,
        -0.1070110951962872,
        -0.100886171034803
      ]
    ],
    [
      [
        0.07182618639808933,
        -0.2153315631313809,
        0.20666111793062325,
        -0.1616569641592284,
        -0.20942242201623604
      ],
      [
        0.2076406827160244,
        0.010023876664006557,
        0.09676980517053838,
        0.19878519976824985,
        -0.09909302995272232
      ],
      [
        0.22155383148410027,
        0.1069089703517957,
        -0.1814053202588111,
        0.11318742339777546,
        0.06884991109343822
      ],
      [
        -0.05822195469539997,
        -0.08080073802160424,
        0.0033665637124430043,
        0.10754642783355019,
        0.0611960129275729
      ],
      [
        -0.17412441865929087,
        0.12849736380657772,
        0.010897582649467528,
        -0.14141058463281458,
        0.20279841266610976
      ]
    ],
    [
      [
        0.15853904432454227,
        0.06294066542504832,
        -0.13608220670298543,
        -0.16995255555308367,
        -0.0919966493863721
      ],
      [
        0.034982870123736784,
        0.08070407259424958,
        0.001628034290532689,
        0.17271640698101,
        0.06926690132231363
      ],
      [
        -0.03706187700530677,
        0.07775704761602296,
        0.07960061303307694,
        0.19419502231382849,
        0.050050357886330075
      ],
      [
        0.24069620948993578,
        0.12391991101915927,
        0.0031140528120882104,
        -0.10488434586690236,
        -0.12520434862500385
      ],
      [
        0.20170746216112978,
        0.17635181284858456,
        -0.18184577077876643,
        -0.1799739337628215,
        -0.1955795266592144
      ]
    ],
    [
      [
        0.21596735152660115,
        -0.16921809095345,
        0.12240579730191195,
        -0.07870770724730693,
        0.2080669249674108
      ],
      [
        -0.09947098032664588,
        -0.14855322726376835,
        0.18539149384814954,
        0.18491358431350916,
        0.05059076636506755
      ],
      [
        -0.1745906485540411,
        -0.14275724305408521,
        -0.10717781036638221,
        0.14328654215821424,
        0.024115603081724838
      ],
      [
        0.17084526739032335,
        -0.23409720830594583,
        -0.21970873968104027,
        0.16197506988820765,
        0.24407597806020637
      ],
      [
        -0.09730466201795573,
        -0.10694582634548168,
        -0.09225551214617549,
        0.06468881653275274,
        -0.06829310197327881
      ]
    ],
    [
      [
        0.19375022942187967,
        -0.07845367580235292,
        -0.20047656317533452,
        -0.0685013145795501,
        -0.02538145152502999
      ],
      [
        -0.18892050444789035,
        0.14338065322039262,
        -0.022211244917054646,
        -0.2010718039358116,
        -0.1707278760682012
      ],
      [
        0.18928864166171985,
        0.0664748572394909,
        -0.11727692562810497,
        -0.23462278334292136,
        -0.1315618557495376
      ],
      [
        -0.23104555451716705,
        -0.1791987492690954,
        0.1439008227957292,
        0.221047577112378,
        -0.01414755970365944
      ],
      [
        0.21234262322302774,
        -0.057301294409492595,
        0.10869593693118665,
        0.11176006972362826,
        0.15841360765673287
      ]
    ],
    [
      [
        -0.036015583450643825,
        0.034306258317110594,
        -0.17309231812002634,
        -0.18748537792704648,
        -0.18650328576754163
      ],
      [
        -0.21254996474536014,
        -0.02248189757978122,
        -0.018233118175190025,
        -0.1019054104364465,
        0.1573927592014435
      ],
      [
        0.21346915974525157,
        0.1670505962145963,
        -0.09027312903293812,
        0.17739598521371722,
        0.1754695811931635
      ],
      [
        -0.0697485891363275,
        -0.050364057788084754,
        0.23986534221092515,
        -0.17598126819943483,
        0.05653975561325854
      ],
      [
        -0.0379081061702791,
        0.19913954245973284,
        0.07584593417168364,
        0.0854053739982442,
        -0.08381844172495577
      ]
    ],
    [
      [
        -0.04537659140953752,
        -0.18684999416453857,
        -0.1942063961926763,
        0.1974526771920186,
        -0.17254823864928331
      ],
      [
        0.06214525648947742,
        -0.23446169391641666,
        -0.24871394200879526,
        -0.11327827419423177,
        -0.06888054288394055
      ],
      [
        -0.018994717853446266,
        0.18180020706356464,
        0.05095352793793225,
        -0.2231740809151667,
        0.14345583687234972
      ],
      [
        0.028765026181018418,
        -0.2342580988793598,
        -0.15664015158451633,
        0.10163764009197798,
        0.11424629941039421
      ],
      [
        -0.15122980623733834,
        0.21190510580496724,
        0.08645836733789783,
        -0.07778312314326438,
        -0.12963444390003617
      ]
    ],
    [
      [
        0.1668670026506104,
        0.2319407674264394,
        -0.13405555846768383,
        -0.1066987278355523,
        -0.11979184597188915
      ],
      [
        0.03891437618000067,
        -0.07979861093159824,
        -0.11715163810043579,
        0.010193522935765574,
        -0.12717975176667584
      ],
      [
        0.14316049152628793,
        -0.12902582689753175,
        -0.13828895713614744,
        0.19246036266681596,
        -0.09952775802458812
      ],
      [
        -0.06260998710291868,
        0.2426705368906906,
        -0.10706337169592209,
        -0.1865065418097096,
        -0.04468372341560204
      ],
      [
        0.07764635194238144,
        -0.1683459874967481,
        0.05672838874234204,
        -0.17900567080984126,
        0.02275026181162337
      ]
    ]
  ],
  [
    [
      [
        -0.08415100528624034,
        -0.04311037219838206,
        -0.1071428917075505,
        -0.2489722620702376,
        -0.21093431789055603
      ],
      [
        0.1150990788220586,
        -0.08062092108872834,
        0.0122195983727085,
        -0.11845420578050626,
        -0.2846927589743023
      ],
      [
        0.05843001968661178,
        0.1574158269037475,
        -0.071770913328064,
        -0.09218337809588621,
        -0.24994484774340264
      ],
      [
        -0.22993455092037512,
        -0.2721809004122039,
        0.05122664333809126,
        -0.1509182358547828,
        0.06962773465280035
      ],
      [
        -0.04536409769227425,
        -0.13050026654182112,
        -0.12799161966872946,
        -0.27917572719903494,
        0.017283483014974853
      ]
    ],
    [
      [
        0.04544507842273475,
        0.16638627761599636,
        -0.005078277322778275,
        -0.021271835600115904,
        -0.1695352109054644
      ],
      [
        0.2008654302449073,
        0.004526528389751038,
        -0.1718172005851881,
        -0.020572202176296402,
        -0.0018205856548477038
      ],
      [
        -0.23787268806092676,
        -0.017749532023405103,
        0.19077612281454728,
        0.20265639611280278,
        0.03949483521022168
      ],
      [
        -0.12859145282109571,
        0.06060751702799176,
        0.14680250998878713,
        0.03592049851841508,
        -0.16282180638249275
      ],
      [
        0.11954627361710111,
        -0.02516742190227513,
        -0.1614978821505656,
        -0.11043660208292337,
        0.1702882751697119
      ]
    ],
    [
      [
        0.17464021406434724,
        -0.013573941055525302,
        0.22148452615930547,
        -0.13649713555370363,
        0.1844827259672017
      ],
      [
        0.2525704479046288,
        -0.07485108135533233,
        0.2383716199397967,
        0.20754114091207057,
        0.11174880363937498
      ],
      [
        0.19859610113387255,
        0.23040630787908847,
        0.15153252040372076,
        0.018684800453855892,
        -0.1706999406049882
      ],
      [
        0.247999798620345,
        0.12203612992004867,
        0.027977456334844924,
        0.18414436928856084,
        0.17070660811960212
      ],
      [
        0.217624849695971,
        -0.06674444521848337,
        -0.08795075240677305,
        0.1043792738988132,
        -0.08185273233990022
      ]
    ],
    [
      [
        0.12658862749490618,
        0.13120998033395004,
        0.19973543890266252,
        0.12065951750676186,
        0.016234605577487515
      ],
      [
        0.13991217719749557,
        -0.14331553479286913,
        0.03148726089712959,
        0.2408162493202929,
        0.1843518475355639
      ],
      [
        -0.212399638190954,
        -0.15408019100632256,
        0.128495494162941,
        -0.17918681725396726,
        -0.023569222613909292
      ],
      [
        -0.2723592157021073,
        -0.21694076885228414,
        0.06523998619992774,
        0.14534055182855288,
        -0.26586245525040614
      ],
      [
        -0.21594832437383044,
        -0.19265488337150136,
        0.011290907739960736,
        0.17297644780428587,
        0.039681848644266826
      ]
    ],
    [
      [
        0.19540005126098692,
        0.0048379583866829095,
        -0.016979408957889686,
        0.1924003307255643,
        -0.10832869809267871
      ],
      [
        0.011360238226899662,
        0.17259556854750083,
        -0.0914381350867833,
        -0.09147061660514538,
        0.033025361704509267
      ],
      [
        0.08957711572284623,
        0.1707481468495813,
        0.21822241211272192,
        -0.0196456715655684,
        0.24341763546972167
      ],
      [
        0.17051112909910907,
        -0.028537013980859654,
        -0.07445372124873754,
        -0.012606045610806164,
        0.18211899941381363
      ],
      [
        -0.09537741339766487,
        -0.0013094613728097764,
        0.17789501150870385,
        0.16470590558691223,
        0.2830898605111807
      ]
    ],
    [
      [
        -0.22002416369264935,
        0.1675812223020267,
        -0.26931594046593965,
        -0.2540138356479579,
        0.0778256466018724
      ],
      [
        -0.2003342365419331,
        -0.2177667108343977,
        -0.042723972741503545,
        -0.17642594464681965,
        -0.14956433357992324
      ],
      [
        -0.07020265689407143,
        -0.08430370792855886,
        0.13768322448587952,
        0.03493471976543015,
        -0.025831833787707374
      ],
      [
        -0.1336987901545288,
        -0.09587793732442776,
        -0.11496381403180281,
        -0.23804742430669432,
        -0.10808384501528367
      ],
      [
        -0.2660613144066403,
        0.06898330779334637,
        0.13541721052703273,
        0.12795908230556874,
        0.02601983132191482
      ]
    ],
    [
      [
        0.18516690235952488,
        -0.09084761372493579,
        0.08464715011856695,
        -0.22153038323145155,
        -0.08022965954862396
      ],
      [
        -0.06869398593562125,
        -0.23454263715435442,
        0.10632905607297372,
        -0.09304774997883124,
        0.21012482467439417
      ],
      [
        0.1739923491999978,
        -0.16093455038068538,
        0.06054815223574849,
        0.16399126656895519,
        -0.06621001065527557
      ],
      [
        0.22825679304484886,
        0.15237486013932164,
        -0.078996599786725,
        -0.12977764116421686,
        0.12405338547326386
      ],
      [
        0.1845930401496951,
        0.07128931395563029,
        0.17236115535282615,
        0.13061646165704788,
        0.02775917690559376
      ]
    ],
    [
      [
        -0.15461565620897788,
        -0.12567253303288797,
        -0.043030016929646725,
        0.08412492806801186,
        0.021225148636413883
      ],
      [
        0.023203965800676712,
        0.17960049711458384,
        -0.21884163716404698,
        -0.08447818521728473,
        0.23437321930552896
      ],
      [
        -0.05238070139177513,
        -0.11881008859721617,
        0.0690338065297518,
        -0.14677793052696722,
        0.09627433211123254
      ],
      [
        -0.1816003751760031,
        0.12475117210611598,
        -0.22943327320100607,
        -0.2212618744336072,
        0.19447093663644255
      ],
      [
        0.1969915536456554,
        -0.23751151982705163,
        -0.0454880025753097,
        0.020677397927626264,
        -0.13116498607476867
      ]
    ],
    [
      [
        0.16675065720180915,
        -0.11638838984774422,
        -0.029195320875766272,
        -0.19127428804652954,
        0.23875977352833547
      ],
      [
        0.10900542690704987,
        0.08481270352022473,
        0.11425669310126256,
        0.06847393745181715,
        0.20577380295156672
      ],
      [
        0.12111709576608914,
        0.01791675442343946,
        -0.18662933482855718,
        -0.11416300713992233,
        0.14663476809870227
      ],
      [
        0.05738121245280002,
        0.032438275256887146,
        -0.16281402435759962,
        0.1535224325321772,
        0.07667015350330234
      ],
      [
        -0.12995331179568853,
        0.17038233471285838,
        -0.2536327434959484,
        -0.2259736427726749,
        0.11721481753260915
      ]
    ],
    [
      [
        0.14902136785290043,
        0.054335942394655425,
        -0.01046517674015639,
        0.039190968077875095,
        -0.20149892938887898
      ],
      [
        0.02324920022066684,
        0.19750149037289702,
        0.22057699823768245,
        0.017677410215306208,
        0.1459858617307146
      ],
      [
        -0.015851706492057676,
        -0.005480460491600538,
        -0.16652804261570078,
        0.1437027173008573,
        0.07259272564725817
      ],
      [
        0.1315322784709814,
        -0.09981040778092501,
        -0.0036038970988760835,
        0.11997138243789719,
        0.23917028049631736
      ],
      [
        -0.15267974582784216,
        -0.15914805601342746,
        0.026947984122190426,
        -0.0868839459866692,
        0.16182140516450794
      ]
    ],
    [
      [
        0.2020462959737322,
        -0.2130040380191748,
        0.012310683475785008,
        0.09202028747790113,
        -0.059015289087492484
      ],
      [
        0.06333282765860392,
        -0.18021468120361747,
        0.043802757618311663,
        0.2327644609331893,
        0.052223920280726456
      ],
      [
        0.1607570431959216,
        -0.23893010509345688,
        0.10807151893306807,
        -0.04158363627000436,
        0.10126547608994786
      ],
      [
        -0.031022624071412208,
        -0.149260493609196,
        0.03574061215000006,
        -0.16546908962321308,
        -0.12064098890921932
      ],
      [
        -0.04810857105972801,
        -0.17856575240731662,
        0.20031731723846194,
        -0.06783629453030265,
        -0.15367017216863332
      ]
    ],
    [
      [
        0.10066121913112983,
        0.004355948426005942,
        0.03211219589618059,
        0.19388089225744365,
        0.17825428018384434
      ],
      [
        0.20604534964259458,
        -0.06440004730387319,
        0.05598242250588153,
        0.04196976288482089,
        -0.11367488398727624
      ],
      [
        -0.06570088452024456,
        -0.03761890644489397,
        -0.04122057500618146,
        0.23179932413256726,
        -0.11556405780344384
      ],
      [
        0.04968506388264626,
        0.09039038377575327,
        0.08470404608184211,
        -0.20759261396358042,
        0.06621392293268606
      ],
      [
        0.06227666536519061,
        -0.0833611195060036,
        0.27042238384485295,
        -0.06621652888505279,
        0.12105846710404455
      ]
    ],
    [
      [
        0.20353965427077858,
        0.003963849345176624,
        -0.0188154811119586,
        0.22599162626286778,
        0.0532940158367429
      ],
      [
        -0.15341738022906562,
        0.05234786504563284,
        0.0695788861565951,
        0.08105491111294376,
        0.25483892177214074
      ],
      [
        0.19385320279783302,
        0.24517676387844192,
        -0.11649097147061274,
        0.036024649656090306,
        -0.14175700835669153
      ],
      [
        -0.11119064211239833,
        -0.21459136255808509,
        -0.002041013135198125,
        0.06633971096441672,
        0.13683330046910186
      ],
      [
        0.03570116023825815,
        -0.1169741013169257,
        0.0832818207022681,
        -0.16948088935700947,
        0.27092391933942067
      ]
    ],
    [
      [
        0.04568961342247605,
        -0.06918640382264235,
        0.06696112526134333,
        0.03575527374281215,
        0.06688647568921283
      ],
      [
        0.09800580663140238,
        0.12622585023634306,
        0.16728435060074265,
        -0.12901427719813657,
        0.08528089157351663
      ],
      [
        0.022407503578234317,
        0.04663601791155315,
        0.23362039954147196,
        -0.1263862738371732,
        0.015594577068196492
      ],
      [
        0.08467456292725536,
        0.27146889512811156,
        -0.1321175568466876,
        0.20791377747100168,
        0.2730829856280384
      ],
      [
        -0.08688366441169953,
        -0.006770810305544187,
        0.006882112851814234,
        0.1563989456580469,
        0.15895277694919877
      ]
    ],
    [
      [
        -0.1010231275527581,
        0.16733386941349873,
        -0.06497191866352123,
        0.22113030476029788,
        0.2151328270932556
      ],
      [
        -0.20173870860952245,
        -0.03075408778245251,
        -0.12758430282379665,
        0.03623031000450879,
        0.03648008572254861
      ],
      [
        0.040871885341972385,
        -0.136798060558513,
        -0.17325709804957545,
        0.010815343587768029,
        0.29418857404916804
      ],
      [
        -0.1202529801607826,
        0.20306430121907076,
        -0.020092988549493186,
        -0.018266945702552228,
        -0.06631361018738623
      ],
      [
        0.01421059638386961,
        -0.176959676401098,
        -0.04798628347324755,
        0.07855025214774565,
        0.018052698937541665
      ]
    ],
    [
      [
        0.11311585233746892,
        0.1438709429960837,
        -0.022371917088701877,
        -0.10479753320704044,
        0.15731641420859474
      ],
      [
        -0.32935592507200945,
        -0.09237850819809247,
        0.027810911030286673,
        -0.2807696772973886,
        -0.18544396288335752
      ],
      [
        -0.04642775716215239,
        -0.1338047514941499,
        0.0031741051281359797,
        0.0904830759785125,
        -0.18160457773939429
      ],
      [
        -0.24246853460045525,
        -0.05323357093723343,
        -0.35703286507170573,
        -0.14470881229259006,
        -0.23827335754737552
      ],
      [
        0.017056599524097594,
        0.0258017905542525,
        -0.017129763734450423,
        0.0002144018336521085,
        -0.21129988139322137
      ]
    ]
  ],
  [
    [
      [
        -0.06795285502479903,
        0.10807466163573752,
        -0.044141675258894356,
        0.16422168522962707,
        -0.12249384320753105
      ],
      [
        0.15444612223668663,
        -0.02182058947590434,
        -0.21901311160471773,
        0.021830228252828647,
        -0.09839350989773203
      ],
      [
        0.18465977195235891,
        0.06287546702727942,
        0.13493815661649766,
        -0.1778589722012794,
        -0.03309640917861887
      ],
      [
        0.02269489113083589,
        0.10515720373725464,
        0.1628914845290602,
        -0.26965211258809774,
        -0.09214193241178605
      ],
      [
        0.11236174981569898,
        -0.021262158685040358,
        -0.19723185247741354,
        -0.07207970216270042,
        -0.1348427379682615
      ]
    ],
    [
      [
        0.15999481842270638,
        0.04794904776796617,
        -0.06572764894682784,
        0.05167372103462676,
        0.16324146496654024
      ],
      [
        -0.16222923098139155,
        0.1447935415672322,
        0.23371702334941594,
        0.07367611908724721,
        0.06788228279679571
      ],
      [
        -0.08855068392705476,
        0.21620497502298233,
        0.2630001993733107,
        0.06341431575792553,
        -0.09151279345731346
      ],
      [
        0.21937994080664278,
        0.1444603950827819,
        0.06260003332560342,
        0.10381115154756532,
        0.03507246453277296
      ],
      [
        0.03190894948660883,
        0.23732583924849784,
        -0.21042794501518772,
        0.022314332943383246,
        0.07095181178409667
      ]
    ],
    [
      [
        -0.20480103647092765,
        -0.19934490581976316,
        0.0044454321067992,
        0.11849477935137286,
        0.03915818891389094
      ],
      [
        -0.12453688418638083,
        -0.18735521773741762,
        0.01667478773968317,
        -0.052574302657004364,
        -0.14678578575427118
      ],
      [
        0.10717759057173386,
        0.23975779866989752,
        -0.2108026556598897,
        -0.07255185031599738,
        0.12664767015251877
      ],
      [
        0.06023102771191272,
        -0.1662055824540987,
        0.22304202053450484,
        -0.12827204471037093,
        -0.17578012969754758
      ],
      [
        -0.01893569044936599,
        0.11217857540195503,
        0.19859986543705316,
        0.026270182245060728,
        -0.026705452348761424
      ]
    ],
    [
      [
        -0.15774834266547905,
        0.0147652826635015,
        -0.14514076454772148,
        0.07187038316397833,
        0.20711505486785942
      ],
      [
        -0.04975772397827639,
        0.17913358030332316,
        0.0490242243958767,
        0.140686497088924,
        0.014525115137965592
      ],
      [
        -0.020401660693769683,
        0.08014371212319274,
        0.02832264786517771,
        -0.10425770777252116,
        0.0019661734049999957
      ],
      [
        -0.22408224864585552,
        0.21178124937188386,
        0.13133392415521242,
        0.11953237183425953,
        0.11550104776348462
      ],
      [
        0.08649829456108382,
        -0.08049175745873254,
        0.03834846178069903,
        0.004008792616162537,
        -0.060244388610888905
      ]
    ],
    [
      [
        -0.04923843260554255,
        0.1420840888656631,
        0.19388842787032798,
        -0.23739574939599817,
        0.15963660210600597
      ],
      [
        -0.07908797859297773,
        0.25563315274023934,
        -0.1572487799679775,
        -0.10126325563620482,
        0.052846698923282996
      ],
      [
        -0.205960881472938,
        0.18544144883833136,
        0.07372008084141855,
        -0.1912282416629273,
        0.08907204755902179
      ],
      [
        0.004050960006163206,
        0.016276248485424014,
        -0.05556426345064836,
        -0.17223582637120827,
        -0.31729528241317884
      ],
      [
        0.08914801456479488,
        0.20894594692193397,
        -0.04745376678211899,
        -0.1959922841152475,
        0.1675777467024784
      ]
    ],
    [
      [
        0.24286899036863613,
        0.15398403666170302,
        -0.022569624146141748,
        0.16195545152764762,
        0.09896168569826656
      ],
      [
        -0.07345351026265429,
        0.06501332341269489,
        -0.11118742400038609,
        0.11196508511823079,
        0.08833896875485157
      ],
      [
        0.05914657035335419,
        -0.02086481257845069,
        0.12141716505524167,
        0.14138815267561924,
        0.12686696978140047
      ],
      [
        -0.13294949905094183,
        0.19785655172671274,
        -0.1043890387150543,
        -0.17990122017317933,
        0.1454415412184765
      ],
      [
        -0.20161277036922234,
        -0.17852856720658658,
        -0.12511420233792556,
        0.11549947028743013,
        -0.12253792225647586
      ]
    ],
    [
      [
        -0.11701536523277845,
        0.09361612628247115,
        0.02366085465803865,
        -0.1693470384962752,
        -0.2963770887050956
      ],
      [
        0.17125183726082654,
        0.10167125906065216,
        -0.277162999563192,
        -0.04007838976959822,
        -0.11885280796170795
      ],
      [
        0.20904151865790085,
        -0.1347282768970203,
        -0.2444692858369702,
        0.10156253827650653,
        -0.06751032060082365
      ],
      [
        0.12791693298820678,
        -0.2875470228839156,
        0.14147850169998544,
        -0.03855943392458545,
        -0.19353011562655478
      ],
      [
        -0.10352349886327099,
        0.12543806141532543,
        -0.030764353652160494,
        -0.24338466304729292,
        -0.3011312491268714
      ]
    ],
    [
      [
        0.1614655277494571,
        -0.13028039331046343,
        -0.2690736679062571,
        -0.23584812949684433,
        0.17858866516785815
      ],
      [
        -0.1639678093471362,
        0.0576557397681957,
        -0.013080233301018318,
        0.003777633730796373,
        -0.20197259940999934
      ],
      [
        -0.2742342368138794,
        -0.24651684000493929,
        -0.21482898077010618,
        -0.19000952886155584,
        -0.030001636987162336
      ],
      [
        0.1289713267246387,
        -0.24741480767746385,
        -0.1681044682403009,
        -0.26990642995069003,
        0.004057904049610083
      ],
      [
        0.14966018862702446,
        -0.2301324109894337,
        0.21777378335731368,
        -0.01456622617320376,
        -0.22426028722428407
      ]
    ],
    [
      [
        0.014979585637184167,
        0.19786589015253625,
        0.19525000783302407,
        -0.20363239916555753,
        0.128934984730233
      ],
      [
        -0.24413260875467951,
        0.18310190743724764,
        -0.15832017157229397,
        0.09222960009216163,
        0.10910932389653577
      ],
      [
        -0.0043075367880717665,
        -0.12115286531260959,
        0.049108829155329735,
        -0.14303230729794436,
        -0.040692100923744305
      ],
      [
        0.10452502867961777,
        0.20070995431087663,
        0.04396790931134773,
        -0.04241287657011895,
        -0.17813237066493895
      ],
      [
        -0.16288645551701159,
        0.12342255784402104,
        0.2117618470514447,
        -0.1738104889483635,
        -0.11405273181962186
      ]
    ],
    [
      [
        0.17561851981154233,
        0.23252831382075828,
        0.15542579384508384,
        -0.14963892726859485,
        0.11656068152865645
      ],
      [
        0.1578425766368817,
        -0.08843418241691195,
        0.2489839099451332,
        0.09166239003357737,
        0.15132628725340652
      ],
      [
        0.1771625569498514,
        -0.13591793920845488,
        -0.14627956241919324,
        0.1454580789674409,
        -0.25468450290103367
      ],
      [
        0.2132304886063839,
        0.12617073299084294,
        0.11334547186441397,
        -0.037404443495464915,
        -0.1032258079004367
      ],
      [
        0.012402168762642935,
        -0.16080559794589214,
        0.13604308704145343,
        0.19687098709568504,
        -0.020641277211445878
      ]
    ],
    [
      [
        0.1682778726481465,
        -0.0699819908702029,
        0.11808405352753071,
        -0.08735888732889248,
        0.18062052010967358
      ],
      [
        0.06365650720442202,
        -0.1312513707387553,
        0.027758212892167403,
        -0.08383956784962915,
        -0.1486627769525346
      ],
      [
        0.22513469843809433,
        0.06186732889570775,
        -0.14787679563101194,
        0.08598778618001346,
        0.04379286983472523
      ],
      [
        0.07296695058462425,
        -0.11687813078079456,
        0.08572939063010081,
        -0.07195627912791108,
        0.0885765013325586
      ],
      [
        0.01477661194372711,
        -0.20779238060503205,
        -0.1905027253688672,
        -0.002347728367665959,
        -0.2146005212960111
      ]
    ],
    [
      [
        -0.14142271679274607,
        0.07784532158109606,
        -0.14300050546256998,
        -0.03174433426966707,
        0.052340217407613084
      ],
      [
        -0.11338207502828036,
        -0.22031587605925684,
        -0.13151483703235897,
        -0.02005139767615752,
        -0.03403975076867101
      ],
      [
        -0.038928332127964406,
        -0.18624039087196168,
        0.11292086537046588,
        0.16460292000044854,
        0.1212303763095674
      ],
      [
        -0.011099509060316023,
        0.12042424258975494,
        -0.15263624685837746,
        -0.009169540254156446,
        -0.24160712865099607
      ],
      [
        -0.039525422602456305,
        0.1266920867546472,
        0.0313626870444082,
        0.22647666536790104,
        -0.21292532428005473
      ]
    ],
    [
      [
        -0.012555283346279105,
        0.029355250335349265,
        0.1113716901246651,
        -0.23973292606505225,
        -0.021571162785857804
      ],
      [
        0.1008213490389834,
        0.009091506092827736,
        0.15944908848287562,
        -0.20978028786521305,
        -0.2757586514046164
      ],
      [
        0.2116418701437403,
        -0.23509311729315413,
        -0.2528783682414172,
        -0.1515873061655587,
        -0.16789844930958928
      ],
      [
        -0.06399377940500472,
        -0.06686099397081476,
        0.061338161944795945,
        0.14843996040904375,
        0.07383964590870612
      ],
      [
        0.0621588694270095,
        -0.11538213085582812,
        0.21954785992721157,
        0.22638571156609805,
        -0.05655557505220444
      ]
    ],
    [
      [
        -0.006114343421130715,
        0.13419304384341316,
        -0.003568823266071322,
        -0.1636818932733485,
        -0.05171381656812934
      ],
      [
        0.05211088309717824,
        -0.12839714984770395,
        -0.03897922250511945,
        -0.18018316016662717,
        -0.08350754805040622
      ],
      [
        0.05907310466926017,
        0.1367525759871843,
        -0.0460477556036952,
        -0.1445997589890799,
        0.031990322974525545
      ],
      [
        0.220662315956594,
        -0.26907983637208266,
        -0.11862995176993617,
        0.19918895400634537,
        0.11407350912878578
      ],
      [
        0.12472235806943702,
        0.11035707717411368,
        -0.044734261420654876,
        0.020045715152232038,
        0.11156106263309744
      ]
    ],
    [
      [
        0.06412589560849045,
        0.14765894858380066,
        0.18008839074467162,
        -0.04743529509654954,
        0.1277596511310816
      ],
      [
        0.13876449749255654,
        -0.06959375650367743,
        -0.05078003790449694,
        0.05033632198440548,
        -0.2695584487458476
      ],
      [
        0.2653953744254609,
        -0.038989293806713586,
        -0.12516991284554163,
        0.13318555425299528,
        -0.23964892649849662
      ],
      [
        -0.20619492897194144,
        -0.05890931984138601,
        0.09022986950609885,
        0.1874251122033715,
        -0.22444065638588706
      ],
      [
        0.11841150016756442,
        0.186488022229849,
        0.10400524403054852,
        0.020631517218433988,
        0.13004342712904216
      ]
    ],
    [
      [
        -0.07196829378239862,
        0.11462391154808244,
        0.08391103850008638,
        -0.027183838733251794,
        -0.21455492472611376
      ],
      [
        0.043377479834625074,
        -0.18219733316989378,
        -0.04552258947553261,
        -0.2073269528622041,
        -0.24319424832042022
      ],
      [
        -0.23153973571470782,
        0.13639108893412533,
        -0.1051005016986002,
        -0.1343343629468375,
        0.1552657717620998
      ],
      [
        -0.18857024079369755,
        0.05665303807883812,
        -0.018670039727707314,
        0.111514171845945,
        0.17012840665931805
      ],
      [
        -0.13512079349496994,
        -0.09303372664392787,
        -0.06341676568728047,
        0.13816518863391025,
        -0.28014913388038654
      ]
    ]
  ],
  [
    [
      [
        -0.13979386344606856,
        0.02722099231481782,
        -0.054019394003035924,
        -0.0586974536649334,
        0.1301237122355676
      ],
      [
        -0.009144283650197912,
        0.2866398911019524,
        0.04524967819606437,
        0.020270666817570577,
        -0.07345961918111776
      ],
      [
        -0.03642202429613856,
        0.26687978057220657,
        0.06600401290926729,
        -0.007601066424345268,
        0.2495918905984779
      ],
      [
        0.13496921906159315,
        0.06937384872620452,
        0.18353436381134283,
        0.22227454067577512,
        -0.1538132565787433
      ],
      [
        -0.05493014447167006,
        0.13083279618299581,
        -0.0736674707221915,
        0.09607748090601696,
        -0.13605943879972246
      ]
    ],
    [
      [
        -0.022549524140970816,
        -0.07751500779167436,
        -0.002989134175111209,
        0.023375077640311485,
        0.03473596236468798
      ],
      [
        -0.17528947828061042,
        0.23027995873733542,
        0.18258256759904187,
        -0.1521919812803694,
        0.17578518023814602
      ],
      [
        -0.15044343759275827,
        -0.20109677647013513,
        0.10958111748253366,
        0.21355115154847862,
        0.14411316896688361
      ],
      [
        0.03846007900341501,
        0.17752758324477314,
        -0.20422532576682464,
        0.028193616841863917,
        -0.03594227249455065
      ],
      [
        -0.05631258782634271,
        0.11150744051677007,
        0.22680350023722642,
        -0.06488962130245303,
        0.08862429833032102
      ]
    ],
    [
      [
        0.24121778429533283,
        -0.08303817159847525,
        0.018106770383338824,
        -0.12425153745767946,
        0.23319445854930687
      ],
      [
        0.12065215659856447,
        -0.21109954012221216,
        0.06290891630504936,
        -0.08319775033664835,
        0.1598138144849591
      ],
      [
        0.24179898703938296,
        -0.17985832827727938,
        0.03514091020817821,
        -0.1577785786364511,
        0.19372223400901215
      ],
      [
        -0.141661243232769,
        -0.24156959985792906,
        0.16800271324951419,
        -0.16979280576259656,
        0.09478965202684599
      ],
      [
        -0.0545183725686187,
        0.17110264283678464,
        -0.023028047674890376,
        0.13661302648181065,
        0.0950938929026468
      ]
    ],
    [
      [
        0.06857710115690248,
        -0.1013127404284049,
        -0.16623849675149552,
        0.01966128482804152,
        -0.17299396052981536
      ],
      [
        0.0391970399065147,
        0.07721947623882952,
        0.03794273876844021,
        -0.03465541450071735,
        -0.22826734958117983
      ],
      [
        0.05251371570476197,
        -0.11018520420068373,
        -0.26350580281459557,
        -0.18477668583891393,
        0.017689532567281195
      ],
      [
        -0.23493262474230864,
        0.09843703410080026,
        0.14764038106967206,
        0.01974807290013723,
        -0.14221644715296308
      ],
      [
        0.1855920700295063,
        -0.11430257321036197,
        0.13659087618736906,
        0.15997435817192074,
        -0.014740429693574213
      ]
    ],
    [
      [
        -0.19601342881429776,
        -0.06157293612209313,
        -0.18990292910777412,
        0.1045746606567334,
        -0.09424547250055118
      ],
      [
        -0.08273117335811318,
        -0.005179550451446844,
        -0.12641740673413282,
        -0.05883154467371975,
        0.12030553694197638
      ],
      [
        -0.18560501559491835,
        -0.1731842166098977,
        0.025431194438569386,
        -0.1756434043684832,
        0.21695891398249517
      ],
      [
        0.09111700384675306,
        -0.005357521203011531,
        -0.2470054649867153,
        -0.22154175260972922,
        -0.0785877799969171
      ],
      [
        -0.0435861360119256,
        -0.21174749043749636,
        -0.058105604146123715,
        -0.1911032424634912,
        -0.14597232445471775
      ]
    ],
    [
      [
        0.019015874456383176,
        0.054122083565553515,
        0.29194924504157144,
        0.23435190356855934,
        0.04121034695129763
      ],
      [
        -0.1663267021318561,
        0.2242318187481655,
        -0.1098911791120346,
        0.11007805898534562,
        0.1795349521197038
      ],
      [
        0.02354465211587315,
        0.10475255834076484,
        -0.09319004702952237,
        0.15013492261105818,
        0.23069582110298756
      ],
      [
        0.11402330542123512,
        0.022886153078127292,
        0.06509897181149145,
        0.058224185506052115,
        -0.11382436741019676
      ],
      [
        -0.12801896992558423,
        0.2015933575764009,
        0.03959783239908425,
        -0.02414062905861572,
        -0.1874709919306647
      ]
    ],
    [
      [
        0.007016386764247952,
        0.19977796025486022,
        -0.13190130710057762,
        -0.04149342853872471,
        0.1526721523409827
      ],
      [
        0.10118426842490269,
        -0.2178986263006668,
        -0.06397969513270607,
        -0.19112132281139946,
        0.040496396432147884
      ],
      [
        -0.08863234036021295,
        -0.03135753047678631,
        0.20372360215622026,
        0.07588922937800795,
        -0.17997452173098885
      ],
      [
        -0.07460492797600862,
        0.214117831570088,
        0.15355436918585155,
        -0.11891783510507183,
        -0.021030958381857555
      ],
      [
        -0.16367337477817687,
        -0.07636335661373707,
        0.05138559223979427,
        0.19889278535726465,
        -0.1800098800626709
      ]
    ],
    [
      [
        0.1702493920086693,
        0.004164966921251979,
        0.253092228179267,
        -0.046089337402756655,
        -0.26859069042221034
      ],
      [
        0.05497511823903714,
        0.114409074541334,
        -0.12813968451874436,
        0.250715843810839,
        0.11150762803180848
      ],
      [
        0.14834841052570027,
        -0.07409270136946976,
        -0.0917569408892457,
        -0.225442164903141,
        0.0995132971023901
      ],
      [
        -0.023279550730075427,
        -0.017459313708230506,
        0.14893544284908833,
        0.17872621577486122,
        -0.08527157640033016
      ],
      [
        0.19204802473019034,
        -0.07264355105656045,
        0.17078854200441873,
        0.17132820869417908,
        0.19515177417338328
      ]
    ],
    [
      [
        0.11821735865651091,
        0.1470706726148644,
        0.07581939952427985,
        -0.17732885694440184,
        0.09594574293453173
      ],
      [
        -0.1349003841398863,
        -0.0062697683860331675,
        -0.1783037687852195,
        0.20895605511245982,
        0.20851203383941316
      ],
      [
        0.07553473633667315,
        0.05432502087426455,
        0.15397219107993393,
        0.09845844651817404,
        0.08809880968914588
      ],
      [
        0.0007065468511234084,
        0.19707730507205876,
        0.22686284834561443,
        0.1662737097490827,
        0.05521913603342433
      ],
      [
        -0.1963167776345664,
        0.04049305869395362,
        -0.11062690813119824,
        -0.05153491060681785,
        0.16912584736891126
      ]
    ],
    [
      [
        -0.18677181413832333,
        0.14037907138334296,
        0.09310430217510142,
        -0.16353041476154684,
        -0.18272488211069915
      ],
      [
        0.14852852635299102,
        -0.20600960522010675,
        -0.18904689677543243,
        0.01898235711703429,
        0.16313799181401423
      ],
      [
        -0.21815434464606942,
        -0.1426774803383398,
        0.15342839181531043,
        0.1683759821128125,
        0.24459243251457097
      ],
      [
        0.013861200533329432,
        -0.23684568697611807,
        -0.14388014799692195,
        -0.16934803880343555,
        0.12053455200897023
      ],
      [
        -0.11476322604401452,
        -0.13883852564866425,
        0.10852007442155066,
        0.13481027082443398,
        0.1322216564500661
      ]
    ],
    [
      [
        -0.07765984424494239,
        -0.017537141091527576,
        0.02458290525954201,
        -0.20544824198822945,
        -0.07671135736998763
      ],
      [
        0.045565462712431115,
        0.060754766992995646,
        -0.18510026873033955,
        -0.009903492321493245,
        0.15076184034168677
      ],
      [
        0.035071316142718044,
        0.17189768665491692,
        -0.11387082164645264,
        -0.14334923187572277,
        0.24388532414948336
      ],
      [
        -0.18596306132188312,
        -0.0299346790078928,
        -0.15996412214485892,
        -0.20386155142129656,
        -0.23792734960930248
      ],
      [
        0.12358490732559269,
        -0.09852392691930596,
        0.07806912074236635,
        -0.18425906356427452,
        0.122402693739084
      ]
    ],
    [
      [
        0.015330276021368045,
        -0.16214690898121129,
        0.059078320761778075,
        -0.2238550002758553,
        0.09620958949088251
      ],
      [
        0.1937063587306664,
        -0.13592787185466257,
        0.1847801801303003,
        -0.1956943266979289,
        0.05810848501654923
      ],
      [
        0.21615846550738285,
        0.06904091172160809,
        -0.0780101093611296,
        0.057651639330008886,
        -0.07855596042544176
      ],
      [
        0.16539027845134655,
        -0.014832730467182207,
        0.19132374752587727,
        -0.04425852338056666,
        -0.12122209165493181
      ],
      [
        0.0650768972005646,
        0.17792191510308084,
        -0.011077877445539897,
        0.04096632781249369,
        -0.047396380106549604
      ]
    ],
    [
      [
        -0.19599842705423573,
        0.056050304715513054,
        -0.24541406841645474,
        0.05682884081056613,
        -0.08152619985621512
      ],
      [
        -0.04455768243326332,
        0.008903299246127757,
        0.04512090213352429,
        0.1863331108517094,
        -0.03399854566514605
      ],
      [
        0.006394215551979213,
        0.1954165665876764,
        -0.06526202147912576,
        0.01404988223799195,
        0.2085270357733712
      ],
      [
        -0.09299928118067774,
        -0.0808258383590505,
        -0.03263923571096307,
        0.05604356813118022,
        0.20931939271997838
      ],
      [
        -0.11914676816011467,
        0.20673993921681572,
        -0.1774779795707463,
        0.16036101620090473,
        0.22917005340154165
      ]
    ],
    [
      [
        -0.053875160152383056,
        -0.03467104746963153,
        -0.0303599557239296,
        -0.05292047692703394,
        -0.2803732678866226
      ],
      [
        -0.015899820464779748,
        -0.2094953958006933,
        -0.11241288198049366,
        0.17722090576024505,
        0.1340734549238348
      ],
      [
        -0.020989897793558494,
        0.172279297749572,
        0.04290337883183677,
        -0.036623467838007025,
        -0.15741439466707133
      ],
      [
        -0.22738554172797473,
        -0.17853060929517464,
        -0.037329876233548547,
        -0.07394452834418129,
        -0.1964780355796369
      ],
      [
        -0.18781010937969864,
        0.21416671224383854,
        -0.014881714941080211,
        -0.1923658607640438,
        -0.14305431733684615
      ]
    ],
    [
      [
        -0.21233967168440693,
        0.028803324981989085,
        -0.031488088812994024,
        0.1896293962806112,
        -0.1390180129321876
      ],
      [
        -0.08342076356655649,
        -0.09731488789219443,
        0.11360683450392009,
        -0.22004603607736226,
        0.11766362442180901
      ],
      [
        -0.18177984781460246,
        0.225439330870561,
        -0.20337293527687092,
        0.0935760374636088,
        -0.08144501148378412
      ],
      [
        0.14219843125075543,
        0.025709548779881516,
        0.10075659911300561,
        0.11080650714900234,
        0.1388160990192243
      ],
      [
        0.06015851755966856,
        -0.21867694313708497,
        -0.21218046366041596,
        -0.21410125367241808,
        -0.07684620571952808
      ]
    ],
    [
      [
        0.08778464341286837,
        -0.25894196606762715,
        -0.0007633492499239581,
        -0.19720148044538516,
        -0.1572519324475018
      ],
      [
        0.029644459569012738,
        -0.06491277689205682,
        -0.23513121611704924,
        -0.0411167169814326,
        -0.04141687850689898
      ],
      [
        -0.25682072931963673,
        0.09639090976047762,
        0.11095919702197274,
        0.21231860115133033,
        0.06772479724315884
      ],
      [
        -0.15808718403798358,
        0.219446989482358,
        -0.036960790512236476,
        0.03921557943650857,
        -0.00344053546308233
      ],
      [
        0.18239822287763216,
        0.046942496871620915,
        0.09843737251438302,
        0.22722855642904125,
        -0.06762488322079985
      ]
    ]
  ],
  [
    [
      [
        -0.09132954875048363,
        0.22121935979321364,
        -0.0011609166384883344,
        -0.19840312827284248,
        -0.1544444329869818
      ],
      [
        -0.19073664969350757,
        0.03849583151307883,
        0.05902596796479658,
        0.07108915416480077,
        -0.11917589052219968
      ],
      [
        -0.25298419492498403,
        -0.22679691010636302,
        -0.07109819433726407,
        0.1767150544967421,
        -0.13572444307078474
      ],
      [
        0.12340816228851938,
        0.0015174857757168266,
        0.1365148012422894,
        -0.07288102642535674,
        0.037554436015189645
      ],
      [
        -0.108039183671811,
        0.2262503832231123,
        -0.05427271651917799,
        0.0458850535397499,
        0.18479399622645898
      ]
    ],
    [
      [
        -0.18006805446799773,
        -0.2264392675208037,
        0.24427933940095437,
        0.23456716219480878,
        0.10381631664656485
      ],
      [
        -0.15426567733629964,
        -0.040567404062323745,
        -0.2738267217339836,
        0.07133346705726439,
        -0.08024866035962612
      ],
      [
        -0.11240607869133712,
        0.21091445443452853,
        -0.19356839565408115,
        -0.052828091573207364,
        -0.09771832615382701
      ],
      [
        0.08804960890720993,
        0.015566621745619708,
        -0.19439243455692407,
        -0.05301019636504056,
        0.0011996730088609268
      ],
      [
        0.23020165949270333,
        -0.008069824796198008,
        0.06865063756464684,
        -0.1046605904144164,
        0.06189602413533974
      ]
    ],
    [
      [
        -0.20773542203556916,
        0.025679103194984544,
        0.2279152939794318,
        -0.25441521115501975,
        -0.07777986851675253
      ],
      [
        0.09473645633390657,
        0.20095248981060365,
        -0.21350255055637518,
        -0.14113249575993564,
        0.16113325819681176
      ],
      [
        -0.16187528883815913,
        0.22212843310892136,
        -0.042773338305238336,
        -0.15055729650461985,
        -0.058619681726728025
      ],
      [
        0.10657964266533644,
        0.22325374623037922,
        0.20516498836877986,
        0.044893879634801744,
        -0.07579064940899032
      ],
      [
        0.16876839605821234,
        -0.047173930874860145,
        -0.09665814499946186,
        0.019306827473829433,
        -0.2036941794047239
      ]
    ],
    [
      [
        -0.20071889223724868,
        0.08787673167752529,
        0.054794788691539024,
        -0.021456820564879263,
        -0.024873222553450935
      ],
      [
        0.060654242651702904,
        0.2388700393377285,
        -0.1483275665717551,
        0.02798494569174902,
        -0.053286921432637684
      ],
      [
        0.10420398441140206,
        -0.2252976147290944,
        0.20724432154347666,
        -0.004736756411506204,
        0.04907500841960495
      ],
      [
        -0.08078210167489384,
        0.1323663090638003,
        -0.03026733422362083,
        0.05091484956057013,
        0.06887958876523016
      ],
      [
        -0.0672869742489414,
        -0.10462756719609462,
        -0.14031868441072953,
        0.10396561705052396,
        -0.23467750032019394
      ]
    ],
    [
      [
        -0.14175580968780216,
        0.10805510412949242,
        -0.11227855516643465,
        -0.2619275391653774,
        -0.2484065223817332
      ],
      [
        -0.2516294189719485,
        0.08593497175851526,
        0.07809517687187639,
        -0.021104557800708388,
        0.0749324738177967
      ],
      [
        -0.2522407191084473,
        -0.28536626093272427,
        -0.1985207693558835,
        -0.2624816220558153,
        0.09181736295152
      ],
      [
        0.048990246679158585,
        -0.20102308325038062,
        0.07078197660878896,
        -0.2674075010771176,
        0.1135569428427723
      ],
      [
        -0.38579227992311116,
        -0.022219573431102195,
        -0.25071922986047923,
        0.1691649663108743,
        -0.24132867732270344
      ]
    ],
    [
      [
        0.19540471077528354,
        -0.19172755545279133,
        -0.283094439054204,
        -0.2552787560113093,
        -0.19480227922689328
      ],
      [
        0.22409558333459478,
        0.20454779252178784,
        -0.2542055750258367,
        -0.042598885894721945,
        0.05552944564445951
      ],
      [
        -0.1887373491464585,
        -0.030241966384961634,
        -0.009170198204359636,
        0.055980553668911796,
        0.06751862687104
      ],
      [
        0.07479206471091972,
        0.10698561588359241,
        0.00927806156217651,
        -0.09239578989676889,
        0.00820472253040648
      ],
      [
        -0.0738588407129211,
        -0.2866210719928749,
        -0.20414763639036929,
        -0.2349800810489451,
        -0.03757738593775179
      ]
    ],
    [
      [
        -0.10515733834743314,
        0.0527225907977373,
        0.12906499435553742,
        -0.09161622206747999,
        -0.13755016010086718
      ],
      [
        -0.0947168101973429,
        -0.17366440573458924,
        0.20744126143736416,
        0.278869981077551,
        -0.22605951132506844
      ],
      [
        -0.0017178693947050403,
        0.06051376057836149,
        0.038022431106936455,
        0.23896420287136289,
        -0.17641334303656075
      ],
      [
        0.0059497536987775865,
        0.1732984455385934,
        -0.05142946016443862,
        -0.167216828505565,
        0.003880506421026794
      ],
      [
        0.15872162653703767,
        0.12777114229763506,
        -0.23321249549302905,
        -0.12665971763426534,
        -0.22649599403502474
      ]
    ],
    [
      [
        -0.17532911701242432,
        -0.08758594282493784,
        0.10135243303465118,
        -0.21390490015676744,
        0.033275086703099636
      ],
      [
        -0.24267932319238641,
        0.09567898415324595,
        -0.045425477641793784,
        0.029935304656681497,
        -0.20855935323820352
      ],
      [
        0.1990265678842026,
        -0.1835482338137966,
        0.2050556600648559,
        -0.03690124231567409,
        -0.19947265402472966
      ],
      [
        -0.06176055914696229,
        -0.024549463060311225,
        -0.23001271107721788,
        -0.2551399743023831,
        -0.160298397092156
      ],
      [
        0.12914600092027032,
        0.004074445658932053,
        0.011182459287217198,
        0.1830529450356473,
        -0.07192804258694241
      ]
    ],
    [
      [
        -0.11670160446809953,
        -0.16674593578582145,
        -0.2465012606579628,
        -0.24238457513528908,
        0.029215405142006608
      ],
      [
        -0.19364701352620306,
        0.022274352371526283,
        -0.07228430773961614,
        -0.1279503483012542,
        -0.06999640379707765
      ],
      [
        0.10779780668212911,
        0.03281330341067089,
        0.12473593863642797,
        0.07853543347509984,
        0.20090639547026726
      ],
      [
        -0.07673423388553617,
        0.05368344499173578,
        -0.04415238883797424,
