[
  [
    [
      [
        0.04423318818535377,
        -0.04399309534052795,
        0.029853058504741733,
        -0.23768701335628045,
        0.021831703461021174
      ],
      [
        -0.01998951143307969,
        -0.003190974649587003,
        -0.19693025382836354,
        -0.017918509516074814,
        0.13443665955604456
      ],
      [
        0.1615819954171388,
        0.16215425393087138,
        -0.09616783451544245,
        -0.020788750819637127,
        -0.014377310788116446
      ],
      [
        0.039323120338053824,
        -0.009611230275446275,
        -0.10625373567051782,
        -0.21805222414107694,
        0.04681712828371602
      ],
      [
        -0.23822656679739912,
        -0.03101364509091028,
        -0.23948192596812323,
        0.028826609780502072,
        -0.0022044849453998643
      ]
    ]
  ],
  [
    [
      [
        -0.24732104023127133,
        -0.4176360104769252,
        -0.06195300750254752,
        0.5729750262293793,
        0.09884065039485569
      ],
      [
        -0.38065530728026215,
        0.1175013474097836,
        0.442152318691762,
        0.12660667934990133,
        -0.37659949155936734
      ],
      [
        -0.05607663975487403,
        0.4636175543776575,
        0.20840495847467916,
        -0.29493819168896,
        -0.28716985124222905
      ],
      [
        0.5348127395499184,
        0.41814310810195926,
        -0.3292277364964598,
        -0.149997411988845,
        -0.18496397698931255
      ],
      [
        0.3083199735553516,
        -0.4266544399173313,
        -0.40361481792919357,
        -0.15921738298108465,
        -0.042004445274515696
      ]
    ]
  ],
  [
    [
      [
        -0.1905230125463144,
        -0.09342916467847909,
        -0.2151138052694589,
        -0.23353415482470144,
        -0.049319471189415945
      ],
      [
        -0.1644989737110146,
        -0.2932199273633407,
        -0.24906598862531934,
        -0.36225289645542486,
        0.04452098265236986
      ],
      [
        0.13340712764283585,
        -0.12191772933788685,
        0.06212908640268329,
        -0.06980876940024457,
        0.448761379034862
      ],
      [
        -0.01718125269438869,
        0.12954262845445497,
        -0.1015471249206436,
        0.06570738808114485,
        0.450177778052729
      ],
      [
        -0.21501813126852423,
        -0.3370784879086941,
        -0.03553794641655023,
        0.07780839951568984,
        0.31254193900136207
      ]
    ]
  ],
  [
    [
      [
        0.17089860471850749,
        -0.2604443620579407,
        -0.1705148282871475,
        -0.05340678066314478,
        0.10646313404147663
      ],
      [
        0.6579720445147447,
        0.04619585500456979,
        -0.6262461015634785,
        -0.14256939179312803,
        -0.0878998086792292
      ],
      [
        0.18604181564947855,
        0.45881104304628223,
        0.13895010849885464,
        -0.42995717727602245,
        -0.3733074782606115
      ],
      [
        -0.5505116651106573,
        0.3630324602295814,
        0.641095165282133,
        -0.010577793582873469,
        -0.207316903757147
      ],
      [
        -0.403041504089884,
        -0.24608766664237244,
        -0.013449889584206847,
        0.43196868365226687,
        0.09395105019697439
      ]
    ]
  ],
  [
    [
      [
        0.034543370555659154,
        0.11011672323290174,
        -0.14285614839280927,
        -0.08525508470654253,
        -0.21492461766346302
      ],
      [
        -0.2079919509312979,
        -0.21953572586049624,
        -0.1563231729936351,
        -0.09854558069415338,
        -0.056315787874328026
      ],
      [
        -0.18943783980076784,
        -0.12058117821107771,
        -0.1874020408291782,
        -0.12403715659316931,
        0.06775862342019108
      ],
      [
        -0.03442639513931568,
        0.16742031802316326,
        0.11100212042379919,
        0.043796746480189615,
        0.1352227260171486
      ],
      [
        -0.12853376869521796,
        0.04499104944759388,
        0.054081018269964205,
        -0.1389005361416849,
        -0.20441031201691265
      ]
    ]
  ],
  [
    [
      [
        -0.1304041575199735,
        0.13648968734196218,
        -0.19286256850988331,
        -0.1441727488591107,
        0.07941415111882541
      ],
      [
        0.09098391029347556,
        0.07889527880302077,
        -0.012519040128916368,
        -0.12990733309933838,
        -0.1348021619741739
      ],
      [
        0.20541756730445473,
        -0.051451964916002416,
        -0.1172806004900335,
        0.04127695895571567,
        -0.29172501783853616
      ],
      [
        0.06972846604430903,
        -0.02569131828822715,
        0.17339341165673483,
        0.10075427652941801,
        0.006180918389039918
      ],
      [
        -0.1608866637432722,
        -0.17260991698819167,
        -0.1626602032929995,
        -0.05432741906921028,
        0.0103531190662116
      ]
    ]
  ],
  [
    [
      [
        -0.015602000841906981,
        0.10646097543833716,
        -0.4614995318629705,
        -0.06753661928577477,
        0.33513790468623395
      ],
      [
        -0.27633550400465684,
        -0.21389953447887763,
        0.1355124876793929,
        0.2244423104152922,
        0.2384325112385958
      ],
      [
        -0.5810777620521456,
        0.07780973505765305,
        0.11660549793061058,
        0.40854230412590503,
        -0.08445400785847236
      ],
      [
        -0.17213142534398748,
        0.28152973019690125,
        0.18097807638643487,
        0.19303809504662103,
        -0.23076120653780854
      ],
      [
        0.20910767180603348,
        0.0729506924759426,
        0.11926352335929781,
        -0.2766842946948535,
        0.19650202769475872
      ]
    ]
  ],
  [
    [
      [
        -0.2519774994435834,
        -0.08082801136175238,
        -0.036471579325392876,
        -0.35625096902522135,
        0.08145853925280674
      ],
      [
        0.0779209101906888,
        -0.15304280481285965,
        -0.07860251508860013,
        -0.13494966030152986,
        0.13778329902173964
      ],
      [
        0.07776343545564028,
        0.33042111383228717,
        0.060412481135594824,
        0.2210825885186207,
        -0.24842304479509095
      ],
      [
        0.034851313651375455,
        0.14660699154666573,
        0.2861006072824161,
        0.15797373765591902,
        -0.055267282996002996
      ],
      [
        0.06310841851747773,
        0.09762015256029137,
        0.10492019701329539,
        0.053852750284571954,
        0.19421906793561625
      ]
    ]
  ]
]